0.0155078	0.0252812	0.027589	0.0455724	-0.0429429	0.0384088	-0.0452199	0.025467	0.0119002	0.0405257	0.0350401	-0.00865607	0.00196113	-0.0318899	-0.0234999	0.032454	0.00875119	0.0245629	0.0422708	0.00343563	0.0418241	0.0213463	0.00727978	-0.0451771	-0.0097837	0.0021817	0.0448051	0.0298685	0.0272633	0.0152384	-0.00408106	-0.00303475
-0.527004	0.423843	-0.533186	-0.538444	-0.514867	-0.472229	-0.514585	-0.437448	-0.558377	-0.544885	-0.513504	-0.496448	0.550282	0.535813	-0.429922	-0.552227	-0.43247	0.506097	0.511709	0.517128	0.525136	0.537791	-0.477256	0.53614	-0.627919	0.484692	-0.438173	-0.560161	0.481258	-0.546041	-0.381626	-0.462873
-0.470307	0.517347	-0.461741	-0.532421	-0.449595	-0.470222	-0.512592	-0.49678	-0.517752	-0.47513	-0.511639	-0.529231	0.480271	0.535808	-0.470864	-0.461329	-0.515474	0.531504	0.53711	0.44134	0.53501	0.498658	-0.460976	0.50083	-0.0427827	0.470063	-0.530628	-0.420826	0.479824	-0.441904	-0.506198	-0.446754
-0.474425	0.544306	-0.567924	-0.490649	-0.499836	-0.415827	-0.474865	-0.543435	-0.516647	-0.558449	-0.478393	-0.539949	0.503784	0.489677	-0.497268	-0.506717	-0.560531	0.438484	0.482613	0.525816	0.428388	0.536525	-0.494867	0.44065	-0.817166	0.435066	-0.509456	-0.552895	0.453704	-0.506429	-0.485295	-0.544891
-0.508096	0.486786	-0.498024	-0.487172	-0.541546	-0.472231	-0.523006	-0.516104	-0.304288	-0.519195	-0.455767	-0.44017	0.473041	0.516362	-0.522926	-0.424862	-0.45921	0.496648	0.556323	0.545443	0.517213	0.548341	-0.556443	0.4264	-0.42722	0.51792	-0.433773	-0.439953	0.45519	-0.391251	-0.513993	-0.4032
-0.501682	0.485863	-0.467934	-0.441394	-0.545835	-0.477481	-0.413323	-0.394604	-0.489586	-0.426322	-0.522406	-0.535676	0.477539	0.477542	-0.445278	-0.416708	-0.462155	0.360183	0.397373	0.386547	0.503894	0.484452	-0.452175	0.489059	-0.634797	0.416066	-0.538176	-0.386837	0.451089	-0.42106	-0.501683	-0.478805
-0.441858	0.464705	-0.471815	-0.515054	-0.454754	-0.503865	-0.501241	-0.438627	-0.501787	-0.456242	-0.482517	-0.477212	0.471671	0.505975	-0.440239	-0.559477	-0.558205	0.504823	0.552085	0.443634	0.494847	0.539764	-0.478826	0.430414	-0.526129	0.518914	-0.450615	-0.521805	0.407645	-0.380917	-0.407589	-0.544567
-0.485816	0.484576	-0.557294	-0.553768	-0.400595	-0.571657	-0.54054	-0.554105	-0.444333	-0.483355	-0.546867	-0.456163	0.524836	0.558227	-0.527623	-0.432464	-0.475537	0.519286	0.473468	0.436554	0.45463	0.444451	-0.56126	0.479652	-0.136874	0.544217	-0.437826	-0.520536	0.567321	-0.411084	-0.43775	-0.573162
-0.526855	0.503877	-0.482784	-0.433236	-0.383762	-0.40874	-0.467361	-0.495136	-0.479395	-0.473333	-0.442467	-0.517071	0.506869	0.539232	-0.434873	-0.51053	-0.519448	0.521409	0.446442	0.540698	0.519955	0.522061	-0.540245	0.388647	-0.862627	0.480765	-0.436453	-0.518518	0.489218	-0.579514	-0.500687	-0.478297
-0.52362	0.452398	-0.262275	-0.463157	-0.580453	-0.383657	-0.294397	-0.53499	-0.590469	-0.318412	-0.374686	-0.483181	0.506604	0.310567	-0.581833	-0.519991	-0.562648	0.28694	0.445391	0.630777	0.55658	0.435224	-0.328662	0.314592	0.822405	0.542129	-0.633896	-0.456432	0.288454	-0.447377	-0.489904	-0.422048
-0.507142	0.454616	-0.424577	-0.45668	-0.516082	-0.369611	-0.336182	-0.50687	-0.225978	-0.481106	-0.422583	-0.275081	0.425453	0.466916	-0.423914	-0.505601	-0.308984	0.473865	0.399328	0.591579	0.432527	0.411446	-0.49986	0.41302	0.878303	0.406295	-0.480937	-0.398233	0.575545	-0.298418	-0.484259	-0.558118
-0.463204	0.428841	-0.301203	-0.422624	-0.493889	-0.493279	-0.383003	-0.537619	-0.161565	-0.352397	-0.449038	-0.266446	0.307647	0.355005	-0.433189	-0.517612	-0.404071	0.443102	0.487176	0.597818	0.423157	0.446111	-0.361889	0.204575	1.04173	0.442025	-0.454718	-0.289446	0.57601	-0.39695	-0.563737	-0.480434
-0.42399	0.549566	-0.4504	-0.453888	-0.324632	-0.479918	-0.432905	-0.448152	-0.346618	-0.537858	-0.477215	-0.495329	0.545152	0.386167	-0.462705	-0.493966	-0.485286	0.564151	0.538018	0.4475	0.437992	0.486658	-0.475825	0.560314	-0.75354	0.547144	-0.486706	-0.475552	0.556003	-0.549796	-0.406645	-0.511023
-0.447942	0.468257	-0.478424	-0.473009	-0.431748	-0.533488	-0.563538	-0.42031	-0.586498	-0.494301	-0.537874	-0.542232	0.443208	0.470873	-0.542671	-0.552188	-0.426895	0.475984	0.480447	0.412698	0.544646	0.466578	-0.450316	0.411758	-0.83115	0.53517	-0.491521	-0.501579	0.591505	-0.565567	-0.441297	-0.450026
-0.477112	0.476664	-0.499967	-0.413401	-0.553862	-0.450527	-0.49206	-0.448504	-0.499469	-0.487209	-0.386272	-0.451692	0.519741	0.459013	-0.553742	-0.522906	-0.562627	0.551247	0.480911	0.519238	0.42994	0.460564	-0.547363	0.391129	-0.558181	0.513435	-0.575701	-0.523631	0.494617	-0.535949	-0.478798	-0.361322
-0.529275	0.52516	-0.448927	-0.508258	-0.401173	-0.532901	-0.508144	-0.429945	-0.483266	-0.427587	-0.434221	-0.446106	0.424644	0.517289	-0.560886	-0.552427	-0.472442	0.454711	0.513292	0.51979	0.507942	0.507462	-0.479441	0.43271	-0.76747	0.520347	-0.476243	-0.561439	0.529315	-0.598763	-0.396547	-0.426064
-0.490741	0.524084	-0.53508	-0.419497	-0.499015	-0.554146	-0.506951	-0.491545	-0.530179	-0.528098	-0.453735	-0.510365	0.467751	0.499625	-0.514887	-0.531917	-0.466949	0.548877	0.507366	0.454679	0.499908	0.506463	-0.460504	0.526924	-0.54903	0.512862	-0.480969	-0.561369	0.534269	-0.508297	-0.433759	-0.44997
-0.506792	0.446855	-0.51485	-0.531608	-0.396063	-0.453918	-0.47783	-0.498941	-0.514844	-0.528387	-0.541889	-0.47124	0.464002	0.483114	-0.513743	-0.4578	-0.411965	0.471194	0.553162	0.515658	0.486054	0.543738	-0.448339	0.462455	-0.828499	0.538906	-0.533407	-0.410689	0.479138	-0.459082	-0.5146	-0.43516
-0.522431	0.522916	-0.499333	-0.492596	-0.459523	-0.539434	-0.520243	-0.536921	-0.503032	-0.462028	-0.448188	-0.500858	0.526336	0.435347	-0.528933	-0.442093	-0.370773	0.477184	0.42438	0.456724	0.452233	0.472771	-0.535215	0.473379	-0.525427	0.427284	-0.467113	-0.463248	0.493207	-0.402443	-0.51934	-0.468525
-0.469595	0.535513	-0.463187	-0.421974	-0.438457	-0.557702	-0.525269	-0.484578	-0.497509	-0.470891	-0.487627	-0.558896	0.464667	0.533333	-0.44928	-0.43167	-0.452714	0.435394	0.494269	0.569291	0.478082	0.443789	-0.458546	0.474639	-0.706906	0.536386	-0.401489	-0.441335	0.420497	-0.494525	-0.383496	-0.471733
-0.465853	0.540326	-0.449657	-0.461262	-0.439537	-0.39526	-0.539569	-0.54452	-0.53891	-0.507442	-0.533602	-0.523997	0.460761	0.540636	-0.475721	-0.510867	-0.404471	0.536467	0.521868	0.450615	0.481196	0.498579	-0.480543	0.500104	-0.836486	0.505393	-0.512901	-0.501624	0.540513	-0.46545	-0.476987	-0.502239
-0.518288	0.410588	-0.525758	-0.40109	-0.496215	-0.421477	-0.424648	-0.432615	-0.51134	-0.444291	-0.452981	-0.396883	0.50571	0.436996	-0.511631	-0.536326	-0.539289	0.490141	0.478049	0.501077	0.447428	0.50945	-0.444571	0.482337	-0.339151	0.527183	-0.542926	-0.450759	0.536052	-0.48357	-0.483021	-0.431301
-0.521635	0.54852	-0.501439	-0.529984	-0.4719	-0.516669	-0.473691	-0.407613	-0.339378	-0.464773	-0.530456	-0.479064	0.459172	0.484719	-0.509583	-0.467674	-0.525553	0.495702	0.564905	0.378323	0.469664	0.539148	-0.447946	0.447769	-0.860785	0.562175	-0.497004	-0.552547	0.538169	-0.436812	-0.485973	-0.513236
-0.553863	0.570156	-0.259776	-0.40316	-0.446705	-0.518834	-0.559882	-0.462514	-0.398819	-0.358683	-0.51385	-0.494133	0.575396	0.528003	-0.436007	-0.341978	-0.484174	0.558736	0.421502	0.500082	0.507894	0.461925	-0.464041	0.534929	-0.376503	0.461153	-0.331358	-0.27955	0.31339	-0.410418	-0.609868	-0.623042
-0.477156	0.515105	-0.462346	-0.439731	-0.429777	-0.53221	-0.525988	-0.440892	-0.462236	-0.527301	-0.542042	-0.440984	0.452127	0.530122	-0.524173	-0.531276	-0.500788	0.570248	0.481905	0.499115	0.524487	0.445753	-0.543607	0.441829	-0.670304	0.500848	-0.526004	-0.470716	0.541822	-0.477628	-0.513169	-0.479416
-0.514448	0.533	-0.566047	-0.422963	-0.414848	-0.476708	-0.494794	-0.511627	-0.50555	-0.448353	-0.499787	-0.566971	0.527317	0.472861	-0.454704	-0.475167	-0.563392	0.455714	0.454114	0.499262	0.534108	0.463687	-0.502381	0.422017	-0.454841	0.567594	-0.375289	-0.494626	0.53143	-0.554539	-0.400859	-0.55242
-0.454835	0.503064	-0.55334	-0.443359	-0.434681	-0.497571	-0.532356	-0.547069	-0.33982	-0.468423	-0.474952	-0.444571	0.435026	0.510472	-0.538387	-0.519477	-0.5016	0.514125	0.481104	0.495987	0.546833	0.50657	-0.477145	0.474075	-0.770649	0.44773	-0.533817	-0.458917	0.496914	-0.505296	-0.539638	-0.55858
-0.529994	0.442786	-0.293375	-0.475843	-0.51109	-0.444098	-0.461025	-0.542883	-0.102172	-0.476833	-0.472529	-0.440601	0.376341	0.441745	-0.45087	-0.390027	-0.425718	0.37404	0.335345	0.287454	0.470188	0.412533	-0.401957	0.463325	0.773247	0.406742	-0.567169	-0.42803	0.350151	-0.393561	-0.506	-0.280482
-0.498131	0.510761	-0.47622	-0.473946	-0.458264	-0.41141	-0.503303	-0.501239	-0.587866	-0.482549	-0.508752	-0.519993	0.419793	0.444842	-0.548368	-0.483631	-0.448752	0.472451	0.513313	0.473656	0.476121	0.493377	-0.456445	0.552221	-0.734884	0.518162	-0.524122	-0.533132	0.559425	-0.514714	-0.496869	-0.543652
-0.454581	0.541781	-0.558139	-0.528858	-0.460532	-0.499173	-0.568626	-0.552375	-0.386829	-0.520286	-0.497966	-0.469383	0.49379	0.496548	-0.464899	-0.41635	-0.477129	0.478558	0.562267	0.499272	0.527435	0.445503	-0.556177	0.486151	-0.795034	0.469095	-0.401989	-0.468861	0.381337	-0.473304	-0.540232	-0.459507
-0.557518	0.534661	-0.530591	-0.475406	-0.455102	-0.523069	-0.511344	-0.536557	-0.423651	-0.459327	-0.552312	-0.457271	0.515429	0.457571	-0.444678	-0.529652	-0.522457	0.446039	0.473105	0.483514	0.432886	0.476724	-0.514378	0.542476	-0.783317	0.493872	-0.474259	-0.46613	0.55702	-0.508264	-0.472492	-0.450824
-0.532824	0.42263	-0.528854	-0.458512	-0.472519	-0.55844	-0.521882	-0.494326	-0.420934	-0.434543	-0.518335	-0.530552	0.521789	0.431552	-0.511063	-0.457925	-0.456241	0.545804	0.462306	0.487013	0.532459	0.423193	-0.46034	0.458356	-0.715917	0.535988	-0.370784	-0.508908	0.538712	-0.566267	-0.532718	-0.501278
-0.484616	0.45472	-0.527932	-0.538215	-0.448797	-0.555519	-0.49012	-0.52679	-0.556855	-0.556925	-0.468423	-0.387205	0.531729	0.537847	-0.527668	-0.455745	-0.558543	0.448793	0.520161	0.521457	0.485222	0.512509	-0.559464	0.498534	-0.575461	0.512669	-0.448954	-0.550255	0.477281	-0.403665	-0.498774	-0.533757
-0.495817	0.526027	-0.428133	-0.450104	-0.500848	-0.472057	-0.425558	-0.504685	-0.476097	-0.505679	-0.46932	-0.445345	0.455005	0.499799	-0.511894	-0.504354	-0.457984	0.419205	0.447308	0.504959	0.5018	0.551873	-0.563394	0.451034	-0.680129	0.514053	-0.514744	-0.484697	0.455401	-0.548311	-0.53617	-0.455736
-0.444576	0.538496	-0.510362	-0.501539	-0.451158	-0.409084	-0.504738	-0.560261	-0.432116	-0.565392	-0.498274	-0.449949	0.502297	0.54263	-0.437948	-0.538146	-0.476944	0.537846	0.390706	0.497422	0.478039	0.464793	-0.523675	0.380163	-0.844428	0.500391	-0.448662	-0.543279	0.430351	-0.327308	-0.522091	-0.522506
-0.489301	0.440657	-0.455045	-0.420333	-0.516764	-0.471879	-0.432494	-0.539072	-0.447153	-0.411805	-0.534085	-0.49065	0.46554	0.478162	-0.492314	-0.53428	-0.446704	0.492482	0.535584	0.536142	0.539353	0.466425	-0.533003	0.449516	-0.54295	0.543817	-0.546824	-0.533817	0.403942	-0.49385	-0.506024	-0.558577
-0.467142	0.440853	-0.520945	-0.536024	-0.447016	-0.520505	-0.379561	-0.425947	-0.47704	-0.487084	-0.419841	-0.395407	0.434117	0.447988	-0.431242	-0.415395	-0.540077	0.469716	0.495316	0.464579	0.478867	0.555484	-0.452435	0.419813	0.452332	0.516675	-0.545801	-0.585593	0.476753	-0.443409	-0.431268	-0.399785
-0.537363	0.574549	-0.376873	-0.470746	-0.491408	-0.657169	-0.535241	-0.580711	-0.225633	-0.541852	-0.461884	-0.435554	0.465119	0.433869	-0.47012	-0.273287	-0.589017	0.619785	0.544696	0.657303	0.597853	0.396426	-0.527967	0.376433	0.190056	0.501201	-0.2166	-0.393443	0.342429	-0.454602	-0.519514	-0.595881
-0.459124	0.461705	-0.498094	-0.48043	-0.542107	-0.423494	-0.412825	-0.463725	-0.514847	-0.515678	-0.468432	-0.540936	0.395501	0.545662	-0.509275	-0.473376	-0.343719	0.426747	0.554869	0.510227	0.468717	0.454061	-0.458427	0.596154	-0.824356	0.473722	-0.487457	-0.546723	0.506897	-0.484346	-0.472904	-0.583492
-0.449024	0.519396	-0.539791	-0.41129	-0.450826	-0.452349	-0.530163	-0.529162	-0.53127	-0.43653	-0.500591	-0.513025	0.527662	0.450216	-0.541353	-0.434093	-0.392338	0.5359	0.472551	0.511274	0.464491	0.445368	-0.456437	0.486451	-0.137934	0.492563	-0.413588	-0.550382	0.563326	-0.454078	-0.534201	-0.449959
-0.477846	0.50851	-0.528858	-0.47867	-0.475927	-0.528403	-0.503589	-0.501892	-0.560491	-0.543861	-0.412495	-0.495994	0.454937	0.515457	-0.475895	-0.531567	-0.463775	0.495281	0.455994	0.509701	0.519016	0.488806	-0.478866	0.504972	-0.541447	0.492372	-0.490981	-0.401365	0.46513	-0.530035	-0.390475	-0.477017
-0.515703	0.461698	-0.473271	-0.50383	-0.525523	-0.395092	-0.465963	-0.466342	-0.436577	-0.427747	-0.445269	-0.505432	0.438893	0.488344	-0.544164	-0.515032	-0.463607	0.509474	0.450187	0.571026	0.477624	0.418947	-0.435148	0.408967	-0.206784	0.532187	-0.525518	-0.495541	0.521493	-0.375378	-0.356036	-0.462613
-0.530872	0.44067	-0.574209	-0.547157	-0.477851	-0.505456	-0.548849	-0.542362	-0.537004	-0.53957	-0.49116	-0.474244	0.458093	0.47046	-0.411017	-0.530177	-0.493434	0.528508	0.466685	0.514798	0.518768	0.504764	-0.475416	0.596068	-0.257897	0.516885	-0.493887	-0.535871	0.541238	-0.558359	-0.48966	-0.401222
-0.496925	0.410845	-0.517158	-0.452449	-0.367742	-0.560181	-0.547499	-0.482323	-0.535063	-0.450617	-0.526787	-0.491011	0.472553	0.517125	-0.562422	-0.556056	-0.495751	0.52735	0.459791	0.49286	0.523104	0.435114	-0.457969	0.526385	-0.748091	0.507882	-0.535424	-0.544107	0.47823	-0.477664	-0.467758	-0.455037
-0.433441	0.435457	-0.400794	-0.413361	-0.556272	-0.463061	-0.559005	-0.494764	-0.592602	-0.464792	-0.454658	-0.529052	0.519274	0.500043	-0.5465	-0.507344	-0.56148	0.392173	0.419261	0.412063	0.533973	0.466738	-0.421004	0.536628	0.291592	0.499507	-0.57184	-0.483919	0.410003	-0.384338	-0.558398	-0.473375
-0.49548	0.489636	-0.472551	-0.443784	-0.33707	-0.600417	-0.477015	-0.463773	-0.485922	-0.546344	-0.476282	-0.545225	0.530075	0.461026	-0.469816	-0.3733	-0.34703	0.485256	0.531602	0.456292	0.567033	0.468389	-0.485338	0.48333	-0.321049	0.497461	-0.445479	-0.523698	0.422046	-0.448871	-0.499314	-0.49058
-0.50683	0.497057	-0.506532	-0.49151	-0.540481	-0.558013	-0.498335	-0.526186	-0.518943	-0.457509	-0.517883	-0.404496	0.453374	0.511176	-0.558509	-0.566138	-0.556449	0.463346	0.541482	0.425612	0.463163	0.482962	-0.478141	0.53546	-0.829755	0.543826	-0.487184	-0.568123	0.562943	-0.48263	-0.394779	-0.381199
-0.460248	0.431583	-0.415632	-0.514584	-0.364787	-0.519884	-0.455102	-0.446043	-0.483586	-0.427492	-0.521241	-0.438933	0.483275	0.528942	-0.478306	-0.548462	-0.538097	0.546727	0.432584	0.464888	0.553151	0.495182	-0.470576	0.452368	-0.767181	0.543377	-0.457971	-0.513344	0.527508	-0.559354	-0.476967	-0.528486
-0.492906	0.475706	-0.461114	-0.44705	-0.537695	-0.547596	-0.499818	-0.494545	-0.443637	-0.456978	-0.495834	-0.417693	0.501813	0.468257	-0.501531	-0.471879	-0.545465	0.538175	0.488926	0.477123	0.446987	0.465161	-0.525551	0.458484	-0.707926	0.544573	-0.462382	-0.512277	0.488469	-0.536548	-0.45779	-0.501213
-0.481819	0.480749	-0.457787	-0.464737	-0.362265	-0.529263	-0.516397	-0.519149	-0.48614	-0.530595	-0.459405	-0.52209	0.431494	0.519359	-0.51626	-0.52272	-0.514497	0.500965	0.431097	0.521002	0.559916	0.514469	-0.55419	0.560327	-0.417549	0.471009	-0.501962	-0.449939	0.503211	-0.453529	-0.479509	-0.462823
-0.510812	0.55299	-0.396468	-0.525743	-0.394348	-0.510236	-0.509437	-0.517228	-0.601268	-0.524446	-0.459078	-0.503332	0.485157	0.497147	-0.538124	-0.495136	-0.565947	0.460674	0.570604	0.383652	0.565371	0.567116	-0.469571	0.567215	-0.412568	0.555026	-0.406314	-0.552878	0.39372	-0.3486	-0.51412	-0.516164
-0.46404	0.506002	-0.447402	-0.470459	-0.310941	-0.453242	-0.464339	-0.381149	-0.545493	-0.539193	-0.479599	-0.543953	0.47015	0.467483	-0.54565	-0.559901	-0.33217	0.487599	0.510417	0.530073	0.453825	0.490434	-0.57565	0.427481	-0.614696	0.539662	-0.498599	-0.508225	0.474113	-0.527939	-0.502849	-0.585465
-0.532397	0.544316	-0.539348	-0.4701	-0.456259	-0.562383	-0.5078	-0.512451	-0.420531	-0.500139	-0.56374	-0.581702	0.584327	0.489416	-0.531716	-0.398914	-0.561017	0.506948	0.521779	0.510047	0.496166	0.471945	-0.44453	0.482182	0.317332	0.557414	-0.290809	-0.475925	0.547148	-0.30529	-0.492882	-0.402413
-0.477305	0.416579	-0.489047	-0.452132	-0.481676	-0.489143	-0.419831	-0.464902	-0.464661	-0.540795	-0.520734	-0.484692	0.511569	0.559794	-0.481195	-0.44867	-0.508649	0.476404	0.477296	0.541399	0.479258	0.488315	-0.56063	0.569301	0.0877676	0.556749	-0.384865	-0.442534	0.546387	-0.434467	-0.585095	-0.4318
-0.485578	0.435612	-0.237236	-0.489357	-0.460104	-0.484058	-0.223553	-0.485886	-0.137867	-0.294469	-0.423395	-0.260387	0.488423	0.443655	-0.432333	-0.358756	-0.170715	0.39546	0.413954	0.448846	0.442233	0.315813	-0.458375	0.171357	1.12517	0.404884	-0.510843	-0.395725	0.278762	-0.352498	-0.547345	-0.481591
-0.509586	0.492617	-0.470483	-0.446599	-0.45537	-0.513178	-0.492199	-0.544583	-0.547994	-0.563797	-0.529495	-0.453617	0.471628	0.548392	-0.457369	-0.532627	-0.457832	0.423757	0.518291	0.377646	0.506153	0.49329	-0.461307	0.487245	-0.736684	0.52135	-0.536833	-0.455026	0.459964	-0.473947	-0.484205	-0.509159
-0.544163	0.516	-0.537469	-0.511325	-0.391633	-0.458591	-0.433063	-0.428652	-0.487967	-0.513453	-0.523361	-0.493976	0.504198	0.431261	-0.486188	-0.481427	-0.471548	0.481062	0.422103	0.449141	0.479048	0.517778	-0.504066	0.4561	-0.720794	0.528091	-0.42922	-0.487937	0.458653	-0.562508	-0.536623	-0.463234
-0.514822	0.482971	-0.500537	-0.471337	-0.536321	-0.498026	-0.502849	-0.4863	-0.545426	-0.534423	-0.466479	-0.452758	0.471338	0.423605	-0.458309	-0.485139	-0.488	0.489711	0.461032	0.472334	0.458036	0.568957	-0.496875	0.577388	-0.102392	0.538563	-0.474538	-0.571415	0.532482	-0.448338	-0.538702	-0.539259
-0.465662	0.539995	-0.451032	-0.52453	-0.392592	-0.360828	-0.502623	-0.368216	-0.52618	-0.507251	-0.456981	-0.461741	0.416631	0.463484	-0.470446	-0.494231	-0.487541	0.480678	0.465865	0.460065	0.481174	0.411891	-0.539481	0.427031	-0.266555	0.427626	-0.467724	-0.400775	0.438207	-0.321491	-0.451444	-0.417518
-0.451798	0.493309	-0.546698	-0.568045	-0.561905	-0.461407	-0.553818	-0.552396	-0.323231	-0.470848	-0.490305	-0.558127	0.415569	0.459383	-0.504511	-0.55096	-0.506332	0.455712	0.461312	0.409245	0.490482	0.521534	-0.481572	0.45824	-0.0783734	0.460646	-0.534439	-0.489698	0.4751	-0.393058	-0.470341	-0.583916
-0.526241	0.497729	-0.565772	-0.409301	-0.432204	-0.506243	-0.51263	-0.452328	-0.570008	-0.509236	-0.540339	-0.450575	0.457317	0.52239	-0.548298	-0.521263	-0.403862	0.475491	0.498718	0.539649	0.471732	0.482366	-0.491149	0.444756	-0.749143	0.453873	-0.496309	-0.550796	0.482802	-0.512329	-0.481259	-0.471995
-0.443171	0.554423	-0.558612	-0.490089	-0.434365	-0.518919	-0.451316	-0.354415	-0.494689	-0.453428	-0.478309	-0.482592	0.499765	0.476249	-0.479161	-0.538287	-0.525493	0.480334	0.508386	0.464593	0.464714	0.519017	-0.426283	0.365522	-0.8677	0.471827	-0.431012	-0.456243	0.560139	-0.536864	-0.492792	-0.448708
-0.478365	0.489334	-0.44391	-0.491133	-0.498959	-0.564119	-0.460193	-0.489289	-0.419524	-0.485352	-0.544904	-0.523042	0.512023	0.512349	-0.511828	-0.445989	-0.495587	0.451414	0.465301	0.480855	0.514889	0.48718	-0.539227	0.387867	-0.415879	0.500337	-0.532312	-0.530107	0.458774	-0.550274	-0.535271	-0.512505
-0.439963	0.424028	-0.440481	-0.418993	-0.466289	-0.412384	-0.476169	-0.497308	-0.567114	-0.524637	-0.47532	-0.476482	0.439931	0.483405	-0.488706	-0.519322	-0.424358	0.481545	0.433768	0.488759	0.489416	0.526734	-0.41121	0.537158	-0.850298	0.527968	-0.404025	-0.432386	0.543844	-0.512458	-0.480791	-0.472848
-0.518031	0.53305	-0.514983	-0.531281	-0.394832	-0.531257	-0.485475	-0.508661	-0.563156	-0.44562	-0.525595	-0.481023	0.536821	0.434677	-0.484511	-0.557433	-0.383924	0.478079	0.542695	0.447694	0.472604	0.499173	-0.510564	0.505823	-0.540482	0.498735	-0.433228	-0.502032	0.570931	-0.390682	-0.438464	-0.547575
-0.510744	0.522287	-0.554454	-0.508654	-0.458814	-0.494041	-0.512345	-0.478968	-0.408537	-0.497274	-0.467556	-0.552187	0.474672	0.452433	-0.488493	-0.449499	-0.517522	0.441255	0.55103	0.495204	0.433102	0.505688	-0.485876	0.409029	-0.691344	0.477945	-0.41013	-0.412781	0.543734	-0.490225	-0.515509	-0.557781
-0.475812	0.404293	-0.457149	-0.50491	-0.457013	-0.504769	-0.502118	-0.496718	-0.547692	-0.449127	-0.442043	-0.503406	0.479351	0.430244	-0.45932	-0.452603	-0.395884	0.541463	0.541663	0.505459	0.458688	0.451266	-0.46687	0.465472	-0.823982	0.546624	-0.541541	-0.480596	0.558874	-0.57766	-0.447047	-0.485962
-0.560942	0.489899	-0.485783	-0.538452	-0.518149	-0.540587	-0.498325	-0.463972	-0.554973	-0.475052	-0.483648	-0.485766	0.539992	0.532985	-0.48609	-0.46857	-0.556028	0.431448	0.511584	0.407526	0.442246	0.504136	-0.498378	0.559026	-0.141078	0.491093	-0.464525	-0.516765	0.419017	-0.54544	-0.350063	-0.386502
-0.450602	0.462072	-0.397059	-0.528761	-0.368949	-0.489629	-0.483764	-0.45775	-0.568491	-0.480571	-0.454299	-0.425103	0.509138	0.548561	-0.429832	-0.447145	-0.528552	0.562453	0.5149	0.47685	0.508747	0.527541	-0.489804	0.605166	0.568607	0.445248	-0.322394	-0.377537	0.451752	-0.552106	-0.545066	-0.520892
-0.549578	0.468726	-0.501637	-0.55553	-0.4344	-0.532817	-0.522172	-0.468341	-0.569414	-0.488281	-0.527906	-0.411979	0.453937	0.465444	-0.477237	-0.538229	-0.393487	0.524159	0.473769	0.400994	0.454235	0.489966	-0.491132	0.443351	-0.629538	0.438987	-0.4269	-0.437242	0.561769	-0.393652	-0.50445	-0.540152
-0.510969	0.517958	-0.510439	-0.534804	-0.315909	-0.455469	-0.508584	-0.504852	-0.449696	-0.530616	-0.508276	-0.516116	0.472295	0.560658	-0.479747	-0.457193	-0.420073	0.54785	0.499583	0.513541	0.49118	0.512535	-0.5094	0.476904	-0.576029	0.480102	-0.42219	-0.407584	0.493118	-0.518262	-0.494177	-0.472076
-0.436889	0.427763	-0.519352	-0.435536	-0.50104	-0.430081	-0.429236	-0.466095	-0.518415	-0.533439	-0.546676	-0.455647	0.512627	0.449349	-0.486088	-0.430742	-0.432666	0.542628	0.504716	0.396842	0.439686	0.528589	-0.483861	0.497761	-0.365151	0.548408	-0.447684	-0.446787	0.46453	-0.500715	-0.440148	-0.445712
-0.480935	0.436422	-0.423743	-0.451333	-0.495674	-0.520183	-0.526762	-0.52926	-0.45711	-0.56404	-0.525048	-0.50691	0.534278	0.480981	-0.450632	-0.433957	-0.469846	0.485853	0.494433	0.420903	0.497262	0.482809	-0.49177	0.553873	-0.748975	0.456461	-0.50801	-0.433367	0.486126	-0.469479	-0.528653	-0.421453
-0.533411	0.444304	-0.556313	-0.55155	-0.378866	-0.528528	-0.553563	-0.555869	-0.567782	-0.52259	-0.477369	-0.479321	0.504865	0.529744	-0.528749	-0.494316	-0.400835	0.490262	0.470594	0.495405	0.512592	0.49926	-0.467994	0.545068	-0.289463	0.47038	-0.468807	-0.490049	0.362513	-0.486939	-0.539193	-0.428695
-0.54428	0.551828	-0.515677	-0.473807	-0.598118	-0.507496	-0.464395	-0.472459	-0.352131	-0.510416	-0.476667	-0.473399	0.437328	0.43785	-0.505796	-0.468768	-0.538713	0.564135	0.471323	0.49237	0.544049	0.464035	-0.494352	0.365312	-0.0578253	0.496632	-0.491899	-0.476684	0.471296	-0.467458	-0.476073	-0.492782
-0.473006	0.446714	-0.407814	-0.488921	-0.470842	-0.453687	-0.473819	-0.568011	-0.463492	-0.484959	-0.453123	-0.510545	0.523186	0.472102	-0.446928	-0.40954	-0.46387	0.531292	0.521738	0.45474	0.458277	0.532305	-0.471035	0.421945	-0.809539	0.487969	-0.520424	-0.494918	0.406132	-0.434573	-0.529175	-0.565072
-0.489357	0.518498	-0.570386	-0.458658	-0.526525	-0.445272	-0.537821	-0.513886	-0.480117	-0.545274	-0.423639	-0.532714	0.457513	0.460966	-0.484626	-0.459346	-0.495809	0.464027	0.510485	0.437958	0.428007	0.539736	-0.456295	0.582387	-0.66023	0.45705	-0.497455	-0.542129	0.575965	-0.547011	-0.431128	-0.445735
-0.484237	0.51158	-0.460955	-0.43904	-0.386783	-0.52798	-0.473069	-0.507702	-0.523072	-0.42315	-0.502728	-0.439601	0.532448	0.507863	-0.530333	-0.506156	-0.409249	0.506155	0.530834	0.538283	0.55424	0.466736	-0.557985	0.57148	-0.76047	0.499627	-0.459719	-0.529929	0.478801	-0.474149	-0.513301	-0.49526
-0.524255	0.48139	-0.364603	-0.494776	-0.548463	-0.46215	-0.403907	-0.496614	-0.412409	-0.511516	-0.424198	-0.42562	0.501594	0.479359	-0.555882	-0.49504	-0.524122	0.417784	0.412584	0.432097	0.526	0.471738	-0.445769	0.342831	-0.581657	0.447564	-0.46259	-0.499708	0.457803	-0.449673	-0.480552	-0.485504
-0.457061	0.465239	-0.473124	-0.533866	-0.455415	-0.495764	-0.421542	-0.481256	-0.547016	-0.503742	-0.482417	-0.491874	0.502594	0.547827	-0.53635	-0.455513	-0.447824	0.550214	0.446577	0.530444	0.507939	0.449068	-0.540072	0.542401	-0.171552	0.520372	-0.412837	-0.5368	0.524297	-0.485245	-0.485023	-0.570748
-0.469201	0.599338	-0.193365	-0.446377	-0.497901	-0.574218	-0.485513	-0.514573	-0.279806	-0.365979	-0.337214	-0.504327	0.542496	0.444167	-0.451975	-0.384026	-0.567808	0.467446	0.495011	0.527141	0.458632	0.373218	-0.525408	0.351433	0.432938	0.396145	-0.450017	-0.204078	0.360484	-0.467175	-0.599713	-0.6541
-0.495585	0.449232	-0.486635	-0.552301	-0.405739	-0.5481	-0.413999	-0.463299	-0.465147	-0.458222	-0.459266	-0.537996	0.44552	0.442544	-0.525537	-0.509278	-0.452097	0.521643	0.491986	0.472541	0.553299	0.560904	-0.509635	0.464507	-0.498372	0.478995	-0.515413	-0.472837	0.535883	-0.585639	-0.533613	-0.562763
-0.45644	0.480653	-0.545091	-0.461001	-0.548528	-0.465658	-0.520085	-0.382739	-0.545941	-0.534273	-0.38218	-0.547469	0.533937	0.498169	-0.514216	-0.429602	-0.401451	0.385445	0.470558	0.455057	0.532607	0.460268	-0.419878	0.385053	0.577369	0.444047	-0.455155	-0.472926	0.444209	-0.438669	-0.569605	-0.462485
-0.460386	0.517948	-0.574935	-0.504569	-0.497565	-0.472862	-0.48501	-0.494384	-0.419281	-0.48898	-0.481982	-0.468232	0.549761	0.456677	-0.432053	-0.55431	-0.460187	0.510671	0.465692	0.537388	0.51878	0.462654	-0.522052	0.401049	-0.259321	0.522197	-0.559135	-0.463963	0.535923	-0.364309	-0.435189	-0.541186
-0.498569	0.524612	-0.381384	-0.493782	-0.477509	-0.549334	-0.493959	-0.531714	-0.409733	-0.514984	-0.435728	-0.517002	0.501277	0.445694	-0.534688	-0.449284	-0.412518	0.480191	0.459858	0.521035	0.501901	0.543526	-0.539836	0.491928	-0.710014	0.498716	-0.470057	-0.425549	0.494532	-0.481291	-0.549995	-0.496675
-0.523372	0.555305	-0.545254	-0.543681	-0.543864	-0.47777	-0.4585	-0.527995	-0.501161	-0.454686	-0.541572	-0.568335	0.440266	0.458424	-0.472289	-0.552905	-0.384816	0.509247	0.52566	0.557339	0.518193	0.551581	-0.499869	0.546465	0.0971579	0.449294	-0.413112	-0.442068	0.470802	-0.413063	-0.484677	-0.49885
-0.524433	0.481265	-0.473866	-0.488758	-0.442953	-0.498282	-0.498254	-0.517721	-0.344429	-0.478701	-0.561325	-0.503757	0.423007	0.460302	-0.413573	-0.515142	-0.442619	0.536777	0.483577	0.471235	0.509567	0.421588	-0.514939	0.403315	-0.632229	0.507603	-0.560627	-0.433697	0.551118	-0.442925	-0.528953	-0.491444
-0.53849	0.498916	-0.442902	-0.489497	-0.49517	-0.528087	-0.473688	-0.438458	-0.347972	-0.483336	-0.525602	-0.573268	0.506541	0.559713	-0.421246	-0.471541	-0.494337	0.493339	0.447262	0.441963	0.440016	0.514609	-0.438606	0.418407	-0.832027	0.462999	-0.565882	-0.56834	0.505734	-0.559691	-0.553402	-0.513754
-0.512579	0.50917	-0.4759	-0.462448	-0.531721	-0.425652	-0.491641	-0.452848	-0.463325	-0.424854	-0.533001	-0.422417	0.53469	0.444121	-0.436242	-0.445085	-0.398579	0.531127	0.470749	0.507697	0.495603	0.518802	-0.454643	0.564417	-0.865199	0.472476	-0.477388	-0.553554	0.494295	-0.440683	-0.516795	-0.483811
-0.460998	0.501062	-0.424646	-0.406549	-0.509322	-0.538831	-0.443881	-0.440748	-0.51909	-0.520382	-0.528587	-0.447999	0.508859	0.505316	-0.477488	-0.468022	-0.534146	0.465958	0.515673	0.494354	0.523323	0.485142	-0.515978	0.465592	0.337808	0.439776	-0.378982	-0.529738	0.515461	-0.347459	-0.541044	-0.421376
-0.474728	0.506151	-0.451504	-0.486239	-0.558398	-0.499848	-0.444721	-0.517129	-0.470251	-0.505939	-0.52878	-0.529946	0.465859	0.552488	-0.441968	-0.42071	-0.404476	0.478678	0.521993	0.470578	0.510626	0.467494	-0.489849	0.562812	0.15841	0.527759	-0.385746	-0.485279	0.491232	-0.415522	-0.534972	-0.489132
-0.528906	0.54239	-0.543643	-0.42571	-0.520799	-0.510341	-0.458023	-0.438017	-0.435491	-0.463237	-0.556301	-0.508693	0.449854	0.551072	-0.552881	-0.534984	-0.498693	0.441762	0.487197	0.381966	0.481517	0.547978	-0.469328	0.476452	-0.302532	0.513194	-0.43258	-0.472753	0.484243	-0.530765	-0.432724	-0.454421
-0.550698	0.415607	-0.521374	-0.560779	-0.43215	-0.499563	-0.525485	-0.447081	-0.493917	-0.540573	-0.444516	-0.444301	0.454492	0.444268	-0.452594	-0.485527	-0.551378	0.529038	0.493202	0.488904	0.50799	0.449261	-0.383449	0.492242	-0.663361	0.462253	-0.44642	-0.446732	0.418953	-0.49865	-0.441839	-0.539092
-0.525731	0.443232	-0.520662	-0.436756	-0.453047	-0.532831	-0.536955	-0.446521	-0.512872	-0.485516	-0.500792	-0.480155	0.537307	0.474349	-0.443147	-0.491628	-0.465944	0.50472	0.544398	0.442419	0.428434	0.509785	-0.556668	0.369083	-0.617372	0.5303	-0.495745	-0.435911	0.482358	-0.433215	-0.398829	-0.473627
-0.499204	0.526841	-0.450441	-0.526728	-0.543405	-0.489896	-0.441792	-0.56217	-0.416869	-0.48273	-0.443815	-0.527816	0.519526	0.459629	-0.482716	-0.502566	-0.36197	0.447022	0.429956	0.434452	0.555043	0.478795	-0.452964	0.467622	0.498975	0.442392	-0.449671	-0.535165	0.409727	-0.403318	-0.476851	-0.513745
-0.542693	0.483592	-0.454366	-0.511575	-0.539571	-0.431639	-0.446946	-0.522636	-0.532156	-0.516579	-0.469722	-0.53806	0.48543	0.527374	-0.49714	-0.419209	-0.537468	0.467237	0.479371	0.441378	0.524196	0.556391	-0.440793	0.503783	-0.573249	0.550413	-0.456181	-0.442025	0.424827	-0.466476	-0.52744	-0.419137
-0.509799	0.49008	-0.511437	-0.532277	-0.363202	-0.462719	-0.498863	-0.492077	-0.388386	-0.49349	-0.474701	-0.469407	0.489509	0.467182	-0.462149	-0.495548	-0.560455	0.570832	0.523211	0.432286	0.511949	0.441877	-0.524531	0.448119	-0.743637	0.480207	-0.487119	-0.489803	0.534815	-0.39653	-0.398226	-0.511273
-0.493519	0.505863	-0.521183	-0.503601	-0.513088	-0.501123	-0.495645	-0.486549	-0.404446	-0.511471	-0.489128	-0.440134	0.499317	0.513381	-0.463938	-0.456257	-0.518399	0.532597	0.451231	0.496848	0.556574	0.452621	-0.56155	0.549365	-0.330593	0.487621	-0.449095	-0.483852	0.568159	-0.430477	-0.443646	-0.472611
-0.47052	0.569023	-0.477815	-0.567735	-0.53956	-0.467308	-0.542326	-0.468135	-0.491661	-0.52806	-0.49012	-0.476169	0.523807	0.448652	-0.445695	-0.531418	-0.440036	0.494323	0.54409	0.343492	0.517845	0.453186	-0.509421	0.424555	-0.477537	0.561541	-0.566467	-0.45101	0.517137	-0.45887	-0.429537	-0.564283
-0.479278	0.533792	-0.477371	-0.462486	-0.500531	-0.551444	-0.502539	-0.527631	-0.405237	-0.500036	-0.449013	-0.482238	0.513598	0.440804	-0.529018	-0.490853	-0.470657	0.447334	0.514798	0.483985	0.413852	0.500953	-0.541174	0.513475	-0.725771	0.467106	-0.514322	-0.393048	0.523941	-0.477432	-0.534927	-0.400707
-0.521072	0.496646	-0.544435	-0.540272	-0.462739	-0.487754	-0.543718	-0.442498	-0.497864	-0.539929	-0.466217	-0.479649	0.474222	0.472134	-0.53203	-0.51869	-0.563378	0.523435	0.478517	0.470338	0.470988	0.479389	-0.491912	0.501791	-0.1366	0.500217	-0.483333	-0.503116	0.536128	-0.387361	-0.489863	-0.376064
-0.551496	0.452487	-0.459937	-0.458647	-0.521277	-0.536746	-0.469149	-0.468436	-0.355458	-0.4656	-0.460384	-0.366426	0.533921	0.471626	-0.553714	-0.473336	-0.469475	0.489839	0.508153	0.459655	0.51644	0.44873	-0.492971	0.391638	-0.414516	0.562864	-0.450455	-0.498826	0.463445	-0.420887	-0.475077	-0.51326
-0.468336	0.534077	-0.537612	-0.575032	-0.509743	-0.459994	-0.387041	-0.552977	-0.502911	-0.574707	-0.51442	-0.499551	0.48922	0.522393	-0.485462	-0.491564	-0.43426	0.49021	0.462668	0.344955	0.435998	0.554251	-0.441753	0.587517	-0.175443	0.498109	-0.464096	-0.475026	0.513147	-0.423738	-0.534659	-0.410891
-0.531151	0.481195	-0.494778	-0.558141	-0.406757	-0.48008	-0.458418	-0.498039	-0.508944	-0.474227	-0.525091	-0.508053	0.45324	0.49667	-0.525202	-0.513636	-0.556368	0.480673	0.551222	0.504722	0.538206	0.526333	-0.480612	0.506859	-0.175562	0.540274	-0.541883	-0.53782	0.468622	-0.522564	-0.498937	-0.482478
-0.456521	0.435758	-0.519037	-0.465145	-0.444942	-0.473915	-0.554722	-0.499696	-0.59664	-0.486648	-0.516711	-0.435847	0.545397	0.549359	-0.56796	-0.469954	-0.458371	0.442617	0.533573	0.395328	0.555328	0.456797	-0.412651	0.495578	-0.27019	0.512892	-0.521559	-0.427882	0.471127	-0.347029	-0.520977	-0.4641
-0.439235	0.4571	-0.509709	-0.49938	-0.571921	-0.540186	-0.486266	-0.376484	-0.525022	-0.554284	-0.418806	-0.410404	0.494324	0.482234	-0.539605	-0.517209	-0.58968	0.4692	0.553563	0.475708	0.499509	0.41562	-0.414377	0.373769	-0.593007	0.471552	-0.453648	-0.325441	0.482874	-0.419186	-0.493284	-0.426708
-0.449484	0.475933	-0.359246	-0.485956	-0.462377	-0.470101	-0.564251	-0.415019	-0.42519	-0.510939	-0.521657	-0.395092	0.532012	0.529179	-0.515854	-0.444032	-0.373988	0.428443	0.484534	0.389027	0.516835	0.539932	-0.5167	0.518838	-0.586249	0.442998	-0.398328	-0.562607	0.467951	-0.350787	-0.238617	-0.379707
-0.417998	0.527551	-0.521092	-0.502605	-0.616161	-0.558028	-0.468231	-0.465312	-0.614579	-0.483497	-0.523258	-0.421524	0.558924	0.456667	-0.551464	-0.536778	-0.429401	0.444781	0.48686	0.330103	0.492093	0.439933	-0.510907	0.44339	-0.570454	0.458574	-0.449806	-0.52263	0.507913	-0.507796	-0.489587	-0.514377
-0.49052	0.487987	-0.483366	-0.450358	-0.527716	-0.494815	-0.508271	-0.541498	-0.522329	-0.470172	-0.470613	-0.509075	0.545571	0.497379	-0.493306	-0.47828	-0.485	0.513075	0.537444	0.430454	0.479668	0.551443	-0.441373	0.472045	-0.656905	0.561546	-0.43508	-0.503896	0.474703	-0.474965	-0.421872	-0.562071
-0.503295	0.491555	-0.562305	-0.495286	-0.461515	-0.466758	-0.509575	-0.397551	-0.492398	-0.447936	-0.488444	-0.46052	0.500838	0.520705	-0.453266	-0.536718	-0.428294	0.510894	0.484022	0.517815	0.423827	0.469796	-0.444583	0.55333	-0.785927	0.451569	-0.473458	-0.483919	0.557089	-0.508553	-0.503054	-0.467786
-0.496386	0.539172	-0.463943	-0.55455	-0.370551	-0.523787	-0.558014	-0.492007	-0.368803	-0.526646	-0.506027	-0.403204	0.507649	0.459038	-0.559318	-0.513843	-0.538245	0.439954	0.528472	0.506772	0.542236	0.481391	-0.481485	0.436739	-0.696709	0.472859	-0.430232	-0.498224	0.488882	-0.552478	-0.519097	-0.477528
-0.400746	0.460548	-0.488798	-0.48118	-0.48856	-0.446441	-0.460944	-0.448574	-0.535065	-0.51229	-0.544001	-0.504442	0.558185	0.432804	-0.50141	-0.48098	-0.556778	0.515015	0.494605	0.504897	0.44662	0.47551	-0.527536	0.480862	-0.557691	0.544435	-0.503265	-0.483277	0.504814	-0.546904	-0.501633	-0.395438
-0.543313	0.45657	-0.518174	-0.445451	-0.537357	-0.424705	-0.487098	-0.555468	-0.560729	-0.56157	-0.495504	-0.483098	0.44922	0.497219	-0.451255	-0.530791	-0.491458	0.425412	0.527037	0.518305	0.476203	0.450027	-0.487499	0.478563	-0.650539	0.532811	-0.518687	-0.458114	0.491546	-0.438438	-0.436586	-0.486329
-0.502839	0.55578	-0.513509	-0.553168	-0.571962	-0.516682	-0.55576	-0.481409	-0.309295	-0.438701	-0.47982	-0.56501	0.534824	0.523554	-0.512369	-0.498467	-0.412175	0.559233	0.519809	0.420314	0.511747	0.459486	-0.504957	0.462973	-0.256581	0.542983	-0.501741	-0.390418	0.522146	-0.56767	-0.475482	-0.411167
-0.437315	0.515621	-0.398014	-0.488448	-0.436988	-0.419296	-0.484002	-0.437986	-0.432597	-0.446844	-0.457867	-0.51399	0.450283	0.532992	-0.541504	-0.529217	-0.489193	0.533121	0.444852	0.546173	0.450204	0.480396	-0.453833	0.567982	-0.829429	0.501583	-0.552902	-0.462705	0.47176	-0.473276	-0.424478	-0.395627
-0.51883	0.541657	-0.553763	-0.502943	-0.474576	-0.437474	-0.547888	-0.506473	-0.473239	-0.456947	-0.468881	-0.410793	0.502226	0.527216	-0.418006	-0.419153	-0.471414	0.420009	0.483251	0.521882	0.558408	0.467585	-0.565292	0.526552	-0.675982	0.512816	-0.543055	-0.427034	0.492396	-0.409327	-0.522934	-0.500674
-0.482373	0.511613	-0.436152	-0.490468	-0.396747	-0.477462	-0.556326	-0.565724	-0.358588	-0.498441	-0.558955	-0.509114	0.583347	0.506673	-0.523141	-0.431626	-0.513207	0.520665	0.484353	0.545626	0.484048	0.566917	-0.46886	0.582816	-0.471683	0.461901	-0.456315	-0.406695	0.426944	-0.593723	-0.468203	-0.504906
-0.458078	0.496319	-0.486767	-0.504416	-0.510635	-0.478716	-0.463797	-0.462317	-0.456059	-0.480376	-0.528704	-0.471291	0.561691	0.470985	-0.512238	-0.550993	-0.456427	0.538405	0.47458	0.539922	0.520096	0.479113	-0.504593	0.446709	-0.505693	0.501265	-0.445265	-0.570592	0.571579	-0.46799	-0.393712	-0.434767
-0.565535	0.460548	-0.523968	-0.515374	-0.499172	-0.530246	-0.51008	-0.519098	-0.524409	-0.482136	-0.511298	-0.488427	0.469837	0.464495	-0.455666	-0.453287	-0.457537	0.53722	0.507485	0.465577	0.516513	0.43069	-0.530521	0.54268	0.381901	0.538382	-0.384915	-0.543517	0.446249	-0.359721	-0.501947	-0.511782
-0.518938	0.439347	-0.480537	-0.517735	-0.483848	-0.458142	-0.452459	-0.480835	-0.390494	-0.522182	-0.46916	-0.425304	0.4376	0.508368	-0.493059	-0.533963	-0.530157	0.53283	0.473212	0.492651	0.477017	0.456123	-0.467698	0.411105	-0.34414	0.468302	-0.401427	-0.448179	0.510559	-0.348492	-0.528326	-0.526304
-0.507314	0.494579	-0.426692	-0.53809	-0.590224	-0.434868	-0.539256	-0.572638	-0.387477	-0.485045	-0.471511	-0.467935	0.435377	0.527169	-0.498189	-0.416682	-0.510645	0.454326	0.496815	0.451196	0.406075	0.533883	-0.508246	0.499124	-0.618817	0.411466	-0.463476	-0.561463	0.398608	-0.380647	-0.47361	-0.354828
-0.502352	0.451369	-0.564241	-0.510436	-0.471825	-0.424211	-0.45067	-0.452443	-0.479953	-0.450048	-0.478321	-0.500755	0.417015	0.438494	-0.452183	-0.426912	-0.447091	0.433438	0.420483	0.49521	0.474576	0.556625	-0.543533	0.437998	-0.528049	0.523248	-0.536995	-0.572796	0.42583	-0.500887	-0.44799	-0.529642
-0.491355	0.390768	-0.43452	-0.560375	-0.510256	-0.546959	-0.554887	-0.486362	-0.55275	-0.554299	-0.46901	-0.549572	0.539262	0.560253	-0.489547	-0.396465	-0.385755	0.597875	0.415208	0.511232	0.485159	0.446374	-0.567718	0.407443	0.218963	0.554373	-0.364617	-0.514793	0.452812	-0.519629	-0.567466	-0.477762
-0.490991	0.553089	-0.573501	-0.513299	-0.452157	-0.451607	-0.496042	-0.457281	-0.334513	-0.537097	-0.526358	-0.47937	0.449803	0.563143	-0.498289	-0.500564	-0.483653	0.489784	0.463188	0.317574	0.497035	0.494767	-0.519326	0.517537	-0.438793	0.499163	-0.511239	-0.573224	0.534103	-0.310641	-0.410085	-0.574861
-0.55021	0.504245	-0.533886	-0.459337	-0.481108	-0.508911	-0.475648	-0.483874	-0.509101	-0.553197	-0.425755	-0.440693	0.493131	0.507513	-0.504432	-0.489976	-0.497899	0.501428	0.501544	0.538605	0.516772	0.439414	-0.471978	0.585754	-0.617013	0.477978	-0.431188	-0.476849	0.406278	-0.430801	-0.436229	-0.461785
-0.430829	0.461452	-0.468369	-0.42374	-0.374235	-0.387345	-0.415779	-0.423068	-0.486314	-0.377104	-0.347601	-0.444607	0.465898	0.49659	-0.511973	-0.477004	-0.3463	0.474099	0.381174	0.464187	0.434117	0.424399	-0.457673	0.340184	-0.788262	0.347984	-0.372217	-0.488709	0.314743	-0.452215	-0.416297	-0.408925
-0.524909	0.432603	-0.441723	-0.501181	-0.393165	-0.5066	-0.511738	-0.411476	-0.355344	-0.526731	-0.549571	-0.477594	0.504804	0.550117	-0.540882	-0.520442	-0.507182	0.474748	0.501919	0.433505	0.538626	0.508307	-0.468661	0.557483	-0.818024	0.55036	-0.512163	-0.477341	0.394315	-0.41164	-0.473273	-0.503878
-0.536412	0.535189	-0.548487	-0.497965	-0.339384	-0.480905	-0.434785	-0.467176	-0.435212	-0.457579	-0.456581	-0.452463	0.505277	0.513723	-0.5559	-0.537748	-0.428159	0.485784	0.467923	0.498094	0.532858	0.532567	-0.43636	0.541285	-0.704672	0.552936	-0.43418	-0.419455	0.445022	-0.465236	-0.496347	-0.465135
-0.475408	0.524781	-0.486817	-0.506281	-0.456486	-0.489119	-0.476294	-0.557867	-0.463857	-0.482013	-0.562611	-0.484786	0.521023	0.461675	-0.4665	-0.438748	-0.436366	0.472834	0.473167	0.392152	0.473231	0.510057	-0.539417	0.360457	-0.823969	0.484947	-0.544178	-0.481658	0.462439	-0.391734	-0.592058	-0.404087
-0.406058	0.419479	-0.366279	-0.454546	-0.387386	-0.397307	-0.406492	-0.435978	-0.368635	-0.37285	-0.341969	-0.410224	0.412611	0.401158	-0.383177	-0.422461	-0.396624	0.386144	0.350097	0.347889	0.16347	0.538961	-0.417664	0.397078	0.398553	0.369945	-0.356686	-0.384648	0.290259	-0.371833	-0.322281	-0.348757
-0.465221	0.554279	-0.485807	-0.554548	-0.518179	-0.53788	-0.461855	-0.4254	-0.49713	-0.455366	-0.552879	-0.527244	0.462215	0.509694	-0.521695	-0.526134	-0.484003	0.450401	0.467392	0.412631	0.495016	0.549626	-0.547451	0.491406	-0.329266	0.498081	-0.55313	-0.54882	0.516573	-0.489064	-0.500313	-0.430651
-0.512379	0.516025	-0.496862	-0.526558	-0.451397	-0.464691	-0.534497	-0.458703	-0.488901	-0.564989	-0.50726	-0.508235	0.538851	0.539775	-0.565872	-0.50774	-0.459325	0.398916	0.50565	0.484679	0.453462	0.522225	-0.493074	0.428763	-0.0491411	0.537742	-0.54212	-0.456645	0.459984	-0.428569	-0.541727	-0.387632
-0.445333	0.475413	-0.444032	-0.534668	-0.464153	-0.497668	-0.460699	-0.521299	-0.550707	-0.425041	-0.509815	-0.417738	0.525797	0.505558	-0.502044	-0.457838	-0.318388	0.567966	0.410447	0.521755	0.424291	0.521978	-0.444342	0.527756	-0.632339	0.565083	-0.431188	-0.489268	0.521194	-0.467644	-0.466521	-0.415076
-0.457315	0.570377	-0.553479	-0.50404	-0.563006	-0.453975	-0.549467	-0.489774	-0.60888	-0.537544	-0.448765	-0.511851	0.462737	0.514091	-0.518893	-0.43519	-0.430926	0.449389	0.525097	0.449405	0.560087	0.467685	-0.531379	0.495634	-0.295413	0.531992	-0.389033	-0.504717	0.518551	-0.451516	-0.525593	-0.473451
-0.498826	0.537513	-0.441928	-0.48117	-0.565895	-0.439182	-0.4828	-0.353684	-0.417432	-0.437809	-0.499141	-0.424527	0.466187	0.40486	-0.355341	-0.450378	-0.454208	0.506023	0.404326	0.378771	0.442807	0.448214	-0.479656	0.501546	-0.682553	0.474221	-0.482613	-0.457242	0.435243	-0.438686	-0.500619	-0.393253
-0.54244	0.469263	-0.516949	-0.495495	-0.565817	-0.452622	-0.47411	-0.549637	-0.380286	-0.531046	-0.442497	-0.479706	0.466163	0.503912	-0.491089	-0.557734	-0.55446	0.489036	0.50366	0.438805	0.496218	0.54346	-0.528654	0.466976	-0.517353	0.516855	-0.417278	-0.387892	0.458986	-0.510644	-0.404831	-0.483953
-0.495286	0.491333	-0.561964	-0.507629	-0.486636	-0.558678	-0.542701	-0.525993	-0.510225	-0.439989	-0.522195	-0.452891	0.447868	0.480662	-0.486226	-0.53346	-0.466391	0.518883	0.48276	0.487878	0.479365	0.481162	-0.450003	0.536107	-0.595107	0.470633	-0.454152	-0.45305	0.516714	-0.464057	-0.520032	-0.467447
-0.453735	0.511319	-0.526773	-0.455932	-0.500946	-0.420261	-0.45803	-0.555858	-0.415953	-0.483991	-0.546205	-0.489046	0.479436	0.543367	-0.462219	-0.508486	-0.527468	0.530033	0.486787	0.511227	0.539495	0.526771	-0.52097	0.499991	-0.677722	0.523911	-0.439664	-0.54017	0.529521	-0.54112	-0.538235	-0.408346
-0.45297	0.503697	-0.534574	-0.512962	-0.483968	-0.50212	-0.440768	-0.510733	-0.582169	-0.485022	-0.551768	-0.412171	0.479816	0.45918	-0.449399	-0.456894	-0.536543	0.519445	0.545313	0.514323	0.48738	0.534276	-0.511863	0.506111	-0.176907	0.433016	-0.549207	-0.488821	0.466987	-0.515565	-0.407701	-0.407809
-0.476026	0.528847	-0.456654	-0.494072	-0.451386	-0.436656	-0.537555	-0.579425	-0.474939	-0.470649	-0.571359	-0.457191	0.508133	0.499076	-0.454391	-0.52467	-0.488664	0.492037	0.433863	0.514584	0.533213	0.429888	-0.422034	0.436687	-0.616828	0.426098	-0.458554	-0.409052	0.478451	-0.528241	-0.503924	-0.530936
-0.495807	0.543645	-0.588264	-0.536763	-0.514188	-0.480076	-0.454774	-0.55704	-0.380737	-0.484617	-0.421725	-0.55224	0.454759	0.532784	-0.499591	-0.510795	-0.530811	0.50271	0.547547	0.484089	0.432246	0.547023	-0.463332	0.451414	-0.395636	0.470053	-0.555405	-0.442144	0.50058	-0.493938	-0.428886	-0.457044
-0.496294	0.442135	-0.537994	-0.444499	-0.562332	-0.449673	-0.552392	-0.485037	-0.29362	-0.535353	-0.472292	-0.489419	0.572867	0.436619	-0.460606	-0.486983	-0.428503	0.487107	0.431423	0.531744	0.546668	0.445113	-0.491493	0.477509	-0.713759	0.55099	-0.366302	-0.401304	0.41031	-0.415299	-0.555782	-0.527308
-0.481214	0.493654	-0.520824	-0.497513	-0.383795	-0.541702	-0.464316	-0.481425	-0.511204	-0.485316	-0.565161	-0.486905	0.458221	0.427594	-0.486344	-0.525591	-0.406754	0.518681	0.555113	0.480373	0.47607	0.511638	-0.451374	0.493608	-0.44918	0.475207	-0.532057	-0.579791	0.494893	-0.435866	-0.505292	-0.552733
-0.503792	0.459431	-0.411132	-0.407154	-0.381612	-0.456531	-0.48402	-0.514617	-0.420164	-0.449378	-0.482455	-0.472638	0.515362	0.466686	-0.532694	-0.46327	-0.527251	0.483424	0.455159	0.50763	0.468971	0.449297	-0.450517	0.518163	-0.819818	0.510461	-0.417145	-0.543716	0.502379	-0.486642	-0.421677	-0.506961
-0.501894	0.451567	-0.436776	-0.437829	-0.4116	-0.475681	-0.500691	-0.47325	-0.449102	-0.446129	-0.485082	-0.524894	0.433277	0.457221	-0.504723	-0.414552	-0.426094	0.440326	0.42716	0.468103	0.51404	0.435985	-0.407982	0.537837	-0.754561	0.462603	-0.453359	-0.570668	0.533722	-0.319713	-0.505931	-0.419369
-0.433173	0.483155	-0.543792	-0.453713	-0.398048	-0.54791	-0.410498	-0.536545	-0.583155	-0.487908	-0.531529	-0.542241	0.520275	0.44438	-0.464375	-0.522798	-0.424819	0.487195	0.53092	0.532367	0.543776	0.455921	-0.473121	0.543265	-0.599356	0.509708	-0.396499	-0.431944	0.468353	-0.565669	-0.426404	-0.552422
-0.506875	0.410359	-0.551722	-0.499091	-0.422906	-0.512733	-0.464439	-0.418222	-0.507792	-0.483153	-0.490776	-0.46056	0.430548	0.470918	-0.49295	-0.541762	-0.522474	0.525697	0.547288	0.420951	0.504865	0.512175	-0.466184	0.535302	-0.503384	0.431664	-0.526354	-0.468661	0.437554	-0.413006	-0.475872	-0.463911
-0.502914	0.42955	-0.469018	-0.495779	-0.490442	-0.543259	-0.538584	-0.428175	-0.544883	-0.498168	-0.488735	-0.49628	0.435946	0.526805	-0.485635	-0.49741	-0.514118	0.459944	0.482535	0.46016	0.545429	0.530333	-0.518898	0.509288	-0.806555	0.470958	-0.436917	-0.41595	0.454845	-0.496218	-0.433654	-0.461764
-0.500487	0.50336	-0.520345	-0.562413	-0.536014	-0.491252	-0.538831	-0.466811	-0.404902	-0.473258	-0.551693	-0.496523	0.472478	0.532584	-0.442054	-0.442619	-0.390888	0.550486	0.551412	0.438986	0.452685	0.398265	-0.490161	0.448892	-0.422542	0.470696	-0.504834	-0.451919	0.514676	-0.511563	-0.491726	-0.456199
-0.529755	0.446664	-0.444901	-0.439905	-0.46224	-0.521788	-0.472826	-0.52758	-0.555552	-0.463089	-0.417535	-0.488774	0.534601	0.549807	-0.460144	-0.532942	-0.388909	0.519171	0.440784	0.478615	0.449602	0.533852	-0.546985	0.517262	-0.458934	0.543445	-0.416698	-0.491911	0.403424	-0.407837	-0.373632	-0.445149
-0.4738	0.52367	-0.494846	-0.57628	-0.505255	-0.486752	-0.494959	-0.5125	-0.487492	-0.582994	-0.562944	-0.51985	0.564215	0.513452	-0.513862	-0.455659	-0.478663	0.568496	0.485702	0.498909	0.548804	0.468161	-0.498648	0.542459	-0.568845	0.478257	-0.483306	-0.457682	0.451127	-0.465368	-0.426096	-0.418943
-0.460044	0.458181	-0.478434	-0.488132	-0.555392	-0.517934	-0.498671	-0.479881	-0.536419	-0.477865	-0.505416	-0.511779	0.559823	0.49137	-0.519785	-0.523708	-0.378772	0.449553	0.521355	0.464907	0.531609	0.466526	-0.501472	0.559422	-0.498066	0.449316	-0.544165	-0.484152	0.564702	-0.449809	-0.455465	-0.443512
-0.524517	0.532215	-0.466909	-0.564816	-0.564202	-0.47606	-0.497041	-0.528845	-0.354504	-0.471037	-0.460379	-0.451359	0.478438	0.522901	-0.410744	-0.531085	-0.535316	0.411631	0.48066	0.488297	0.517346	0.548733	-0.522689	0.393185	-0.309166	0.489025	-0.556189	-0.467546	0.508196	-0.503124	-0.505672	-0.537656
-0.506476	0.42894	-0.415319	-0.418748	-0.47296	-0.433244	-0.488434	-0.535352	-0.463692	-0.448353	-0.4191	-0.510302	0.493567	0.511673	-0.537242	-0.536648	-0.533046	0.457027	0.453842	0.523784	0.474696	0.481953	-0.541412	0.435133	-0.698732	0.518255	-0.490873	-0.443148	0.418227	-0.492101	-0.443896	-0.406846
-0.432639	0.443172	-0.502669	-0.534994	-0.466676	-0.445059	-0.565469	-0.411932	-0.456893	-0.475791	-0.447691	-0.475182	0.404322	0.442146	-0.546658	-0.439841	-0.42555	0.471549	0.536508	0.511053	0.440822	0.544726	-0.467277	0.455001	-0.841776	0.46091	-0.462476	-0.530528	0.495641	-0.566535	-0.56454	-0.483592
-0.480538	0.467171	-0.566866	-0.482543	-0.464513	-0.55428	-0.488367	-0.511854	-0.578647	-0.472997	-0.546741	-0.464061	0.443411	0.452641	-0.470911	-0.488592	-0.502891	0.543601	0.564639	0.528093	0.515377	0.524242	-0.508099	0.451998	-0.739887	0.430109	-0.413545	-0.445825	0.464357	-0.425497	-0.448769	-0.477923
-0.414306	0.463427	-0.516559	-0.529821	-0.506825	-0.465349	-0.486911	-0.537817	-0.466578	-0.494485	-0.415022	-0.43224	0.51487	0.54863	-0.521831	-0.478383	-0.462188	0.436142	0.433828	0.346086	0.468789	0.472151	-0.508692	0.571997	-0.75903	0.478701	-0.585766	-0.574935	0.501021	-0.555823	-0.438256	-0.487556
-0.575535	0.560384	-0.36547	-0.432382	-0.414161	-0.561855	-0.575886	-0.576456	-0.500807	-0.573122	-0.42005	-0.483565	0.543013	0.562163	-0.462375	-0.461205	-0.426445	0.572556	0.429013	0.53059	0.552031	0.481587	-0.527386	0.53855	-0.145209	0.414285	-0.41046	-0.505534	0.395336	-0.393152	-0.513013	-0.499008
-0.543046	0.466036	-0.549441	-0.551057	-0.379358	-0.468642	-0.541098	-0.553122	-0.563095	-0.467611	-0.462554	-0.43937	0.476675	0.453937	-0.560836	-0.504486	-0.420783	0.498859	0.55259	0.433963	0.496211	0.495331	-0.506003	0.461362	-0.462737	0.456157	-0.438996	-0.449916	0.5051	-0.49712	-0.44516	-0.545988
-0.522634	0.503351	-0.376486	-0.501084	-0.580648	-0.564804	-0.442827	-0.485581	-0.485334	-0.441504	-0.505437	-0.491866	0.521032	0.53224	-0.419029	-0.489859	-0.345193	0.564401	0.440309	0.513831	0.5276	0.552245	-0.437165	0.488229	0.41673	0.553175	-0.355888	-0.528506	0.486842	-0.333607	-0.506795	-0.501366
-0.517845	0.541308	-0.507289	-0.564086	-0.428108	-0.499967	-0.507277	-0.519771	-0.509968	-0.438317	-0.532371	-0.458535	0.47923	0.499635	-0.494424	-0.486486	-0.499259	0.50117	0.421804	0.531703	0.485417	0.506725	-0.548005	0.404536	-0.310527	0.452506	-0.363075	-0.316835	0.471244	-0.557668	-0.500876	-0.466277
-0.536877	0.499662	-0.446044	-0.481923	-0.461913	-0.559718	-0.493024	-0.561874	-0.320787	-0.49888	-0.550059	-0.374686	0.517426	0.481905	-0.508843	-0.471219	-0.55965	0.424038	0.51433	0.492422	0.471752	0.49564	-0.505346	0.443469	-0.547254	0.478709	-0.35167	-0.425492	0.481207	-0.337283	-0.450457	-0.510175
-0.491592	0.382857	-0.512807	-0.498442	-0.44596	-0.473094	-0.411073	-0.511234	-0.370416	-0.534304	-0.482014	-0.478913	0.380425	0.485676	-0.536688	-0.408629	-0.525552	0.555445	0.493227	0.556605	0.478895	0.439421	-0.559712	0.592053	-0.561123	0.545076	-0.417697	-0.428156	0.468143	-0.408099	-0.482147	-0.367857
-0.530135	0.46692	-0.478732	-0.513591	-0.470456	-0.477797	-0.545305	-0.468381	-0.510675	-0.515781	-0.458994	-0.515718	0.533623	0.500945	-0.534106	-0.525091	-0.437767	0.510572	0.513136	0.466225	0.474311	0.471704	-0.531746	0.543989	-0.459829	0.542027	-0.505019	-0.459978	0.484258	-0.44846	-0.528153	-0.437403
-0.496195	0.511261	-0.507494	-0.523168	-0.523902	-0.566805	-0.47731	-0.506618	-0.510661	-0.499762	-0.517094	-0.476177	0.500691	0.535485	-0.420305	-0.46798	-0.361825	0.593961	0.461816	0.494633	0.521697	0.501096	-0.431094	0.52281	0.514625	0.500857	-0.400174	-0.550473	0.42566	-0.344382	-0.533291	-0.579885
-0.492891	0.456176	-0.477551	-0.482119	-0.496668	-0.547232	-0.499971	-0.540421	-0.479961	-0.475454	-0.505369	-0.48391	0.499649	0.568184	-0.444949	-0.43732	-0.44662	0.471903	0.559816	0.480367	0.523062	0.495587	-0.511028	0.462656	-0.646076	0.430315	-0.494453	-0.459975	0.441675	-0.494461	-0.52312	-0.478371
-0.535891	0.495177	-0.465266	-0.492063	-0.449071	-0.495498	-0.543786	-0.524239	-0.541266	-0.497346	-0.545548	-0.490683	0.511358	0.491272	-0.522292	-0.52874	-0.469564	0.487262	0.502015	0.537803	0.521223	0.458956	-0.449028	0.532417	-0.734341	0.560629	-0.462951	-0.463393	0.518123	-0.489406	-0.387204	-0.351998
-0.562277	0.435486	-0.421789	-0.526231	-0.624486	-0.497637	-0.554373	-0.503467	-0.497492	-0.40025	-0.429339	-0.503738	0.522124	0.549131	-0.422798	-0.43786	-0.526266	0.524275	0.5096	0.302331	0.435533	0.515195	-0.536584	0.423875	-0.0188335	0.50493	-0.531852	-0.531644	0.440618	-0.428196	-0.473454	-0.590651
-0.451033	0.478327	-0.50581	-0.462757	-0.321708	-0.499542	-0.548543	-0.49542	-0.517838	-0.505954	-0.484891	-0.462168	0.470104	0.469475	-0.429129	-0.517658	-0.431298	0.532299	0.509132	0.545308	0.46244	0.485447	-0.563828	0.417869	-0.799266	0.469283	-0.566888	-0.423751	0.545361	-0.502328	-0.474933	-0.502739
-0.423225	0.543715	-0.52901	-0.499327	-0.439175	-0.556649	-0.456187	-0.466016	-0.425308	-0.44346	-0.411261	-0.484285	0.558056	0.451457	-0.456031	-0.437688	-0.502337	0.436579	0.523784	0.49243	0.524283	0.493746	-0.480213	0.531207	-0.804788	0.490459	-0.508217	-0.417619	0.486102	-0.564788	-0.481744	-0.544216
-0.48938	0.523679	-0.475518	-0.43245	-0.49359	-0.536977	-0.456426	-0.491527	-0.413693	-0.461744	-0.459959	-0.512038	0.478805	0.544632	-0.484767	-0.496944	-0.444698	0.513348	0.463472	0.448807	0.44959	0.435884	-0.472545	0.507452	-0.622559	0.53611	-0.526809	-0.54342	0.527965	-0.482771	-0.478971	-0.517779
-0.529999	0.552738	-0.413367	-0.448459	-0.492375	-0.415104	-0.534224	-0.514714	-0.415145	-0.54934	-0.473594	-0.474858	0.470671	0.486663	-0.520168	-0.449163	-0.571062	0.486839	0.501812	0.496161	0.470714	0.524898	-0.506509	0.470843	-0.119183	0.543322	-0.542952	-0.520855	0.508769	-0.441994	-0.447705	-0.430037
-0.493028	0.531372	-0.479758	-0.482097	-0.446035	-0.496183	-0.546431	-0.493538	-0.483251	-0.505685	-0.512744	-0.452599	0.555609	0.497317	-0.549222	-0.525149	-0.424081	0.411434	0.507572	0.473946	0.467455	0.456073	-0.465792	0.56895	0.0263389	0.534637	-0.472581	-0.478379	0.535042	-0.56296	-0.484795	-0.482881
-0.520139	0.47517	-0.51536	-0.485084	-0.412991	-0.53692	-0.449628	-0.53934	-0.407524	-0.559945	-0.463304	-0.494909	0.478849	0.456084	-0.505873	-0.515947	-0.441852	0.444576	0.454344	0.45372	0.463167	0.476482	-0.52394	0.533987	-0.609907	0.467404	-0.461018	-0.481546	0.519964	-0.426938	-0.433272	-0.485271
-0.435299	0.455809	-0.47463	-0.534571	-0.427488	-0.46523	-0.525536	-0.453766	-0.559853	-0.477754	-0.492057	-0.473371	0.440513	0.509998	-0.519103	-0.516756	-0.509139	0.474382	0.472527	0.503301	0.480261	0.475902	-0.411634	0.463473	-0.683534	0.452605	-0.457396	-0.536855	0.471975	-0.481846	-0.451631	-0.503981
-0.542009	0.481225	-0.471705	-0.504057	-0.494367	-0.47266	-0.537119	-0.50639	-0.554389	-0.456572	-0.508561	-0.487866	0.52835	0.442721	-0.528432	-0.503666	-0.454639	0.440903	0.51033	0.490726	0.480881	0.49583	-0.529026	0.533487	0.133591	0.498858	-0.466226	-0.550969	0.509973	-0.444386	-0.441365	-0.388357
-0.481862	0.396424	-0.397531	-0.525326	-0.529614	-0.386809	-0.553169	-0.431517	-0.442824	-0.502339	-0.466983	-0.430894	0.533378	0.44025	-0.489183	-0.502657	-0.526044	0.439225	0.428534	0.443513	0.521122	0.515143	-0.482037	0.502564	-0.110342	0.509267	-0.389197	-0.333802	0.352568	-0.42991	-0.470361	-0.404669
-0.512874	0.38732	-0.534346	-0.491252	-0.568359	-0.488849	-0.508648	-0.471659	-0.342468	-0.438478	-0.521322	-0.401364	0.467433	0.41431	-0.471175	-0.552951	-0.407565	0.465684	0.48063	0.385796	0.467985	0.431911	-0.511155	0.509106	-0.590829	0.432095	-0.442153	-0.518048	0.530346	-0.541584	-0.557251	-0.388689
-0.467165	0.513899	-0.543762	-0.474431	-0.419546	-0.453721	-0.495361	-0.47772	-0.500209	-0.535635	-0.563248	-0.547812	0.451412	0.414588	-0.501856	-0.481641	-0.491113	0.461921	0.491817	0.506297	0.440888	0.545221	-0.553288	0.566426	-0.566885	0.514466	-0.53312	-0.492588	0.57621	-0.496172	-0.506561	-0.390194
-0.547724	0.546234	-0.48755	-0.518743	-0.498495	-0.519445	-0.472366	-0.468277	-0.48314	-0.526488	-0.561544	-0.533902	0.550428	0.480642	-0.443267	-0.46983	-0.434873	0.520445	0.485265	0.436964	0.443891	0.45918	-0.533802	0.472363	-0.591961	0.480577	-0.522876	-0.469182	0.493874	-0.561505	-0.4804	-0.495672
-0.461941	0.422434	-0.457421	-0.503609	-0.526284	-0.545991	-0.53013	-0.493611	-0.427593	-0.504869	-0.525232	-0.528433	0.513837	0.565419	-0.496523	-0.463113	-0.512327	0.498326	0.506217	0.496339	0.50093	0.491153	-0.527879	0.396571	-0.723803	0.483643	-0.523075	-0.546252	0.49646	-0.463103	-0.50839	-0.519606
-0.448051	0.517067	-0.519057	-0.512518	-0.487249	-0.43253	-0.477406	-0.499643	-0.468638	-0.507245	-0.490172	-0.417442	0.548886	0.526904	-0.468616	-0.512894	-0.472636	0.463808	0.451946	0.534899	0.535883	0.549774	-0.538278	0.478917	-0.307774	0.54916	-0.48641	-0.477477	0.436227	-0.442311	-0.528579	-0.450621
-0.54493	0.426814	-0.436551	-0.521597	-0.507035	-0.421141	-0.44015	-0.522765	-0.532718	-0.501711	-0.533886	-0.440664	0.550482	0.47351	-0.427331	-0.466249	-0.515153	0.521792	0.499567	0.560051	0.477904	0.500989	-0.546762	0.599059	-0.0278678	0.551377	-0.375498	-0.437598	0.480725	-0.515322	-0.538445	-0.48829
-0.512557	0.46356	-0.478129	-0.412364	-0.470409	-0.477338	-0.468258	-0.455368	-0.401272	-0.487539	-0.407974	-0.456153	0.434646	0.420887	-0.475534	-0.442516	-0.454584	0.506139	0.446169	0.415366	0.425252	0.451134	-0.477133	0.449809	-0.809418	0.516802	-0.404551	-0.453624	0.447978	-0.411264	-0.361314	-0.435049
-0.556179	0.45513	-0.563585	-0.425839	-0.546654	-0.490323	-0.4423	-0.470239	-0.351833	-0.508664	-0.563118	-0.454587	0.532723	0.454452	-0.561286	-0.452122	-0.518802	0.44059	0.560185	0.406213	0.469617	0.523284	-0.528175	0.540331	0.0218466	0.526556	-0.499668	-0.3668	0.428973	-0.53892	-0.483382	-0.526072
-0.507826	0.47037	-0.437148	-0.469114	-0.523175	-0.520746	-0.457437	-0.498242	-0.442307	-0.547439	-0.471649	-0.51392	0.436194	0.424544	-0.491971	-0.53918	-0.425841	0.477315	0.480475	0.443305	0.511807	0.446082	-0.499059	0.379385	-0.736818	0.516403	-0.535114	-0.43226	0.500915	-0.39675	-0.486498	-0.522301
-0.515777	0.447332	-0.526642	-0.457383	-0.48534	-0.460847	-0.438415	-0.524683	-0.488708	-0.569616	-0.499769	-0.431125	0.509878	0.472937	-0.506243	-0.485221	-0.492118	0.550398	0.467214	0.462635	0.522467	0.52037	-0.484168	0.497978	-0.700514	0.528978	-0.573081	-0.407199	0.485539	-0.474773	-0.409227	-0.43216
-0.530712	0.343448	-0.444282	-0.474009	-0.586478	-0.349767	-0.525935	-0.520975	-0.450366	-0.460518	-0.519707	-0.411205	0.524598	0.575544	-0.40901	-0.481585	-0.272813	0.433045	0.436909	0.426167	0.495087	0.474317	-0.447948	0.635752	0.74784	0.390641	-0.329873	-0.474602	0.502337	-0.451433	-0.634469	-0.422764
-0.418703	0.448435	-0.410644	-0.481249	-0.511697	-0.51742	-0.50318	-0.467818	-0.319836	-0.507997	-0.499533	-0.486946	0.448103	0.505944	-0.51582	-0.560323	-0.440701	0.504315	0.448612	0.443931	0.423276	0.524774	-0.438677	0.358041	-0.758507	0.55652	-0.466395	-0.428406	0.576504	-0.604487	-0.520026	-0.535014
-0.468408	0.488745	-0.477986	-0.521742	-0.502971	-0.514095	-0.460246	-0.460689	-0.537671	-0.48287	-0.4933	-0.409699	0.566294	0.498549	-0.480505	-0.521597	-0.499191	0.500269	0.446461	0.463715	0.479666	0.528962	-0.477846	0.442426	-0.623394	0.441636	-0.536932	-0.472681	0.502798	-0.380053	-0.482281	-0.428173
-0.501132	0.405905	-0.579124	-0.508394	-0.400367	-0.516876	-0.496816	-0.597971	-0.413856	-0.580871	-0.486489	-0.563607	0.536281	0.530338	-0.381326	-0.500078	-0.599348	0.533836	0.53315	0.505637	0.472169	0.522608	-0.421418	0.541248	-0.514541	0.54833	-0.417155	-0.473276	0.378661	-0.534228	-0.454244	-0.520088
-0.440029	0.479943	-0.530957	-0.496947	-0.414231	-0.406358	-0.429773	-0.429798	-0.415317	-0.55819	-0.504152	-0.550807	0.46845	0.496484	-0.50989	-0.506108	-0.518401	0.516387	0.546611	0.483275	0.474084	0.517028	-0.559324	0.479603	-0.0227706	0.484143	-0.533651	-0.391448	0.478158	-0.494362	-0.471658	-0.471614
-0.369821	0.4215	-0.368486	-0.506908	-0.476771	-0.42652	-0.467431	-0.50414	-0.518073	-0.448343	-0.497954	-0.44187	0.384611	0.482267	-0.468828	-0.403863	-0.523956	0.435981	0.487838	0.473107	0.467762	0.404436	-0.407103	0.435716	-0.401485	0.484307	-0.424756	-0.456171	0.526824	-0.399648	-0.441693	-0.471419
-0.460424	0.515167	-0.503349	-0.459336	-0.494909	-0.539577	-0.563438	-0.526174	-0.527996	-0.50059	-0.549473	-0.576151	0.470111	0.477274	-0.558908	-0.479931	-0.417257	0.515323	0.53723	0.498622	0.491105	0.518328	-0.520948	0.530357	-0.320443	0.513276	-0.44325	-0.472513	0.497061	-0.441556	-0.483038	-0.445053
-0.482359	0.430113	-0.478347	-0.542556	-0.488676	-0.506762	-0.547546	-0.549796	-0.531877	-0.477476	-0.559851	-0.47061	0.488561	0.451863	-0.517502	-0.450469	-0.460409	0.526375	0.492524	0.514088	0.426187	0.500849	-0.451187	0.489821	-0.424805	0.496801	-0.518886	-0.43662	0.466317	-0.470647	-0.483776	-0.498153
-0.526207	0.460025	-0.495469	-0.520943	-0.488313	-0.524614	-0.449385	-0.52518	-0.44397	-0.533401	-0.498715	-0.503709	0.452922	0.494976	-0.552382	-0.507715	-0.486863	0.430241	0.527994	0.378571	0.494139	0.489156	-0.538355	0.572531	-0.440825	0.519032	-0.515705	-0.492276	0.555321	-0.478671	-0.402402	-0.420382
-0.503813	0.386759	-0.407444	-0.503083	-0.437932	-0.483089	-0.499502	-0.483779	-0.519459	-0.511639	-0.481225	-0.438306	0.525763	0.47316	-0.520944	-0.50513	-0.51482	0.450092	0.471128	0.455049	0.521211	0.484069	-0.510152	0.545962	-0.586992	0.533577	-0.485705	-0.498023	0.504336	-0.446023	-0.435101	-0.438529
-0.49545	0.462637	-0.51622	-0.417348	-0.518632	-0.379232	-0.494381	-0.39086	-0.491084	-0.489013	-0.44823	-0.427884	0.434091	0.464189	-0.528991	-0.498651	-0.442881	0.498285	0.394827	0.520758	0.470113	0.438568	-0.458075	0.503759	-0.752121	0.529892	-0.471396	-0.578957	0.432233	-0.602806	-0.544521	-0.531276
-0.413664	0.422986	-0.514051	-0.451149	-0.492986	-0.469032	-0.438567	-0.494546	-0.537588	-0.563768	-0.470586	-0.426396	0.559191	0.497631	-0.491104	-0.426719	-0.384472	0.447755	0.497003	0.451065	0.479326	0.480067	-0.424973	0.542479	-0.61178	0.49165	-0.55906	-0.551054	0.457126	-0.404302	-0.486596	-0.545922
-0.521072	0.442409	-0.465226	-0.543579	-0.509722	-0.425029	-0.547255	-0.541093	-0.560525	-0.46932	-0.510318	-0.433011	0.478732	0.535294	-0.458588	-0.469598	-0.54582	0.469844	0.480121	0.421919	0.526416	0.503076	-0.395768	0.571596	0.317338	0.533753	-0.327644	-0.413998	0.540924	-0.54234	-0.422903	-0.321617
-0.513942	0.484468	-0.437732	-0.495086	-0.472742	-0.484795	-0.453685	-0.42842	-0.528873	-0.547684	-0.476619	-0.536008	0.53664	0.55572	-0.451607	-0.47191	-0.548149	0.500538	0.492618	0.463456	0.460752	0.526675	-0.532047	0.563828	-0.642832	0.491851	-0.462055	-0.476285	0.394025	-0.4495	-0.413421	-0.428979
-0.524022	0.448853	-0.549252	-0.46463	-0.533186	-0.50759	-0.479062	-0.487511	-0.569194	-0.486233	-0.478035	-0.464206	0.447137	0.442469	-0.492502	-0.490814	-0.452419	0.490438	0.443942	0.438833	0.562905	0.54192	-0.502141	0.486266	-0.598559	0.511193	-0.536714	-0.513869	0.540076	-0.472713	-0.52211	-0.407383
-0.431696	0.505783	-0.413149	-0.441097	-0.452534	-0.493593	-0.478604	-0.52308	-0.56383	-0.442371	-0.485252	-0.484808	0.456091	0.439189	-0.557983	-0.459349	-0.478496	0.455959	0.464592	0.469622	0.43383	0.538169	-0.437202	0.548037	-0.796106	0.501372	-0.528624	-0.514366	0.532165	-0.483075	-0.464538	-0.470863
-0.43638	0.445601	-0.43955	-0.43928	-0.529961	-0.404639	-0.437212	-0.522206	-0.419749	-0.481614	-0.38962	-0.512636	0.498296	0.442451	-0.461621	-0.551681	-0.47383	0.547986	0.518704	0.511551	0.440588	0.488351	-0.485179	0.487611	-0.587774	0.515752	-0.417546	-0.421427	0.435448	-0.504697	-0.4438	-0.45965
-0.546746	0.504623	-0.450915	-0.476766	-0.40644	-0.533769	-0.451849	-0.480245	-0.391996	-0.539004	-0.435946	-0.509016	0.511979	0.566168	-0.534715	-0.464147	-0.470981	0.449855	0.530107	0.426906	0.459233	0.547006	-0.474372	0.50069	-0.582268	0.485697	-0.493476	-0.4723	0.428584	-0.332243	-0.469866	-0.529781
-0.443294	0.433796	-0.52705	-0.482209	-0.410518	-0.412329	-0.527589	-0.474704	-0.561674	-0.484079	-0.504094	-0.53856	0.547414	0.468112	-0.540916	-0.464435	-0.398176	0.53942	0.454108	0.525443	0.458598	0.513215	-0.50599	0.386597	-0.458545	0.426763	-0.5591	-0.506859	0.533593	-0.340884	-0.549548	-0.523154
-0.50255	0.511226	-0.535973	-0.482292	-0.465603	-0.513206	-0.540298	-0.521074	-0.560262	-0.543628	-0.540297	-0.454819	0.555047	0.464574	-0.520778	-0.546766	-0.489262	0.487751	0.48104	0.473052	0.533505	0.559516	-0.419039	0.496517	-0.518935	0.478296	-0.50068	-0.498316	0.421009	-0.420291	-0.458269	-0.499851
-0.49625	0.491523	-0.523408	-0.49576	-0.499146	-0.522761	-0.547749	-0.483467	-0.400992	-0.554058	-0.429978	-0.566207	0.508079	0.516146	-0.484424	-0.430366	-0.509426	0.546559	0.448142	0.445371	0.500559	0.552995	-0.550413	0.487714	-0.645435	0.489708	-0.474706	-0.499714	0.486875	-0.460253	-0.471959	-0.422086
-0.467034	0.51747	-0.466434	-0.560982	-0.509462	-0.528725	-0.488665	-0.508815	-0.408227	-0.542045	-0.530245	-0.494361	0.452045	0.53138	-0.546203	-0.493124	-0.443891	0.451557	0.502309	0.397236	0.516732	0.456856	-0.44114	0.509714	-0.466827	0.469236	-0.51371	-0.489553	0.528663	-0.442575	-0.499164	-0.530844
-0.481888	0.507432	-0.512948	-0.428879	-0.496798	-0.496684	-0.499486	-0.468383	-0.486209	-0.522458	-0.467014	-0.524958	0.438267	0.521608	-0.488868	-0.453072	-0.41625	0.473351	0.428511	0.519346	0.457097	0.546924	-0.487405	0.5282	-0.341766	0.512688	-0.542199	-0.439122	0.390075	-0.419643	-0.551816	-0.442209
-0.519642	0.421846	-0.374598	-0.508018	-0.414132	-0.483233	-0.418162	-0.4795	-0.312788	-0.40293	-0.395804	-0.388456	0.457076	0.364266	-0.454663	-0.505563	-0.402367	0.432659	0.446958	0.335845	0.356903	0.469037	-0.353416	0.440766	0.58476	0.418407	-0.541373	-0.433339	0.447358	-0.329176	-0.485405	-0.379871
-0.41273	0.448527	-0.537286	-0.454999	-0.387871	-0.448011	-0.464437	-0.440679	-0.445342	-0.469441	-0.556419	-0.380845	0.528633	0.520194	-0.445058	-0.52196	-0.527909	0.459532	0.479252	0.451343	0.515956	0.529106	-0.508646	0.442743	-0.477377	0.477624	-0.428744	-0.347997	0.522531	-0.382717	-0.48974	-0.392664
-0.454911	0.50056	-0.529597	-0.503306	-0.395732	-0.525029	-0.414293	-0.45468	-0.394324	-0.50525	-0.494207	-0.481002	0.444418	0.437466	-0.476318	-0.484829	-0.413396	0.525154	0.414961	0.396675	0.426457	0.420512	-0.37332	0.463751	-0.333144	0.378599	-0.554996	-0.493362	0.440945	-0.391734	-0.428609	-0.393067
-0.465524	0.462546	-0.546548	-0.53219	-0.430828	-0.48396	-0.409953	-0.560768	-0.44599	-0.453493	-0.426314	-0.381792	0.445521	0.418121	-0.52621	-0.47521	-0.566417	0.502232	0.509907	0.535617	0.495781	0.454796	-0.560273	0.422988	-0.485614	0.442354	-0.483661	-0.547957	0.397095	-0.423851	-0.494564	-0.432928
-0.516098	0.404716	-0.45706	-0.432288	-0.463338	-0.554481	-0.482723	-0.468865	-0.39981	-0.524745	-0.525794	-0.411556	0.52646	0.518103	-0.496001	-0.525818	-0.519409	0.532699	0.504542	0.463505	0.510188	0.508502	-0.426545	0.515612	-0.489768	0.456486	-0.424344	-0.490851	0.442491	-0.477779	-0.377841	-0.402169
-0.543253	0.493445	-0.445747	-0.486606	-0.452401	-0.397618	-0.538307	-0.456249	-0.4703	-0.410343	-0.454288	-0.459238	0.467664	0.483503	-0.543764	-0.462253	-0.531085	0.533106	0.498618	0.467268	0.507889	0.526987	-0.486705	0.413123	-0.714418	0.481395	-0.529289	-0.547686	0.478889	-0.514707	-0.467082	-0.440916
-0.487712	0.420913	-0.531704	-0.502604	-0.526734	-0.501938	-0.526181	-0.415635	-0.570153	-0.434159	-0.480958	-0.506976	0.456243	0.464629	-0.533223	-0.504695	-0.416887	0.507085	0.504754	0.422183	0.510027	0.504916	-0.41241	0.55601	-0.65742	0.537576	-0.507611	-0.511286	0.539805	-0.507404	-0.515228	-0.518111
-0.486885	0.446777	-0.166531	-0.419653	-0.397763	-0.216603	-0.186253	-0.304024	-0.503872	-0.372849	-0.281729	-0.287584	0.226893	0.296191	-0.494331	-0.332474	-0.330522	0.376473	0.201912	0.57986	0.323937	0.1578	-0.427479	0.324125	0.883253	0.417747	-0.555749	-0.463207	0.397389	-0.602563	-0.462276	-0.263407
-0.504852	0.448745	-0.490356	-0.500187	-0.47358	-0.451038	-0.450357	-0.379098	-0.377179	-0.454534	-0.398507	-0.518135	0.520121	0.382389	-0.441853	-0.484721	-0.366682	0.450403	0.450856	0.369684	0.455731	0.510219	-0.465847	0.468792	-0.399302	0.405393	-0.479524	-0.431965	0.450943	-0.539143	-0.432136	-0.491461
-0.472563	0.491745	-0.498614	-0.522946	-0.377936	-0.532043	-0.51183	-0.493373	-0.555415	-0.502566	-0.480793	-0.517401	0.562534	0.436968	-0.454741	-0.479086	-0.520735	0.427686	0.419664	0.419963	0.529948	0.538687	-0.463971	0.477161	-0.281113	0.522629	-0.514377	-0.470775	0.588853	-0.439318	-0.470118	-0.45394
-0.484618	0.484396	-0.42827	-0.479892	-0.506671	-0.435921	-0.515647	-0.457434	-0.550491	-0.548192	-0.462667	-0.469399	0.483522	0.528015	-0.44649	-0.435422	-0.419653	0.447189	0.493597	0.449673	0.523978	0.486374	-0.508094	0.451903	-0.465652	0.483091	-0.515878	-0.375506	0.428047	-0.465043	-0.581386	-0.507941
-0.444229	0.533026	-0.292758	-0.413038	-0.460949	-0.448667	-0.433525	-0.404696	-0.388909	-0.423464	-0.307669	-0.368939	0.391346	0.318944	-0.357869	-0.265757	-0.46606	0.498215	0.219054	0.396014	0.471346	0.329975	-0.509552	0.522765	0.442788	0.377236	-0.482998	-0.40894	0.325642	-0.305501	-0.539446	-0.3727
-0.506664	0.542559	-0.524331	-0.411236	-0.413259	-0.462729	-0.496573	-0.517164	-0.573515	-0.528886	-0.49874	-0.420598	0.474393	0.432491	-0.451043	-0.483568	-0.434309	0.4881	0.509313	0.470878	0.434679	0.441069	-0.473393	0.457393	-0.834558	0.513672	-0.51746	-0.50962	0.486159	-0.450963	-0.467294	-0.520473
-0.454089	0.464278	-0.477322	-0.489583	-0.458865	-0.487678	-0.498241	-0.436966	-0.50508	-0.481753	-0.478492	-0.432765	0.454152	0.562903	-0.489938	-0.500688	-0.476502	0.460021	0.545412	0.491587	0.50061	0.534633	-0.576834	0.554134	-0.383995	0.572994	-0.48892	-0.386079	0.428914	-0.508138	-0.444886	-0.419548
-0.534119	0.532919	-0.443096	-0.541619	-0.434863	-0.53032	-0.549028	-0.524618	-0.499791	-0.548196	-0.506938	-0.493917	0.459969	0.482935	-0.502407	-0.498223	-0.48141	0.424473	0.447244	0.380958	0.454225	0.460784	-0.429366	0.444085	-0.870983	0.499957	-0.444019	-0.458664	0.410586	-0.402246	-0.46316	-0.488661
-0.482312	0.495774	-0.482853	-0.523795	-0.380829	-0.485989	-0.480881	-0.448538	-0.462975	-0.426312	-0.505365	-0.475312	0.439848	0.489897	-0.556461	-0.459062	-0.526276	0.53893	0.454807	0.461472	0.507888	0.543333	-0.506363	0.570729	-0.647591	0.546808	-0.4914	-0.489995	0.53602	-0.543972	-0.523885	-0.555319
-0.464597	0.525992	-0.583176	-0.427835	-0.479605	-0.578531	-0.465381	-0.422832	-0.526613	-0.536305	-0.501606	-0.549383	0.471956	0.561396	-0.5468	-0.468902	-0.540454	0.388139	0.50556	0.402402	0.435575	0.546133	-0.443178	0.518176	-0.755847	0.513122	-0.467418	-0.461815	0.451503	-0.578486	-0.442214	-0.349038
-0.566054	0.48577	-0.552658	-0.524979	-0.447672	-0.41749	-0.548292	-0.433189	-0.42763	-0.46431	-0.471431	-0.469169	0.474522	0.480211	-0.510146	-0.528256	-0.475887	0.510974	0.42455	0.572596	0.561939	0.514718	-0.488754	0.499766	-0.0988036	0.505818	-0.561924	-0.365803	0.433226	-0.4167	-0.438799	-0.454525
-0.551675	0.538231	-0.493986	-0.533742	-0.436735	-0.493648	-0.461776	-0.506717	-0.42055	-0.559251	-0.498099	-0.446628	0.414003	0.474004	-0.491902	-0.510107	-0.392489	0.47754	0.472437	0.495388	0.527276	0.501573	-0.53476	0.424095	-0.608193	0.546339	-0.561308	-0.548007	0.468987	-0.432021	-0.45008	-0.548438
-0.543166	0.521935	-0.5336	-0.464896	-0.53056	-0.528634	-0.459705	-0.45257	-0.450616	-0.435331	-0.537445	-0.464499	0.433341	0.520361	-0.404459	-0.452258	-0.47615	0.456783	0.520405	0.412603	0.507012	0.510715	-0.50273	0.438387	-0.719802	0.517773	-0.504827	-0.550647	0.474563	-0.546255	-0.45899	-0.490855
-0.551703	0.47535	-0.530359	-0.418593	-0.497618	-0.532722	-0.457694	-0.442954	-0.526297	-0.510466	-0.449688	-0.441701	0.401516	0.435868	-0.441157	-0.531693	-0.563184	0.475737	0.537799	0.374452	0.51917	0.481263	-0.464786	0.463821	-0.402583	0.41674	-0.478742	-0.542297	0.4766	-0.474891	-0.542717	-0.53403
-0.485568	0.498818	-0.522593	-0.417764	-0.51529	-0.437892	-0.498818	-0.521433	-0.538232	-0.515297	-0.472527	-0.514549	0.499317	0.490394	-0.515892	-0.483212	-0.54619	0.502179	0.522381	0.479211	0.464801	0.551186	-0.476419	0.560137	-0.65471	0.481694	-0.497994	-0.43589	0.507977	-0.529425	-0.448094	-0.514551
-0.46272	0.533772	-0.500021	-0.494568	-0.406116	-0.442612	-0.44877	-0.531653	-0.484488	-0.497251	-0.452642	-0.520382	0.453436	0.447339	-0.456382	-0.542166	-0.472244	0.499831	0.48943	0.445689	0.508435	0.523323	-0.531018	0.555808	-0.693243	0.437099	-0.473079	-0.481137	0.547961	-0.368619	-0.508274	-0.511643
-0.519999	0.417846	-0.383186	-0.481601	-0.506414	-0.441276	-0.569218	-0.565548	-0.546943	-0.476978	-0.518856	-0.503353	0.421272	0.481064	-0.529528	-0.551193	-0.350276	0.578249	0.527155	0.447116	0.475071	0.446692	-0.448662	0.538895	0.456868	0.405263	-0.53319	-0.380877	0.550462	-0.423987	-0.485175	-0.503861
-0.561528	0.49831	-0.443087	-0.536018	-0.486185	-0.477823	-0.489302	-0.516476	-0.425485	-0.52068	-0.569931	-0.438638	0.567696	0.545732	-0.479193	-0.426903	-0.387709	0.470944	0.570163	0.494998	0.491919	0.470959	-0.521353	0.522064	0.387269	0.539543	-0.413482	-0.534681	0.439287	-0.477195	-0.50567	-0.536324
-0.488455	0.504364	-0.510373	-0.516777	-0.471266	-0.503368	-0.521077	-0.455113	-0.43707	-0.505314	-0.421383	-0.440911	0.474989	0.471251	-0.542242	-0.474106	-0.424694	0.532224	0.454488	0.530498	0.510561	0.442935	-0.515969	0.526705	-0.645294	0.498445	-0.476619	-0.450631	0.511848	-0.530382	-0.496388	-0.497223
-0.452096	0.531672	-0.479265	-0.480648	-0.526979	-0.517821	-0.451632	-0.546269	-0.466529	-0.516199	-0.54326	-0.50423	0.564511	0.42901	-0.550917	-0.450534	-0.524982	0.472942	0.409502	0.41935	0.497012	0.494803	-0.455291	0.507121	-0.27677	0.507001	-0.507426	-0.453166	0.437566	-0.432383	-0.513817	-0.451633
-0.49081	0.548106	-0.545357	-0.461397	-0.567062	-0.407972	-0.484129	-0.448883	-0.535036	-0.561189	-0.544695	-0.565294	0.339484	0.463091	-0.439778	-0.510019	-0.445155	0.473407	0.425539	0.48418	0.510704	0.443507	-0.384568	0.497229	-0.715675	0.484801	-0.544869	-0.516872	0.509494	-0.409893	-0.366911	-0.537524
-0.474941	0.439179	-0.492802	-0.571805	-0.419837	-0.441311	-0.473022	-0.537407	-0.453004	-0.522644	-0.482866	-0.456903	0.495267	0.460795	-0.547893	-0.535188	-0.49504	0.410658	0.511121	0.438688	0.454613	0.540475	-0.428099	0.490369	-0.70865	0.460033	-0.488001	-0.457338	0.510641	-0.485192	-0.539966	-0.52575
-0.486551	0.457898	-0.403574	-0.459241	-0.578768	-0.505044	-0.544323	-0.455821	-0.502015	-0.470655	-0.504214	-0.417339	0.547296	0.53209	-0.479956	-0.445069	-0.562431	0.500003	0.472235	0.51698	0.504699	0.532059	-0.475656	0.543196	-0.574736	0.449711	-0.423473	-0.481496	0.489305	-0.567328	-0.484265	-0.520148
-0.478861	0.485006	-0.559382	-0.488356	-0.478915	-0.507728	-0.489893	-0.521098	-0.548236	-0.510774	-0.441619	-0.545403	0.528975	0.464951	-0.523333	-0.55417	-0.504813	0.467909	0.470564	0.43283	0.459123	0.579249	-0.476698	0.491872	-0.731862	0.556021	-0.549262	-0.485206	0.569821	-0.484939	-0.423517	-0.453885
-0.511285	0.520494	-0.421169	-0.460357	-0.433674	-0.418587	-0.466451	-0.394333	-0.557018	-0.423904	-0.470184	-0.523519	0.449088	0.486798	-0.516693	-0.465209	-0.425685	0.543211	0.429187	0.423744	0.489158	0.533194	-0.454099	0.479764	-0.672892	0.497333	-0.534047	-0.4966	0.505773	-0.536319	-0.443674	-0.55594
-0.43469	0.489911	-0.31655	-0.511119	-0.584001	-0.234675	-0.427453	-0.43253	-0.572623	-0.378749	-0.526821	-0.463592	0.494934	0.402409	-0.473065	-0.43044	-0.501674	0.340378	0.43315	0.524601	0.548094	0.419096	-0.479997	0.345788	-0.103127	0.511857	-0.612885	-0.351158	0.500683	-0.429001	-0.622468	-0.5269
-0.486584	0.417408	-0.489661	-0.456619	-0.498764	-0.506615	-0.486752	-0.507109	-0.432173	-0.469803	-0.552044	-0.486812	0.515696	0.524243	-0.449032	-0.544971	-0.476568	0.4751	0.486719	0.438987	0.504776	0.52392	-0.490473	0.481508	-0.668724	0.474151	-0.526506	-0.489746	0.470448	-0.549969	-0.488491	-0.411118
-0.509888	0.459879	-0.449885	-0.500487	-0.466827	-0.423275	-0.548219	-0.548123	-0.490622	-0.546149	-0.463802	-0.455918	0.508674	0.466417	-0.472779	-0.479938	-0.442552	0.448002	0.478213	0.49474	0.497625	0.473534	-0.502936	0.436564	-0.669864	0.502204	-0.468376	-0.549902	0.56617	-0.52896	-0.431656	-0.366349
-0.500618	0.46199	-0.447033	-0.575819	-0.328022	-0.518632	-0.436719	-0.535641	-0.507688	-0.551911	-0.480828	-0.434814	0.506205	0.529936	-0.506175	-0.5112	-0.41812	0.444608	0.460498	0.403218	0.442884	0.473271	-0.494623	0.516836	-0.78325	0.459183	-0.465982	-0.489407	0.522302	-0.549497	-0.553136	-0.552446
-0.418453	0.446198	-0.489202	-0.479227	-0.517931	-0.477711	-0.461333	-0.527207	-0.394471	-0.513707	-0.516982	-0.47897	0.512407	0.481109	-0.516403	-0.544541	-0.447386	0.509743	0.544632	0.458955	0.523221	0.523312	-0.528359	0.553841	-0.0770381	0.433471	-0.496626	-0.499573	0.46953	-0.522547	-0.473114	-0.361684
-0.476904	0.467704	-0.460818	-0.439191	-0.462976	-0.520055	-0.458858	-0.556408	-0.493901	-0.449385	-0.4227	-0.478907	0.507924	0.494826	-0.456356	-0.478459	-0.536244	0.489241	0.476254	0.485007	0.475264	0.51781	-0.515908	0.529206	-0.691117	0.490006	-0.550019	-0.495444	0.463103	-0.459486	-0.568556	-0.458151
-0.51653	0.511566	-0.433704	-0.465577	-0.493922	-0.433551	-0.454845	-0.518722	-0.401757	-0.454012	-0.521389	-0.527492	0.441081	0.541511	-0.485668	-0.49572	-0.486243	0.448713	0.404392	0.490161	0.469975	0.545843	-0.507582	0.428156	-0.595026	0.550473	-0.443686	-0.474105	0.471259	-0.401411	-0.441182	-0.442562
-0.528026	0.512532	-0.539626	-0.473215	-0.510073	-0.538805	-0.526237	-0.398968	-0.580414	-0.520446	-0.464444	-0.441212	0.551579	0.519396	-0.525282	-0.478828	-0.484367	0.534777	0.45879	0.512605	0.551396	0.479713	-0.440921	0.426914	-0.726157	0.536948	-0.430124	-0.518181	0.436472	-0.403561	-0.45015	-0.509862
-0.474378	0.504065	-0.508472	-0.525922	-0.466951	-0.547037	-0.456436	-0.525784	-0.519115	-0.428259	-0.469432	-0.475842	0.463929	0.478681	-0.467467	-0.476113	-0.51943	0.476943	0.463694	0.518137	0.448264	0.454967	-0.51289	0.438873	-0.241476	0.516499	-0.43875	-0.523034	0.567336	-0.476457	-0.539885	-0.509445
-0.497311	0.473837	-0.486589	-0.466895	-0.497098	-0.509462	-0.540682	-0.526668	-0.493935	-0.493448	-0.454574	-0.516008	0.45286	0.456688	-0.528149	-0.425904	-0.545227	0.53033	0.429922	0.470582	0.529145	0.447742	-0.525354	0.455861	-0.434304	0.440203	-0.540913	-0.465668	0.558799	-0.538481	-0.419799	-0.511233
-0.438958	0.42687	-0.446865	-0.485909	-0.543185	-0.513874	-0.416608	-0.498609	-0.552298	-0.556708	-0.420885	-0.567667	0.562443	0.549339	-0.423732	-0.554211	-0.579207	0.465068	0.543459	0.432377	0.543269	0.513572	-0.500388	0.55593	0.086282	0.515728	-0.536062	-0.457685	0.45024	-0.436798	-0.416737	-0.312289
-0.499388	0.488614	-0.528765	-0.469267	-0.488046	-0.426014	-0.502201	-0.533222	-0.518915	-0.543289	-0.470545	-0.494399	0.537207	0.483182	-0.554977	-0.498969	-0.501219	0.453564	0.540144	0.50844	0.441419	0.554825	-0.477626	0.436704	-0.254839	0.545926	-0.517355	-0.552097	0.393959	-0.432772	-0.465277	-0.552817
-0.521562	0.417925	-0.374735	-0.512995	-0.572463	-0.513363	-0.385692	-0.605449	-0.242588	-0.479722	-0.485655	-0.553354	0.590186	0.533846	-0.393472	-0.449367	-0.421217	0.425461	0.416847	0.473427	0.448983	0.540096	-0.502627	0.532454	0.659596	0.406118	-0.515136	-0.510468	0.462005	-0.581318	-0.519378	-0.335739
-0.434158	0.429285	-0.427209	-0.447933	-0.533357	-0.485625	-0.540764	-0.520937	-0.501931	-0.529283	-0.476119	-0.50931	0.507577	0.542175	-0.498074	-0.438105	-0.448979	0.500353	0.440241	0.422274	0.533647	0.514981	-0.427881	0.532239	-0.559163	0.472504	-0.457666	-0.483364	0.43029	-0.518801	-0.499496	-0.47414
-0.473954	0.467427	-0.57012	-0.497686	-0.526052	-0.500584	-0.427234	-0.523483	-0.504607	-0.555483	-0.525593	-0.564841	0.515059	0.5143	-0.385211	-0.469963	-0.464569	0.56999	0.468647	0.448916	0.441986	0.499659	-0.426762	0.568238	-0.149446	0.452114	-0.534574	-0.482747	0.489687	-0.349022	-0.435201	-0.45714
-0.440932	0.541044	-0.458386	-0.501807	-0.461018	-0.486832	-0.433787	-0.50893	-0.40717	-0.462328	-0.476835	-0.465781	0.46765	0.477908	-0.46109	-0.541023	-0.545069	0.439606	0.488278	0.466485	0.457967	0.464634	-0.515551	0.465242	-0.260908	0.453691	-0.553157	-0.497884	0.477038	-0.422429	-0.424291	-0.51236
-0.48725	0.471154	-0.526227	-0.55107	-0.470615	-0.507386	-0.467715	-0.448088	-0.448386	-0.493915	-0.524529	-0.51628	0.4818	0.46846	-0.524891	-0.466666	-0.494456	0.541764	0.501382	0.471482	0.558253	0.490384	-0.495285	0.474733	-0.662771	0.502854	-0.453163	-0.474601	0.516876	-0.366886	-0.469179	-0.489619
-0.478584	0.53023	-0.443733	-0.506147	-0.421235	-0.467883	-0.487122	-0.521363	-0.512633	-0.464737	-0.533111	-0.446974	0.499658	0.481063	-0.51872	-0.531479	-0.520016	0.527476	0.496584	0.452294	0.473033	0.562176	-0.520595	0.530588	-0.561679	0.438882	-0.452234	-0.448599	0.455936	-0.450264	-0.488305	-0.555378
-0.52276	0.443881	-0.476532	-0.499789	-0.593008	-0.473473	-0.536733	-0.470168	-0.590285	-0.549878	-0.503709	-0.444428	0.457351	0.515713	-0.419425	-0.569409	-0.474185	0.523226	0.465042	0.3947	0.541905	0.523681	-0.526897	0.510978	0.0150563	0.48866	-0.493091	-0.352843	0.46702	-0.408418	-0.55223	-0.486219
-0.48246	0.519248	-0.447182	-0.553815	-0.48222	-0.490965	-0.476033	-0.47719	-0.405356	-0.470319	-0.488779	-0.507569	0.449198	0.532103	-0.535109	-0.498321	-0.467638	0.552379	0.563104	0.494593	0.457335	0.518407	-0.449331	0.403258	-0.710442	0.536917	-0.457352	-0.467322	0.393382	-0.520616	-0.466294	-0.513234
-0.47159	0.460897	-0.454633	-0.445787	-0.579324	-0.514885	-0.445143	-0.503307	-0.544713	-0.490343	-0.502081	-0.467945	0.462486	0.450395	-0.440458	-0.527059	-0.494429	0.49073	0.448059	0.409264	0.472153	0.513276	-0.434728	0.451004	0.100477	0.476205	-0.450191	-0.458934	0.404215	-0.377376	-0.452337	-0.514195
-0.439369	0.393024	-0.491691	-0.552612	-0.590707	-0.422889	-0.529909	-0.483565	-0.483379	-0.456673	-0.491811	-0.428203	0.498602	0.544288	-0.391919	-0.550896	-0.572901	0.554644	0.491287	0.395551	0.551789	0.520636	-0.417006	0.480724	0.315964	0.565076	-0.43949	-0.428427	0.485566	-0.494494	-0.460722	-0.460017
-0.448721	0.429603	-0.449391	-0.408085	-0.44616	-0.476412	-0.493424	-0.52127	-0.53615	-0.450278	-0.456092	-0.435254	0.468763	0.497374	-0.458735	-0.447292	-0.523949	0.556252	0.455518	0.445191	0.506957	0.45345	-0.464166	0.546422	-0.574527	0.47938	-0.532675	-0.402468	0.532689	-0.523409	-0.441976	-0.427652
-0.430134	0.495924	-0.483102	-0.44299	-0.387256	-0.45988	-0.515274	-0.563741	-0.461732	-0.53837	-0.434896	-0.444857	0.494102	0.525313	-0.545648	-0.544262	-0.549217	0.471255	0.546293	0.53846	0.474682	0.467377	-0.52227	0.496843	-0.422331	0.481489	-0.518565	-0.532605	0.460738	-0.540345	-0.480785	-0.392049
-0.554496	0.510105	-0.358167	-0.479576	-0.361279	-0.530806	-0.544727	-0.428338	-0.555063	-0.53168	-0.512852	-0.534247	0.519493	0.528766	-0.470481	-0.481531	-0.471795	0.461941	0.505655	0.482572	0.506792	0.45507	-0.423733	0.427884	-0.702723	0.510952	-0.430429	-0.497431	0.451207	-0.499858	-0.491385	-0.341947
-0.528022	0.537139	-0.517187	-0.521383	-0.382622	-0.439769	-0.418586	-0.512283	-0.371652	-0.492448	-0.521213	-0.485094	0.546754	0.46869	-0.479081	-0.475571	-0.483533	0.5456	0.509174	0.510228	0.521146	0.469029	-0.538999	0.512808	-0.435092	0.464978	-0.462539	-0.436813	0.541896	-0.480854	-0.460593	-0.490914
-0.45006	0.414566	-0.486746	-0.47023	-0.367502	-0.39372	-0.443206	-0.427115	-0.397908	-0.486788	-0.564146	-0.545811	0.515964	0.453267	-0.474102	-0.526422	-0.520865	0.530839	0.544065	0.423906	0.458385	0.465155	-0.522162	0.363258	-0.891049	0.450995	-0.515203	-0.578874	0.38647	-0.425096	-0.497869	-0.528421
-0.449535	0.459799	-0.432079	-0.441773	-0.54328	-0.453586	-0.530523	-0.474793	-0.562205	-0.499323	-0.413173	-0.533482	0.513105	0.527908	-0.541612	-0.47995	-0.530927	0.522231	0.501986	0.504222	0.425745	0.498827	-0.451394	0.466982	-0.151802	0.546637	-0.543738	-0.543887	0.449416	-0.498583	-0.427789	-0.442334
-0.496842	0.489698	-0.571897	-0.545863	-0.528464	-0.420359	-0.475851	-0.529103	-0.455099	-0.433544	-0.582286	-0.461512	0.446563	0.453944	-0.555952	-0.437491	-0.396423	0.477976	0.498343	0.417852	0.455718	0.461372	-0.448043	0.598002	-0.526512	0.493893	-0.499784	-0.53762	0.490338	-0.590498	-0.477706	-0.459589
-0.531455	0.437268	-0.494622	-0.546053	-0.427651	-0.513395	-0.540519	-0.484273	-0.457249	-0.471402	-0.464876	-0.557963	0.46244	0.534699	-0.47295	-0.467225	-0.422328	0.496219	0.516758	0.490828	0.551284	0.500722	-0.509176	0.444291	-0.695811	0.498169	-0.511585	-0.464204	0.517958	-0.441	-0.43136	-0.43569
-0.522907	0.527102	-0.475094	-0.395567	-0.496611	-0.440676	-0.393095	-0.423482	-0.535231	-0.532129	-0.561717	-0.518205	0.435155	0.511513	-0.415658	-0.401296	-0.503462	0.439962	0.485237	0.275934	0.508688	0.410198	-0.543892	0.421024	-0.742857	0.442235	-0.562383	-0.363691	0.365754	-0.40405	-0.417921	-0.329967
-0.467489	0.510883	-0.485302	-0.439632	-0.473107	-0.528006	-0.532685	-0.518587	-0.406613	-0.491236	-0.511429	-0.459246	0.412033	0.488055	-0.492601	-0.488045	-0.570357	0.465842	0.465813	0.473252	0.556501	0.506686	-0.454467	0.423977	-0.499235	0.497459	-0.487099	-0.503239	0.470445	-0.416413	-0.50552	-0.495545
-0.536721	0.475232	-0.491094	-0.419427	-0.490748	-0.439648	-0.486639	-0.516627	-0.368461	-0.522643	-0.44323	-0.436398	0.515669	0.428414	-0.452769	-0.50566	-0.440379	0.463766	0.456942	0.41052	0.460855	0.512515	-0.487739	0.40954	-0.736224	0.445928	-0.446309	-0.541633	0.491191	-0.5803	-0.49859	-0.536587
-0.484316	0.507857	-0.386327	-0.529771	-0.484266	-0.509757	-0.46182	-0.509146	-0.528427	-0.504947	-0.491765	-0.46494	0.455302	0.518527	-0.45514	-0.453326	-0.404529	0.479519	0.515796	0.571332	0.481355	0.525415	-0.491721	0.411767	0.168006	0.492882	-0.459772	-0.524741	0.473982	-0.432517	-0.569538	-0.454441
-0.391846	0.460457	-0.462015	-0.456905	-0.445322	-0.503662	-0.558444	-0.46847	-0.41959	-0.46598	-0.434035	-0.51985	0.444263	0.51286	-0.516884	-0.509544	-0.537735	0.440185	0.509171	0.516091	0.46161	0.566232	-0.554872	0.537971	-0.335786	0.496813	-0.420825	-0.522856	0.355442	-0.45196	-0.465398	-0.343105
-0.483481	0.448379	-0.485661	-0.511395	-0.407199	-0.510561	-0.496047	-0.415369	-0.382602	-0.419837	-0.390031	-0.417316	0.555842	0.428833	-0.469633	-0.533299	-0.509033	0.416587	0.464557	0.399804	0.489896	0.415948	-0.45503	0.476117	-0.754685	0.512687	-0.525426	-0.495425	0.440848	-0.468803	-0.397342	-0.454869
-0.45896	0.546056	-0.467416	-0.473012	-0.473451	-0.492054	-0.481124	-0.49852	-0.492993	-0.556719	-0.554762	-0.506771	0.441678	0.500076	-0.501075	-0.471444	-0.572103	0.505652	0.46398	0.421011	0.490211	0.526176	-0.476246	0.542074	-0.569531	0.541806	-0.538234	-0.49443	0.506124	-0.414856	-0.581824	-0.502581
-0.405404	0.48739	-0.525672	-0.452035	-0.513747	-0.523967	-0.515723	-0.427671	-0.444791	-0.405308	-0.487978	-0.407645	0.434346	0.443371	-0.532303	-0.433398	-0.56101	0.520986	0.480283	0.420444	0.380471	0.459068	-0.535518	0.502889	-0.439302	0.441148	-0.536435	-0.408853	0.439224	-0.487697	-0.44817	-0.455514
-0.497859	0.502896	-0.43197	-0.521437	-0.48118	-0.410002	-0.49148	-0.457744	-0.374128	-0.558653	-0.493393	-0.541263	0.522804	0.534598	-0.522647	-0.455087	-0.508594	0.483989	0.475247	0.442386	0.492757	0.552137	-0.524539	0.53038	-0.666198	0.533818	-0.464834	-0.448858	0.404303	-0.554182	-0.500915	-0.45431
-0.464507	0.472243	-0.485576	-0.512222	-0.407014	-0.535506	-0.479049	-0.470853	-0.602727	-0.516711	-0.501474	-0.535828	0.520608	0.513522	-0.433127	-0.520804	-0.452913	0.545073	0.512248	0.532748	0.480742	0.543573	-0.488987	0.493699	0.0260118	0.454999	-0.414907	-0.453711	0.552016	-0.395182	-0.484594	-0.424606
-0.418295	0.530934	-0.432051	-0.479204	-0.45418	-0.486652	-0.402262	-0.43079	-0.52376	-0.455275	-0.467767	-0.435744	0.462386	0.486128	-0.350052	-0.508761	-0.441952	0.565193	0.492919	0.442944	0.505096	0.527266	-0.442694	0.428964	0.156981	0.432032	-0.47433	-0.453894	0.420279	-0.364135	-0.508592	-0.459178
-0.523036	0.524654	-0.444911	-0.441819	-0.282077	-0.406585	-0.507083	-0.429334	-0.513472	-0.445998	-0.518862	-0.489517	0.429851	0.491734	-0.524698	-0.51239	-0.394963	0.483391	0.425256	0.416261	0.476923	0.519046	-0.515527	0.501317	-0.511651	0.480881	-0.543565	-0.460675	0.470402	-0.564243	-0.481762	-0.460441
-0.54513	0.464127	-0.454823	-0.548503	-0.485351	-0.433869	-0.526925	-0.429451	-0.588808	-0.507156	-0.536174	-0.553574	0.45832	0.479114	-0.546439	-0.527444	-0.567145	0.522791	0.504597	0.530648	0.510991	0.528015	-0.439952	0.503317	0.362424	0.477612	-0.485941	-0.488452	0.422756	-0.416007	-0.510276	-0.532004
-0.540143	0.543491	-0.446582	-0.489298	-0.511582	-0.508269	-0.427146	-0.497609	-0.500738	-0.509786	-0.532643	-0.431697	0.539	0.489457	-0.470597	-0.390536	-0.330498	0.538377	0.439548	0.411743	0.532459	0.473803	-0.403745	0.42475	0.396516	0.510933	-0.418972	-0.429534	0.52851	-0.473415	-0.489404	-0.424925
-0.484679	0.534101	-0.488407	-0.480236	-0.426513	-0.525421	-0.522305	-0.455388	-0.46682	-0.479282	-0.572627	-0.514494	0.512572	0.513967	-0.447879	-0.520084	-0.44919	0.527572	0.570746	0.382074	0.472057	0.468541	-0.542322	0.426246	-0.570177	0.49002	-0.496435	-0.476543	0.586942	-0.390228	-0.488392	-0.492294
-0.571309	0.464306	-0.475464	-0.506344	-0.488935	-0.499847	-0.451379	-0.51943	-0.589793	-0.516487	-0.495426	-0.532869	0.49301	0.510968	-0.49603	-0.475012	-0.410968	0.51957	0.448264	0.471483	0.475841	0.473728	-0.475628	0.475415	-0.300495	0.501402	-0.560993	-0.441239	0.451959	-0.433329	-0.490512	-0.503335
-0.464315	0.52824	-0.56187	-0.427111	-0.503286	-0.45177	-0.500728	-0.502599	-0.485312	-0.458035	-0.514322	-0.510777	0.544508	0.510959	-0.486395	-0.550717	-0.45235	0.462811	0.482446	0.444768	0.447725	0.520796	-0.394561	0.282179	-0.189147	0.540349	-0.528311	-0.516587	0.419345	-0.522681	-0.43952	-0.470239
-0.424576	0.458944	-0.50227	-0.464937	-0.446795	-0.475949	-0.443299	-0.460992	-0.453368	-0.530637	-0.418201	-0.504661	0.508404	0.45718	-0.487219	-0.525028	-0.510356	0.422472	0.456771	0.538667	0.523129	0.533741	-0.476646	0.495489	-0.696865	0.512397	-0.474432	-0.513855	0.518131	-0.45587	-0.496732	-0.450346
-0.592838	0.477595	-0.556708	-0.454401	-0.458901	-0.505499	-0.375463	-0.588674	-0.384191	-0.462375	-0.56882	-0.474214	0.415209	0.50817	-0.469889	-0.517519	-0.382264	0.534587	0.438116	0.5471	0.510405	0.48241	-0.508751	0.378107	0.149062	0.416158	-0.598245	-0.365778	0.552512	-0.403528	-0.532601	-0.536036
-0.464411	0.5062	-0.341161	-0.49629	-0.583342	-0.478435	-0.541427	-0.518102	-0.439366	-0.544773	-0.490632	-0.522766	0.494008	0.465585	-0.529034	-0.476072	-0.48801	0.424737	0.551966	0.505561	0.560899	0.539776	-0.473765	0.434442	-0.424114	0.518775	-0.438503	-0.532229	0.493479	-0.51371	-0.569297	-0.422782
-0.451943	0.423554	-0.493418	-0.487485	-0.516701	-0.413145	-0.464725	-0.498987	-0.575416	-0.476131	-0.429734	-0.526122	0.541922	0.533717	-0.399257	-0.530002	-0.460869	0.35369	0.415094	0.477736	0.452415	0.482183	-0.513105	0.57566	-0.0446194	0.461277	-0.492758	-0.479106	0.517422	-0.335486	-0.379517	-0.415002
-0.528179	0.451987	-0.463776	-0.510559	-0.461151	-0.495597	-0.518632	-0.426141	-0.423851	-0.518784	-0.549815	-0.398385	0.411514	0.477777	-0.45423	-0.456517	-0.535903	0.46946	0.534888	0.536209	0.450498	0.423991	-0.482941	0.498642	-0.816923	0.450964	-0.486737	-0.474768	0.425693	-0.549815	-0.461891	-0.540199
-0.454338	0.507582	-0.526874	-0.430148	-0.392634	-0.512516	-0.431145	-0.491164	-0.445387	-0.455236	-0.472441	-0.465604	0.490373	0.477692	-0.526146	-0.546614	-0.490066	0.521876	0.481473	0.518783	0.509554	0.451398	-0.465381	0.440371	-0.393228	0.527777	-0.498235	-0.46271	0.459809	-0.513962	-0.472378	-0.455523
-0.384466	0.429673	-0.466372	-0.445687	-0.52184	-0.481777	-0.432375	-0.504169	-0.37348	-0.500226	-0.482506	-0.502507	0.529446	0.417594	-0.453204	-0.449936	-0.337789	0.46324	0.420055	0.392541	0.407517	0.474387	-0.426881	0.483779	-0.710018	0.423077	-0.495226	-0.473846	0.408129	-0.483799	-0.476046	-0.47062
-0.460453	0.429503	-0.500531	-0.472479	-0.558769	-0.447518	-0.492235	-0.514508	-0.440014	-0.443724	-0.504709	-0.437976	0.537728	0.522337	-0.522832	-0.478336	-0.520263	0.454125	0.409395	0.416942	0.521092	0.472521	-0.471208	0.505976	-0.768294	0.52055	-0.524607	-0.477389	0.430233	-0.517341	-0.466073	-0.465359
-0.483458	0.515201	-0.518196	-0.493652	-0.413878	-0.535578	-0.483224	-0.497356	-0.446029	-0.521906	-0.536041	-0.529359	0.50985	0.447152	-0.458793	-0.523102	-0.471923	0.557773	0.544808	0.493827	0.463199	0.471662	-0.536808	0.55519	-0.394187	0.45638	-0.49214	-0.41033	0.494231	-0.476693	-0.537566	-0.412382
-0.495686	0.541236	-0.558729	-0.447617	-0.422839	-0.508618	-0.443613	-0.490913	-0.547138	-0.496099	-0.512664	-0.477252	0.490179	0.49552	-0.531462	-0.417718	-0.401399	0.437843	0.472603	0.533535	0.503473	0.436112	-0.451854	0.554702	-0.398092	0.4412	-0.493095	-0.526237	0.397207	-0.365162	-0.450058	-0.536787
-0.526436	0.459713	-0.41043	-0.438148	-0.585109	-0.485847	-0.431089	-0.425561	-0.560913	-0.514792	-0.520143	-0.470269	0.439165	0.431839	-0.497067	-0.459509	-0.364205	0.481907	0.39681	0.517956	0.470396	0.489373	-0.502527	0.516997	0.353731	0.55965	-0.46953	-0.390266	0.439888	-0.375096	-0.599066	-0.512084
-0.498901	0.550445	-0.450998	-0.486054	-0.481485	-0.473288	-0.442146	-0.484292	-0.437328	-0.472638	-0.547576	-0.449365	0.494577	0.518497	-0.40788	-0.445865	-0.343301	0.540622	0.492668	0.398842	0.485386	0.493256	-0.536188	0.525722	-0.729556	0.537994	-0.511223	-0.431415	0.566426	-0.501178	-0.417959	-0.415306
-0.480842	0.444438	-0.421265	-0.412487	-0.545071	-0.47727	-0.537094	-0.462145	-0.43092	-0.469356	-0.523932	-0.447914	0.539392	0.545268	-0.515044	-0.495658	-0.560601	0.479805	0.471457	0.486896	0.504242	0.495294	-0.499314	0.406587	-0.698109	0.460777	-0.518302	-0.480295	0.464773	-0.460194	-0.484407	-0.465468
-0.496971	0.439954	-0.43598	-0.44452	-0.623675	-0.533759	-0.364207	-0.461034	-0.517739	-0.484422	-0.565479	-0.501864	0.452225	0.466442	-0.536717	-0.463656	-0.515316	0.519125	0.573318	0.541792	0.498659	0.504112	-0.434686	0.507056	-0.472529	0.512824	-0.475989	-0.362138	0.449036	-0.239023	-0.330918	-0.493094
-0.465991	0.482342	-0.550035	-0.537639	-0.492611	-0.387776	-0.472952	-0.40857	-0.497685	-0.535281	-0.462946	-0.476656	0.548267	0.534166	-0.46298	-0.42923	-0.505182	0.479578	0.448151	0.548595	0.453133	0.489558	-0.52356	0.541829	-0.579896	0.480697	-0.536655	-0.527746	0.541036	-0.552145	-0.47343	-0.550605
-0.450613	0.403888	-0.527109	-0.542983	-0.458733	-0.491974	-0.580689	-0.443682	-0.448903	-0.565271	-0.52336	-0.468322	0.598337	0.485005	-0.412248	-0.477588	-0.435625	0.429234	0.563402	0.477668	0.48855	0.48987	-0.48755	0.388186	-0.655914	0.55075	-0.507232	-0.533776	0.546986	-0.499148	-0.537772	-0.492007
-0.479113	0.443699	-0.45025	-0.485625	-0.447606	-0.475668	-0.522613	-0.517077	-0.493059	-0.442608	-0.49817	-0.529554	0.442385	0.506649	-0.527315	-0.528352	-0.486057	0.49423	0.522688	0.467396	0.442977	0.506991	-0.452509	0.542407	-0.329412	0.47948	-0.389271	-0.572642	0.473371	-0.550545	-0.407488	-0.454718
-0.480178	0.539927	-0.497835	-0.554902	-0.482983	-0.443785	-0.469775	-0.528507	-0.459006	-0.493113	-0.493887	-0.504018	0.469657	0.479832	-0.421958	-0.530106	-0.50935	0.545068	0.500007	0.492157	0.46693	0.491387	-0.519964	0.479769	-0.657729	0.545113	-0.559033	-0.492744	0.522143	-0.474211	-0.480139	-0.391237
-0.429303	0.418282	-0.474485	-0.533095	-0.480717	-0.461536	-0.437232	-0.465864	-0.546315	-0.53594	-0.407002	-0.437918	0.427348	0.548963	-0.4885	-0.426106	-0.302648	0.442076	0.46144	0.400226	0.582518	0.565974	-0.469588	0.562049	-0.543763	0.508678	-0.55268	-0.554067	0.531358	-0.296738	-0.541402	-0.466137
-0.490243	0.476273	-0.472958	-0.414675	-0.483737	-0.480689	-0.499926	-0.534289	-0.545307	-0.479843	-0.50992	-0.466192	0.543088	0.458802	-0.440084	-0.520138	-0.406425	0.463138	0.403202	0.440989	0.499372	0.523541	-0.429125	0.504403	-0.658725	0.511383	-0.470535	-0.473727	0.498134	-0.500344	-0.443759	-0.495824
-0.529072	0.484066	-0.473252	-0.463225	-0.490083	-0.542904	-0.462805	-0.461569	-0.523396	-0.465908	-0.503742	-0.480243	0.412444	0.451194	-0.382133	-0.420766	-0.543089	0.477871	0.509983	0.511826	0.450284	0.497971	-0.490781	0.486092	-0.499052	0.414927	-0.415749	-0.34645	0.363991	-0.382818	-0.428904	-0.472165
-0.395896	0.466839	-0.586045	-0.461651	-0.454945	-0.397709	-0.467657	-0.445359	-0.377481	-0.446748	-0.51255	-0.396907	0.361	0.44728	-0.489962	-0.487272	-0.429159	0.485819	0.536333	0.382925	0.422397	0.547797	-0.438543	0.551452	-0.551968	0.467056	-0.468506	-0.472814	0.471981	-0.451394	-0.521516	-0.427762
-0.519629	0.470061	-0.482065	-0.543675	-0.494304	-0.524596	-0.471789	-0.460188	-0.489048	-0.438774	-0.553361	-0.477743	0.550726	0.458421	-0.479842	-0.561243	-0.421342	0.555736	0.533827	0.43347	0.444562	0.537158	-0.471943	0.457016	-0.438703	0.489318	-0.398723	-0.403165	0.432939	-0.547554	-0.440709	-0.36284
-0.501518	0.478952	-0.549812	-0.554535	-0.397377	-0.503577	-0.430196	-0.454873	-0.512716	-0.465741	-0.48889	-0.498235	0.446414	0.511845	-0.45874	-0.450323	-0.464175	0.495384	0.511524	0.518722	0.496654	0.486673	-0.530325	0.554585	-0.539918	0.443945	-0.460072	-0.553891	0.543881	-0.507288	-0.438694	-0.463669
-0.516854	0.54412	-0.495426	-0.420172	-0.524684	-0.54584	-0.424438	-0.439701	-0.363793	-0.435791	-0.515979	-0.459631	0.54754	0.535834	-0.525896	-0.524308	-0.417845	0.440049	0.420136	0.540358	0.418768	0.494571	-0.471133	0.496936	-0.467363	0.467818	-0.386633	-0.451284	0.440392	-0.614958	-0.449058	-0.443554
-0.5195	0.453092	-0.397897	-0.524712	-0.54969	-0.46127	-0.471897	-0.484865	-0.532746	-0.445066	-0.478119	-0.436525	0.472773	0.480805	-0.46953	-0.500417	-0.447097	0.43098	0.508033	0.56606	0.465402	0.435718	-0.50222	0.512259	-0.347038	0.51351	-0.564288	-0.462858	0.428055	-0.535883	-0.480003	-0.413004
-0.46821	0.505431	-0.453784	-0.501382	-0.39264	-0.510581	-0.437974	-0.532945	-0.473617	-0.491688	-0.419397	-0.371861	0.485803	0.514718	-0.40139	-0.499191	-0.457487	0.412403	0.420072	0.45086	0.491414	0.442946	-0.446795	0.463894	0.0776145	0.508978	-0.476979	-0.514104	0.379176	-0.442428	-0.4751	-0.533029
-0.479847	0.494879	-0.533204	-0.568416	-0.586115	-0.544121	-0.465826	-0.448181	-0.457887	-0.469105	-0.440144	-0.4934	0.447557	0.503526	-0.421891	-0.438798	-0.475561	0.415187	0.510266	0.489044	0.497304	0.462939	-0.451098	0.505527	-0.52062	0.48614	-0.492621	-0.483569	0.501229	-0.410127	-0.497351	-0.45878
-0.375181	0.432529	-0.474128	-0.4869	-0.548685	-0.482336	-0.454252	-0.425682	-0.472973	-0.477542	-0.449548	-0.432035	0.490959	0.4506	-0.415778	-0.415411	-0.494193	0.450362	0.446793	0.328728	0.455888	0.503521	-0.509336	0.439888	-0.764803	0.375473	-0.462551	-0.448443	0.394064	-0.477645	-0.552252	-0.399932
-0.545893	0.484207	-0.519129	-0.546504	-0.450566	-0.445318	-0.573533	-0.46657	-0.4682	-0.524241	-0.398974	-0.595033	0.485172	0.493981	-0.499145	-0.447265	-0.539373	0.481822	0.486849	0.592327	0.441923	0.530116	-0.53689	0.45091	0.0339486	0.390739	-0.393672	-0.445772	0.461067	-0.298499	-0.515575	-0.393779
-0.534047	0.467385	-0.476965	-0.438001	-0.410837	-0.466578	-0.543738	-0.445784	-0.31355	-0.556185	-0.475095	-0.443742	0.513114	0.48555	-0.490191	-0.507054	-0.468334	0.506179	0.513066	0.449197	0.511787	0.479004	-0.462679	0.511528	-0.666743	0.456847	-0.478005	-0.506475	0.469214	-0.534505	-0.535815	-0.420061
-0.445262	0.446862	-0.536297	-0.413167	-0.456319	-0.438618	-0.556084	-0.441291	-0.516244	-0.522279	-0.477872	-0.519883	0.528695	0.458884	-0.421988	-0.418078	-0.446853	0.469125	0.525999	0.560932	0.457073	0.47473	-0.51662	0.542472	-0.825714	0.438219	-0.439353	-0.368685	0.497278	-0.443359	-0.457104	-0.481249
-0.528273	0.471025	-0.475583	-0.429931	-0.40562	-0.472346	-0.463081	-0.475992	-0.531801	-0.406916	-0.496624	-0.525587	0.536126	0.523035	-0.425757	-0.496486	-0.539016	0.482139	0.42868	0.485841	0.490926	0.543165	-0.469968	0.450545	-0.528141	0.444573	-0.532132	-0.466704	0.516612	-0.47784	-0.418917	-0.378489
-0.491286	0.539921	-0.525686	-0.548524	-0.4463	-0.537285	-0.506897	-0.403431	-0.49251	-0.514485	-0.464912	-0.501552	0.428248	0.551022	-0.455856	-0.52026	-0.466102	0.51784	0.50673	0.471367	0.462725	0.519616	-0.41519	0.54021	-0.740758	0.473418	-0.466661	-0.453489	0.493336	-0.511726	-0.485289	-0.460414
-0.443547	0.474885	-0.442597	-0.500406	-0.537885	-0.486689	-0.514013	-0.560034	-0.511014	-0.548787	-0.490092	-0.474506	0.455858	0.457792	-0.540776	-0.530184	-0.547257	0.549357	0.430022	0.516451	0.455674	0.475137	-0.398215	0.456621	-0.804836	0.463083	-0.487181	-0.55287	0.463122	-0.495232	-0.457523	-0.546395
-0.491823	0.495283	-0.406542	-0.538605	-0.58305	-0.485951	-0.477477	-0.396112	-0.329233	-0.56255	-0.450674	-0.39255	0.455331	0.525717	-0.529052	-0.402103	-0.509158	0.490532	0.566989	0.388949	0.451619	0.517936	-0.46165	0.421898	-0.624061	0.472752	-0.513497	-0.38721	0.440101	-0.410353	-0.460188	-0.470465
-0.45277	0.490995	-0.445464	-0.408687	-0.395727	-0.444261	-0.491146	-0.470491	-0.468453	-0.513893	-0.416951	-0.467231	0.514296	0.417956	-0.481953	-0.486846	-0.433189	0.382914	0.49393	0.453358	0.385373	0.529546	-0.474288	0.37019	0.305626	0.517982	-0.564555	-0.449853	0.404352	-0.517888	-0.497478	-0.30352
-0.516858	0.507398	-0.49993	-0.463638	-0.438686	-0.529798	-0.473843	-0.475456	-0.370598	-0.488949	-0.472697	-0.379648	0.527829	0.397939	-0.430529	-0.477072	-0.498206	0.395104	0.484971	0.494853	0.470443	0.456331	-0.556706	0.431371	-0.567609	0.437013	-0.512102	-0.493122	0.57178	-0.560313	-0.51502	-0.413295
