-0.0405449	-0.0416022	0.0116794	-0.0110158	0.0383104	0.0482714	0.00817927	0.0233299	0.0157841	-0.0454309	0.0327332	-0.0200492	0.0131712	-0.0328024	0.00363271	0.0294424	-0.0106114	-0.0288316	0.0343973	0.0158228	0.0396007	-0.00767306	-0.0297003	-0.0478449	-0.0273977	0.0210243	0.0407644	0.00947414	0.00573523	-0.0452902	0.026686	0.0124103
0.434265	0.405119	-0.494494	-0.305856	0.42823	0.463641	0.390575	-0.427312	-0.404719	-0.400215	-0.435914	0.4562	-0.358088	-0.374447	0.457628	0.462305	0.394448	0.42414	0.475286	-0.479579	0.363505	0.483593	0.41911	-0.388151	0.417285	-0.335733	0.417844	0.482361	0.432158	0.379581	0.459002	0.454204
0.42202	0.486222	-0.457091	-0.496366	0.407333	0.355914	0.427629	-0.377457	-0.463332	-0.43299	-0.385489	0.38971	-0.171593	-0.482667	0.537512	0.458668	0.124211	0.472099	0.37559	-0.494138	0.424728	0.445359	0.376542	-0.482588	0.381003	-0.234429	0.432198	0.431894	0.380527	0.41151	0.45731	0.369313
0.424992	0.387014	-0.402682	-0.176513	0.463871	0.377728	0.457246	-0.485299	-0.470053	-0.350832	-0.475751	0.405028	-0.546753	-0.484971	0.303676	0.328499	0.703982	0.438222	0.455062	-0.417365	0.384329	0.446552	0.362849	-0.340138	0.359929	-0.578986	0.508684	0.464802	0.363086	0.382451	0.408613	0.483764
0.459825	0.417541	-0.374068	-0.337655	0.396872	0.396993	0.428188	-0.416246	-0.405303	-0.406892	-0.373656	0.456769	-0.307967	-0.402621	0.223526	0.447384	0.526356	0.429235	0.410168	-0.468745	0.409363	0.454792	0.475683	-0.408729	0.456755	-0.495804	0.483421	0.296883	0.373356	0.401451	0.480163	0.450314
0.422147	0.326074	-0.371516	-0.284573	0.337871	0.406729	0.322372	-0.353751	-0.338832	-0.37764	-0.28562	0.343715	-0.345315	-0.402316	0.327743	0.39934	0.318134	0.363022	0.384522	-0.326072	0.409219	0.377731	0.405921	-0.297245	0.378393	-0.427918	0.359571	0.318778	0.405813	0.357131	0.403739	0.401765
0.399563	0.362319	-0.419914	-0.365276	0.348791	0.423589	0.330899	-0.475992	-0.414273	-0.351173	-0.387999	0.391869	-0.36172	-0.360432	0.142091	0.465245	0.518568	0.487159	0.42727	-0.425479	0.383784	0.415551	0.462957	-0.454893	0.40789	-0.36441	0.327102	0.393151	0.416338	0.437274	0.397579	0.401174
0.484087	0.461249	-0.433434	-0.173759	0.44207	0.323613	0.427517	-0.459538	-0.453655	-0.490369	-0.394522	0.381297	-0.297224	-0.489727	0.220899	0.486278	0.508494	0.449715	0.470335	-0.424994	0.442197	0.434125	0.394098	-0.411405	0.479257	-0.295453	0.457704	0.320189	0.407923	0.471825	0.403431	0.455922
0.402923	0.466452	-0.404629	-0.465768	0.431678	0.424778	0.374593	-0.399977	-0.412167	-0.425666	-0.355479	0.352039	-0.588801	-0.452868	0.235944	0.413948	0.327352	0.467564	0.402184	-0.456009	0.468252	0.398475	0.345938	-0.458182	0.449537	-0.382479	0.407616	0.443452	0.396157	0.486578	0.406107	0.435071
0.434288	0.404634	-0.359079	-0.602963	0.469229	0.471045	0.486195	-0.452003	-0.468735	-0.468173	-0.397674	0.368962	-0.39206	-0.403797	0.615816	0.34944	-0.322865	0.239754	0.382504	-0.250448	0.359373	0.377231	0.408352	-0.44077	0.269045	-0.586961	0.495543	0.451331	0.37503	0.360908	0.270488	0.330358
0.442516	0.451696	-0.363189	-0.4578	0.441543	0.420511	0.446627	-0.35064	-0.423202	-0.423426	-0.419529	0.380465	-0.425009	-0.40217	0.472355	0.336849	-0.1488	0.282707	0.458306	-0.386926	0.398212	0.41787	0.368818	-0.482765	0.360281	-0.435854	0.410124	0.407926	0.433527	0.335346	0.397288	0.408554
0.355948	0.437465	-0.336951	-0.447865	0.449233	0.384175	0.413119	-0.313784	-0.349114	-0.389925	-0.356884	0.395539	-0.376593	-0.347119	0.492245	0.395739	-0.354634	0.367578	0.367572	-0.200139	0.315203	0.397185	0.404365	-0.418027	0.408664	-0.419531	0.373865	0.404297	0.376311	0.382763	0.37057	0.3557
0.376707	0.478255	-0.496992	-0.521968	0.374898	0.423569	0.390009	-0.384689	-0.443874	-0.425436	-0.408801	0.443099	-0.27011	-0.481617	0.234743	0.462219	0.498834	0.422588	0.362298	-0.368515	0.356312	0.390939	0.434141	-0.365628	0.459153	-0.239698	0.358637	0.388336	0.410692	0.393255	0.4006	0.381172
0.478944	0.3585	-0.457279	-0.384407	0.377575	0.408293	0.359509	-0.46631	-0.375887	-0.430128	-0.409531	0.431191	-0.48593	-0.454921	0.120669	0.381069	0.546877	0.437609	0.337475	-0.344102	0.477282	0.321982	0.361137	-0.463856	0.372663	-0.424645	0.40259	0.475838	0.485317	0.507029	0.420009	0.439088
0.489719	0.386429	-0.450175	-0.400687	0.329357	0.500591	0.480264	-0.514964	-0.347322	-0.376758	-0.466423	0.413642	-0.506752	-0.441406	0.417164	0.399693	0.108793	0.402524	0.427981	-0.462173	0.407531	0.418992	0.367862	-0.436391	0.445887	-0.441723	0.485346	0.410096	0.403815	0.36213	0.480569	0.467366
0.38146	0.372307	-0.416074	-0.25682	0.448775	0.370018	0.40358	-0.409328	-0.342599	-0.409837	-0.374312	0.43869	-0.57995	-0.396459	0.242479	0.422794	0.618989	0.455905	0.412114	-0.478714	0.465943	0.384445	0.436665	-0.469164	0.335577	-0.540642	0.43537	0.449871	0.456864	0.371235	0.481482	0.394321
0.464367	0.370433	-0.39039	-0.271395	0.40157	0.452115	0.474365	-0.433722	-0.442338	-0.459682	-0.472796	0.408551	-0.56025	-0.385149	0.460905	0.458387	0.654628	0.39086	0.418418	-0.495632	0.413114	0.462661	0.296458	-0.488277	0.390263	-0.400166	0.470961	0.394602	0.38076	0.299775	0.416629	0.395281
0.489626	0.452967	-0.401711	-0.382399	0.424992	0.361089	0.416443	-0.427509	-0.476175	-0.383998	-0.436243	0.435114	-0.486288	-0.505727	0.418226	0.383651	0.551973	0.366511	0.397484	-0.348041	0.409696	0.395594	0.344765	-0.424282	0.48989	-0.187554	0.412987	0.463531	0.474788	0.341969	0.383538	0.471922
0.412389	0.443685	-0.360865	-0.422086	0.382226	0.3918	0.415559	-0.372785	-0.365097	-0.365882	-0.404232	0.430581	-0.2978	-0.430255	0.406825	0.385087	0.385676	0.376185	0.434085	-0.385954	0.387185	0.435692	0.368132	-0.468675	0.354865	-0.452206	0.323492	0.456124	0.396357	0.453084	0.332691	0.439388
0.46398	0.464107	-0.422342	-0.50407	0.467921	0.369775	0.469572	-0.419083	-0.431843	-0.463838	-0.437878	0.371229	-0.238902	-0.390221	0.164729	0.406037	0.444935	0.340857	0.358515	-0.440205	0.328119	0.357576	0.367565	-0.341477	0.444159	-0.28606	0.389879	0.315087	0.42062	0.497008	0.393202	0.36675
0.506565	0.51482	-0.402019	-0.250294	0.422861	0.418052	0.495444	-0.417168	-0.480934	-0.398991	-0.431028	0.361424	-0.54566	-0.441869	0.508408	0.408598	0.548844	0.418969	0.454382	-0.404339	0.479831	0.460807	0.382963	-0.382815	0.405721	-0.236506	0.394433	0.441114	0.461628	0.392347	0.405887	0.43736
0.448742	0.398439	-0.449211	-0.393516	0.379243	0.442947	0.40587	-0.423779	-0.361463	-0.411376	-0.432095	0.401971	-0.396663	-0.327851	0.351125	0.380768	0.442812	0.375899	0.395511	-0.470523	0.355269	0.427747	0.41195	-0.368168	0.323802	-0.333084	0.369778	0.412125	0.382925	0.381858	0.39007	0.340492
0.466727	0.42955	-0.488307	-0.0218479	0.424244	0.488297	0.412779	-0.501034	-0.375076	-0.374024	-0.379531	0.410338	-0.482979	-0.424107	0.0777899	0.485683	0.566749	0.47102	0.389054	-0.515961	0.416774	0.419633	0.462409	-0.429688	0.480096	-0.49208	0.314524	0.468052	0.422012	0.482197	0.494727	0.38692
0.32634	0.37885	-0.466973	-0.240664	0.463622	0.262145	0.30144	-0.342517	-0.449501	-0.344475	-0.350966	0.389471	0.0763004	-0.337286	0.621454	0.455449	-0.323235	0.338652	0.424081	-0.226985	0.427133	0.316696	0.430896	-0.422981	0.417243	-0.135787	0.328655	0.478916	0.380219	0.35375	0.371151	0.450796
0.49025	0.399079	-0.500835	-0.37836	0.447994	0.47626	0.497786	-0.445853	-0.510243	-0.424459	-0.41976	0.516617	-0.529026	-0.456737	0.467861	0.426702	0.456493	0.509984	0.415401	-0.416858	0.447974	0.430976	0.497454	-0.502828	0.45284	-0.316127	0.531161	0.445506	0.376527	0.392888	0.430815	0.461397
0.33857	0.396352	-0.448352	-0.547959	0.371049	0.415357	0.448109	-0.422799	-0.432511	-0.446969	-0.388166	0.431247	-0.517375	-0.468553	0.498386	0.354704	0.602984	0.436047	0.366929	-0.464402	0.483515	0.359564	0.385231	-0.42053	0.4196	-0.43155	0.39849	0.336105	0.355383	0.402116	0.347106	0.41307
0.446465	0.479565	-0.383658	-0.29356	0.44076	0.405632	0.453773	-0.476341	-0.481642	-0.421488	-0.504544	0.400255	-0.505818	-0.419725	0.496868	0.394425	0.614158	0.399441	0.497153	-0.409518	0.461814	0.396687	0.472592	-0.432679	0.491239	-0.51017	0.411309	0.39999	0.422772	0.399663	0.390023	0.471122
0.358294	0.318065	-0.333221	-0.403925	0.372691	0.326709	0.301682	-0.228044	-0.423454	-0.411678	-0.258807	0.331278	-0.383236	-0.285684	0.511883	0.385684	-0.285616	0.325193	0.381828	-0.291573	0.399964	0.345666	0.454739	-0.340655	0.238931	-0.479864	0.282995	0.338942	0.437286	0.332223	0.353494	0.400642
0.386603	0.484149	-0.462222	-0.489591	0.442297	0.459116	0.462782	-0.45084	-0.465243	-0.400004	-0.442969	0.473247	-0.413234	-0.426087	0.539582	0.396095	0.372558	0.483087	0.374891	-0.45872	0.394531	0.407514	0.491535	-0.469018	0.475453	-0.207379	0.406128	0.489405	0.471041	0.41221	0.430515	0.444736
0.404584	0.499579	-0.401446	-0.223198	0.481844	0.443113	0.401619	-0.457715	-0.390095	-0.374285	-0.374803	0.329869	-0.291766	-0.466796	0.434333	0.390181	0.479504	0.447551	0.398504	-0.398713	0.363402	0.469471	0.482608	-0.392036	0.41695	-0.283806	0.44068	0.396251	0.378731	0.432137	0.460984	0.410115
0.453986	0.454987	-0.473228	-0.468668	0.412353	0.340516	0.45646	-0.37472	-0.459347	-0.455846	-0.420059	0.483512	-0.45587	-0.46394	0.276119	0.463153	0.607204	0.473234	0.483705	-0.362147	0.438313	0.421618	0.306821	-0.423858	0.447651	-0.298926	0.466234	0.394724	0.471419	0.471358	0.388528	0.396627
0.421536	0.396943	-0.412975	-0.23089	0.45132	0.32767	0.460467	-0.446581	-0.432973	-0.480425	-0.477563	0.319804	-0.514192	-0.406839	0.262269	0.472981	0.540914	0.381367	0.437653	-0.422135	0.425654	0.452749	0.501073	-0.441625	0.451508	-0.438826	0.391246	0.412692	0.379435	0.456055	0.473821	0.369773
0.414293	0.447193	-0.478621	-0.450401	0.441336	0.436148	0.487594	-0.487563	-0.405212	-0.504225	-0.468555	0.432995	-0.486154	-0.509893	0.342662	0.396941	0.613247	0.447366	0.483896	-0.418857	0.430091	0.462827	0.308889	-0.500752	0.37273	-0.359539	0.439353	0.355211	0.425978	0.449781	0.451689	0.471331
0.44811	0.349183	-0.472279	-0.463374	0.375067	0.431176	0.370012	-0.471235	-0.443191	-0.361974	-0.419433	0.317632	-0.468012	-0.384368	0.29768	0.441976	0.642875	0.474514	0.41468	-0.456691	0.505524	0.329025	0.255729	-0.38	0.314605	-0.499753	0.393202	0.463277	0.455062	0.362347	0.469876	0.468295
0.403674	0.443067	-0.386538	-0.214597	0.457456	0.489468	0.426312	-0.413696	-0.457338	-0.445636	-0.394341	0.31102	-0.40837	-0.415354	0.278722	0.468458	0.4797	0.373275	0.45298	-0.467751	0.363557	0.418189	0.423681	-0.425345	0.430788	-0.330996	0.449873	0.352749	0.456423	0.386735	0.364346	0.442054
0.384588	0.459701	-0.449246	-0.433713	0.426865	0.509899	0.450986	-0.451617	-0.470233	-0.437704	-0.503814	0.410245	-0.57529	-0.424745	0.274249	0.426878	0.531942	0.360318	0.455932	-0.408491	0.366925	0.39256	0.40488	-0.45829	0.527055	-0.449817	0.419091	0.326276	0.442589	0.37343	0.444072	0.360644
0.326131	0.404945	-0.416996	-0.261395	0.449522	0.343581	0.437007	-0.37657	-0.42741	-0.346683	-0.350908	0.306238	-0.380878	-0.419883	0.487246	0.425017	0.384973	0.399891	0.395194	-0.394018	0.317843	0.367965	0.396779	-0.308483	0.36024	-0.532631	0.309462	0.382557	0.391074	0.328446	0.389183	0.395035
0.233594	0.40123	-0.384275	-0.431952	0.24362	0.343134	0.428727	-0.4016	-0.403775	-0.397869	-0.239996	0.303342	0.315414	-0.302403	0.838904	0.40718	-0.582068	0.225698	0.32122	-0.11136	0.286924	0.42152	0.470895	-0.38964	0.369439	0.293213	0.381921	0.405617	0.258394	0.488261	0.445727	0.458522
0.420404	0.409934	-0.388527	-0.424594	0.445525	0.381392	0.417268	-0.403986	-0.445605	-0.507019	-0.474918	0.354033	-0.464941	-0.452775	0.0463906	0.500233	0.398721	0.405165	0.430678	-0.369939	0.47155	0.484909	0.254546	-0.402761	0.495457	-0.454031	0.410535	0.393282	0.398609	0.530029	0.369652	0.357966
0.402506	0.365155	-0.44448	-0.346622	0.353154	0.461427	0.373877	-0.475833	-0.413433	-0.402996	-0.428188	0.417959	-0.345477	-0.42944	0.330933	0.425883	0.198404	0.451945	0.40964	-0.411411	0.396393	0.414194	0.391887	-0.371608	0.391858	-0.277987	0.308244	0.440896	0.375265	0.422867	0.461623	0.400714
0.489555	0.419453	-0.450789	-0.41965	0.418902	0.453817	0.39632	-0.485402	-0.401821	-0.45385	-0.494262	0.382639	-0.437849	-0.463125	0.401102	0.489153	0.453651	0.436188	0.427808	-0.457545	0.446593	0.472122	0.473669	-0.483885	0.403985	-0.38814	0.443733	0.476344	0.404405	0.380399	0.451074	0.404594
0.353739	0.363767	-0.468229	-0.566881	0.432266	0.452147	0.421175	-0.43615	-0.452929	-0.459094	-0.415138	0.410375	-0.37341	-0.366418	0.322229	0.363876	0.225385	0.41069	0.401065	-0.445799	0.352948	0.41231	0.359169	-0.436833	0.402019	-0.38263	0.378185	0.452581	0.481419	0.398956	0.407501	0.34106
0.449668	0.406691	-0.463742	-0.534719	0.494274	0.424394	0.420802	-0.498063	-0.458859	-0.49328	-0.409722	0.407551	-0.37408	-0.458557	0.394524	0.491807	0.474005	0.426039	0.466901	-0.452986	0.50807	0.421469	0.441062	-0.422838	0.47451	-0.394549	0.342149	0.495999	0.486533	0.394907	0.383793	0.478201
0.437074	0.374475	-0.42126	-0.533051	0.462085	0.44847	0.429067	-0.412869	-0.399851	-0.485703	-0.435633	0.440758	-0.587124	-0.428564	0.245897	0.404666	0.375002	0.474146	0.369245	-0.419466	0.422409	0.445855	0.361286	-0.425702	0.468825	-0.38972	0.436931	0.421164	0.367759	0.3813	0.424375	0.423434
0.414171	0.447196	-0.47009	-0.684387	0.496924	0.474688	0.408131	-0.446516	-0.416802	-0.345882	-0.419863	0.472596	-0.266375	-0.365634	0.494551	0.39251	0.179387	0.412696	0.369153	-0.341724	0.442957	0.463401	0.375283	-0.333127	0.328143	-0.367043	0.475084	0.451686	0.446973	0.506456	0.416144	0.361801
0.373969	0.490187	-0.385044	-0.454757	0.446529	0.470511	0.446598	-0.357501	-0.383948	-0.39805	-0.426083	0.451715	-0.350688	-0.406141	0.5491	0.432608	-0.0132481	0.420472	0.317062	-0.325065	0.325756	0.39166	0.295114	-0.453903	0.409719	-0.116769	0.306336	0.433672	0.419593	0.496346	0.445045	0.369215
0.460478	0.42165	-0.393031	-0.543727	0.43396	0.480529	0.362366	-0.469941	-0.441984	-0.444355	-0.490222	0.442902	-0.566682	-0.422923	0.475982	0.3592	0.667646	0.368608	0.464682	-0.466186	0.416674	0.471101	0.411577	-0.379916	0.469526	-0.445163	0.315569	0.393779	0.333224	0.450979	0.399548	0.357783
0.388671	0.415176	-0.432405	-0.510831	0.364205	0.45684	0.37345	-0.397372	-0.447983	-0.392469	-0.403034	0.422455	-0.327676	-0.481417	0.298116	0.364952	0.625916	0.456055	0.473451	-0.385658	0.394782	0.4546	0.373094	-0.424338	0.379296	-0.302972	0.466303	0.447597	0.428014	0.472717	0.398745	0.416843
0.354415	0.446578	-0.381894	-0.361093	0.371616	0.489876	0.438188	-0.468555	-0.453517	-0.399629	-0.385627	0.392412	-0.527731	-0.46188	0.293721	0.384966	0.513787	0.441895	0.399607	-0.466525	0.375899	0.477911	0.363666	-0.365466	0.441787	-0.327594	0.387051	0.418053	0.39391	0.433528	0.348859	0.387197
0.401225	0.471163	-0.387814	-0.495459	0.4003	0.447875	0.423645	-0.464478	-0.460645	-0.452727	-0.449075	0.405936	-0.479207	-0.432795	0.473357	0.461638	0.442162	0.424488	0.365737	-0.448555	0.446737	0.376521	0.359861	-0.403937	0.394982	-0.375365	0.422249	0.451174	0.460328	0.459625	0.447209	0.469892
0.376463	0.395629	-0.404012	-0.608362	0.454445	0.454923	0.491601	-0.420578	-0.427955	-0.465566	-0.42696	0.399634	-0.459254	-0.498299	0.381831	0.423193	0.512653	0.397316	0.371883	-0.48324	0.389285	0.494083	0.461865	-0.458849	0.51485	-0.410764	0.491237	0.386959	0.447798	0.471323	0.46157	0.450202
0.420427	0.477827	-0.444136	-0.470474	0.43252	0.360339	0.398612	-0.473879	-0.417423	-0.423405	-0.400924	0.365355	-0.622317	-0.418382	0.0288974	0.466769	0.286819	0.412341	0.427885	-0.325265	0.406165	0.385568	0.457772	-0.435584	0.418739	-0.63209	0.497964	0.474019	0.464515	0.430336	0.469247	0.361874
0.377605	0.457962	-0.480856	-0.0310245	0.42558	0.418573	0.416482	-0.487384	-0.436135	-0.478167	-0.461193	0.546714	-0.0881842	-0.365217	0.693574	0.483494	0.272128	0.466732	0.328562	-0.346163	0.436699	0.459956	0.365405	-0.370123	0.446237	-0.118497	0.291517	0.493175	0.412217	0.505621	0.508116	0.508727
0.42491	0.396344	-0.44994	-0.371842	0.468737	0.465532	0.464537	-0.365389	-0.455256	-0.362393	-0.452371	0.504232	-0.324517	-0.378219	0.428548	0.490617	0.529257	0.498358	0.432791	-0.378458	0.482212	0.397599	0.411215	-0.411671	0.457627	-0.412116	0.389473	0.416487	0.434401	0.448311	0.461379	0.393101
0.373018	0.382164	-0.390079	-0.409461	0.365201	0.370507	0.313978	-0.247116	-0.308698	-0.406359	-0.331506	0.297777	-0.194305	-0.24416	0.470102	0.337799	-0.608552	0.279219	0.275	-0.258474	0.35355	0.348957	0.395165	-0.421026	0.292626	-0.157399	0.311928	0.406243	0.261731	0.261368	0.324863	0.334329
0.415175	0.443623	-0.460389	-0.472841	0.430467	0.435536	0.468214	-0.464985	-0.41877	-0.37667	-0.489106	0.474231	-0.211691	-0.401219	0.424848	0.391556	0.546266	0.467874	0.422265	-0.504453	0.434871	0.441211	0.37465	-0.377657	0.456427	-0.218981	0.368322	0.503081	0.454634	0.405968	0.472848	0.493367
0.438785	0.410686	-0.422544	-0.483101	0.374076	0.437168	0.457937	-0.416881	-0.466238	-0.416137	-0.430103	0.414695	-0.472649	-0.452358	0.259539	0.374221	0.535746	0.353557	0.369145	-0.412014	0.41174	0.401698	0.418297	-0.444934	0.442027	-0.356665	0.380238	0.423843	0.363193	0.413842	0.41993	0.453447
0.42801	0.390142	-0.425218	-0.443059	0.48245	0.478885	0.462644	-0.505138	-0.391835	-0.411207	-0.476966	0.400057	-0.235547	-0.418854	0.533874	0.421374	0.522775	0.505325	0.455161	-0.397222	0.456163	0.441236	0.452247	-0.497514	0.399894	-0.449689	0.496846	0.459366	0.459475	0.39332	0.453419	0.460884
0.407885	0.366422	-0.355969	-0.273204	0.390786	0.377594	0.41225	-0.402795	-0.39172	-0.332769	-0.454785	0.327718	-0.432242	-0.409086	0.287664	0.404313	0.407449	0.383737	0.388751	-0.466464	0.431331	0.353999	0.356999	-0.341266	0.311121	-0.345039	0.403409	0.425544	0.338111	0.410553	0.419349	0.427222
0.371722	0.435928	-0.497587	-0.33068	0.38094	0.413718	0.433096	-0.452286	-0.488088	-0.397756	-0.433602	0.365088	-0.533395	-0.481172	0.28386	0.438089	0.398914	0.426985	0.384428	-0.426125	0.354723	0.405992	0.361696	-0.468769	0.509419	-0.504582	0.498654	0.389903	0.450284	0.489608	0.418284	0.400976
0.464644	0.396495	-0.409469	-0.277967	0.452501	0.473071	0.461529	-0.454784	-0.43096	-0.38651	-0.493145	0.361381	-0.605336	-0.457514	0.499757	0.370892	0.606099	0.425527	0.42333	-0.390269	0.421719	0.472314	0.368999	-0.405769	0.491708	-0.503048	0.467042	0.433546	0.405527	0.445606	0.449739	0.463596
0.424295	0.439197	-0.402154	-0.133676	0.33293	0.373622	0.43497	-0.367455	-0.350781	-0.378761	-0.404123	0.328974	-0.550971	-0.40364	0.43591	0.423011	0.58271	0.351008	0.384096	-0.43764	0.434033	0.423105	0.379772	-0.330953	0.29892	-0.529273	0.414023	0.400869	0.406578	0.440604	0.316837	0.410709
0.497886	0.511315	-0.464124	-0.222982	0.412884	0.429536	0.433524	-0.491666	-0.494143	-0.481176	-0.425728	0.416433	-0.406635	-0.45708	0.249111	0.45122	0.613253	0.500391	0.422227	-0.503396	0.468166	0.453888	0.409113	-0.439364	0.47776	-0.551827	0.475507	0.420857	0.524846	0.429844	0.521984	0.397736
0.398241	0.406765	-0.311186	-0.330135	0.439125	0.321918	0.423806	-0.415	-0.327367	-0.338343	-0.453921	0.329449	-0.538655	-0.370586	0.536929	0.363327	0.384837	0.366296	0.441241	-0.32972	0.457122	0.364806	0.405611	-0.388228	0.411855	-0.345894	0.394583	0.355233	0.411202	0.346189	0.391446	0.420971
0.410702	0.497319	-0.409563	-0.191741	0.384614	0.419774	0.446613	-0.426821	-0.467307	-0.36559	-0.507589	0.41255	-0.355649	-0.474535	0.314387	0.443537	0.494691	0.452924	0.357966	-0.40952	0.37487	0.432004	0.434813	-0.463082	0.478223	-0.347693	0.377916	0.471449	0.502153	0.414073	0.459095	0.404086
0.452047	0.401322	-0.420059	-0.538966	0.456833	0.506705	0.422218	-0.490352	-0.437463	-0.366657	-0.36596	0.512277	-0.352808	-0.413648	0.470201	0.441636	0.481351	0.450896	0.475839	-0.403857	0.475409	0.393921	0.491465	-0.430597	0.476428	-0.506017	0.334901	0.453866	0.480639	0.459933	0.493097	0.424495
0.366532	0.477598	-0.404292	-0.304357	0.447696	0.335025	0.406147	-0.409428	-0.413985	-0.441927	-0.392779	0.404201	-0.437516	-0.437106	0.430509	0.378738	0.46997	0.39931	0.496389	-0.432915	0.490885	0.46288	0.426569	-0.363836	0.46206	-0.383532	0.415219	0.422836	0.405949	0.384148	0.463262	0.463924
0.38138	0.457866	-0.450607	-0.29506	0.488892	0.449917	0.43849	-0.476442	-0.470342	-0.410334	-0.474555	0.469942	-0.222125	-0.465216	0.317081	0.466858	0.387624	0.51768	0.391711	-0.513523	0.400132	0.515386	0.440701	-0.480963	0.490162	-0.422842	0.419115	0.473392	0.41018	0.426271	0.421876	0.423768
0.391072	0.391651	-0.429184	-0.526608	0.439703	0.41863	0.431689	-0.345375	-0.409057	-0.444447	-0.372045	0.51045	-0.187239	-0.303041	0.366521	0.423282	0.156284	0.423112	0.389057	-0.209913	0.343527	0.478746	0.466794	-0.506542	0.463051	-0.422956	0.250813	0.47812	0.426502	0.410305	0.481957	0.414802
0.386037	0.436902	-0.338471	-0.278343	0.344628	0.421747	0.466739	-0.372254	-0.399819	-0.327666	-0.385512	0.308574	-0.471671	-0.476369	0.374206	0.4692	0.4135	0.387846	0.44188	-0.389861	0.385485	0.360966	0.397377	-0.351005	0.482229	-0.469979	0.415353	0.353532	0.437821	0.450083	0.338992	0.416228
0.452137	0.360964	-0.446068	-0.385146	0.39449	0.367825	0.465406	-0.384135	-0.380766	-0.433348	-0.46723	0.356296	-0.53525	-0.37912	0.268448	0.428584	0.532872	0.390261	0.371873	-0.423357	0.449849	0.388867	0.388085	-0.401242	0.463906	-0.314653	0.40414	0.486384	0.356212	0.420228	0.378591	0.442373
0.390035	0.442564	-0.350088	-0.138549	0.320692	0.37798	0.383838	-0.471265	-0.346056	-0.378955	-0.48819	0.322066	-0.521925	-0.355962	0.485768	0.452551	0.463335	0.432278	0.357511	-0.33254	0.348313	0.477786	0.360977	-0.428264	0.341736	-0.239806	0.282235	0.344069	0.370134	0.443999	0.329793	0.479917
0.483446	0.44625	-0.395088	-0.503605	0.405496	0.465917	0.475038	-0.449515	-0.370476	-0.363265	-0.498194	0.517171	-0.181101	-0.37715	0.524164	0.46365	0.373335	0.532986	0.474689	-0.462674	0.429726	0.395146	0.403744	-0.409615	0.488773	-0.237307	0.355854	0.43461	0.501829	0.398343	0.438714	0.411434
0.486061	0.462701	-0.439802	-0.407139	0.422463	0.460396	0.492219	-0.411245	-0.411595	-0.40067	-0.509893	0.513101	-0.23037	-0.416603	0.584299	0.421932	0.399969	0.495954	0.471447	-0.416148	0.443412	0.474343	0.417891	-0.41959	0.496556	-0.188004	0.391179	0.452789	0.496305	0.403487	0.419278	0.43388
0.411586	0.434488	-0.37441	-0.405424	0.448811	0.399335	0.464854	-0.387511	-0.407834	-0.375048	-0.414018	0.44292	-0.480692	-0.477105	0.594503	0.339423	0.458255	0.353586	0.447262	-0.382767	0.416887	0.327422	0.439481	-0.348803	0.399704	-0.552935	0.371875	0.389177	0.435249	0.477341	0.342916	0.432469
0.394685	0.482001	-0.466556	-0.58836	0.408014	0.465571	0.48378	-0.461938	-0.47706	-0.438865	-0.384263	0.456316	-0.24978	-0.492628	0.43924	0.463986	0.387593	0.423161	0.47116	-0.380972	0.395562	0.451707	0.427821	-0.470768	0.452748	-0.329222	0.429429	0.455812	0.403151	0.458449	0.404516	0.437383
0.453032	0.465227	-0.464226	-0.433575	0.412403	0.418148	0.477557	-0.470668	-0.373316	-0.378983	-0.430794	0.373571	-0.425394	-0.454498	0.327367	0.491813	0.423292	0.417531	0.451418	-0.349672	0.492903	0.423658	0.516729	-0.492288	0.477554	-0.442157	0.468379	0.466938	0.361842	0.432224	0.507919	0.389218
0.429177	0.448208	-0.38324	-0.451805	0.364234	0.375896	0.411999	-0.377789	-0.407678	-0.445889	-0.462113	0.411885	-0.470768	-0.420759	0.470453	0.44323	0.50119	0.488761	0.435094	-0.449214	0.425909	0.463142	0.466352	-0.409136	0.451847	-0.18235	0.392544	0.414582	0.359046	0.35415	0.456938	0.360515
0.38369	0.439717	-0.455308	-0.547737	0.394563	0.399285	0.484695	-0.44231	-0.386226	-0.384898	-0.45601	0.399713	-0.381095	-0.471109	0.550251	0.385672	0.27734	0.381896	0.496295	-0.430164	0.485756	0.373552	0.383233	-0.413922	0.382371	-0.561619	0.410214	0.459115	0.470831	0.424902	0.398703	0.446132
0.47546	0.424492	-0.434687	-0.345099	0.493398	0.349479	0.368752	-0.430248	-0.474858	-0.447799	-0.381708	0.397492	-0.210145	-0.485852	0.424236	0.406418	0.279648	0.428251	0.46804	-0.418478	0.351972	0.465684	0.467496	-0.46031	0.439681	-0.13684	0.393155	0.469338	0.470976	0.449777	0.482902	0.477545
0.298881	0.392566	-0.373678	-0.389567	0.325029	0.262996	0.329613	-0.386499	-0.400588	-0.270493	-0.353214	0.34192	0.256236	-0.279062	0.663561	0.420229	-0.581406	0.239558	0.278224	-0.212328	0.357095	0.290567	0.392837	-0.420691	0.334889	-0.00824367	0.381593	0.38116	0.243944	0.375324	0.295054	0.350543
0.404164	0.452435	-0.409967	-0.259797	0.468109	0.458245	0.525728	-0.430539	-0.492296	-0.404042	-0.498276	0.349865	-0.466498	-0.430852	0.132375	0.482245	0.619389	0.435169	0.447387	-0.422251	0.488218	0.469423	0.371735	-0.480193	0.515688	-0.640211	0.3476	0.509465	0.416489	0.452678	0.469506	0.436896
0.365586	0.365392	-0.359484	-0.420292	0.416213	0.387272	0.42393	-0.332528	-0.403986	-0.410262	-0.367733	0.336782	-0.317043	-0.401299	0.49865	0.379785	-0.00521634	0.358455	0.407094	-0.422381	0.313479	0.355655	0.37666	-0.313494	0.336678	-0.288897	0.410964	0.415297	0.359966	0.412212	0.437344	0.362747
0.472092	0.435305	-0.435178	-0.356674	0.498805	0.381856	0.454983	-0.399608	-0.470467	-0.395667	-0.432956	0.459081	-0.326853	-0.388666	0.410279	0.454845	0.573092	0.465537	0.412965	-0.391149	0.39004	0.49317	0.509354	-0.3891	0.414645	-0.487953	0.344489	0.437908	0.40821	0.463094	0.419916	0.441548
0.466429	0.458461	-0.381522	-0.376018	0.356349	0.391152	0.385535	-0.499484	-0.447913	-0.466004	-0.399441	0.451161	-0.421421	-0.451781	0.518287	0.444056	0.488714	0.405888	0.468854	-0.476043	0.49793	0.345793	0.399242	-0.396388	0.417281	-0.506217	0.467074	0.382747	0.438974	0.457584	0.478501	0.43717
0.387255	0.387824	-0.481827	-0.47042	0.452967	0.383974	0.373564	-0.44306	-0.412234	-0.500996	-0.402781	0.412828	-0.146051	-0.38746	0.322497	0.360711	0.396128	0.430254	0.480684	-0.420934	0.382865	0.379504	0.487058	-0.439907	0.426299	-0.198978	0.364081	0.405273	0.497501	0.314211	0.438688	0.385916
0.476012	0.492318	-0.444179	-0.491213	0.474475	0.352511	0.396159	-0.443314	-0.415232	-0.432841	-0.453334	0.384917	-0.193693	-0.437138	0.478497	0.478829	0.170225	0.431422	0.39322	-0.371651	0.403798	0.413213	0.355153	-0.400111	0.448003	-0.302101	0.334807	0.451212	0.396168	0.455421	0.411981	0.446046
0.463713	0.491436	-0.458434	-0.306321	0.38238	0.387318	0.38704	-0.439862	-0.411282	-0.423811	-0.412212	0.337911	-0.40689	-0.388824	0.243424	0.39928	0.550058	0.50864	0.443339	-0.469902	0.461168	0.373508	0.457965	-0.422341	0.402131	-0.526711	0.413691	0.428022	0.387068	0.430366	0.444428	0.495291
0.450387	0.438103	-0.446302	-0.313544	0.45394	0.268408	0.393596	-0.397383	-0.395824	-0.401311	-0.390403	0.370432	-0.433598	-0.396074	0.382234	0.426545	0.480716	0.453754	0.397471	-0.364626	0.39311	0.412129	0.444124	-0.283923	0.471565	-0.48055	0.422088	0.46171	0.345254	0.384335	0.397155	0.358533
0.354693	0.429527	-0.451718	-0.444525	0.422349	0.363469	0.374272	-0.364017	-0.464983	-0.364758	-0.295199	0.449855	-0.350602	-0.336532	0.261099	0.415379	0.145635	0.454692	0.441758	-0.390299	0.493522	0.403562	0.313469	-0.383911	0.451212	-0.462576	0.472587	0.388633	0.472107	0.394628	0.503721	0.374929
0.44193	0.421125	-0.419239	-0.438114	0.427599	0.485585	0.407343	-0.432441	-0.41354	-0.493118	-0.420274	0.514082	-0.163577	-0.408445	0.534672	0.504112	0.172842	0.399607	0.435434	-0.384432	0.376996	0.436442	0.539017	-0.498534	0.413879	-0.288165	0.390131	0.51726	0.458487	0.411953	0.447527	0.4084
0.416133	0.48657	-0.409982	-0.271361	0.454151	0.384722	0.467621	-0.392506	-0.466871	-0.36662	-0.412954	0.473091	-0.437555	-0.470084	0.367153	0.469236	0.57064	0.416578	0.413877	-0.434492	0.379975	0.492083	0.45277	-0.371099	0.401071	-0.412501	0.382178	0.428872	0.396947	0.374884	0.44288	0.443599
0.423372	0.472698	-0.37947	-0.251375	0.476828	0.456309	0.427304	-0.414846	-0.41568	-0.399582	-0.392334	0.350275	-0.223875	-0.445149	0.332505	0.376096	0.345099	0.476019	0.399748	-0.418227	0.446779	0.420599	0.362342	-0.391987	0.447492	-0.278314	0.40081	0.374492	0.367273	0.450736	0.355022	0.471532
0.33335	0.346473	-0.369251	-0.0858898	0.433206	0.441104	0.473625	-0.485171	-0.402963	-0.414195	-0.39326	0.31842	-0.383181	-0.397975	0.195204	0.340495	0.622007	0.481791	0.412262	-0.455755	0.425604	0.425565	0.400016	-0.370973	0.316607	-0.429251	0.405086	0.45403	0.365054	0.46203	0.344879	0.466358
0.426693	0.332826	-0.374389	-0.376564	0.455022	0.391523	0.398995	-0.382245	-0.466745	-0.468194	-0.42757	0.424528	-0.233954	-0.361637	0.443357	0.425817	-0.0129855	0.346884	0.346453	-0.409715	0.407663	0.358737	0.473958	-0.490373	0.349439	-0.330095	0.318266	0.486436	0.435281	0.359325	0.439258	0.411157
0.420075	0.453354	-0.492157	-0.57588	0.521656	0.414588	0.516559	-0.480508	-0.412608	-0.474898	-0.47023	0.467883	-0.307539	-0.412742	0.383913	0.49625	0.483772	0.461154	0.505209	-0.477499	0.474453	0.489961	0.451764	-0.452964	0.437383	-0.338221	0.473149	0.441971	0.435417	0.401601	0.443892	0.447042
0.43106	0.456791	-0.453409	-0.464499	0.462175	0.460625	0.460888	-0.458522	-0.455446	-0.488743	-0.467368	0.43922	-0.3938	-0.402021	0.411105	0.41911	0.319733	0.478651	0.396676	-0.376156	0.452688	0.46521	0.458866	-0.476982	0.421115	-0.266298	0.494979	0.504808	0.42948	0.494341	0.430632	0.385324
0.468861	0.441465	-0.479729	-0.240451	0.399315	0.417547	0.482054	-0.445271	-0.417536	-0.477414	-0.404502	0.442806	-0.260826	-0.459424	0.36044	0.525039	0.504938	0.472716	0.50912	-0.462467	0.404346	0.441743	0.393423	-0.431329	0.44281	-0.234937	0.450372	0.411321	0.415881	0.420551	0.472789	0.462376
0.442262	0.403423	-0.441369	-0.209429	0.412291	0.399649	0.434787	-0.404881	-0.474823	-0.420772	-0.450119	0.470867	-0.447561	-0.408495	0.226855	0.496535	0.513661	0.455107	0.432446	-0.441958	0.478297	0.485677	0.508059	-0.48197	0.427349	-0.463274	0.459814	0.423284	0.412203	0.406112	0.488782	0.436703
0.437059	0.461765	-0.463579	-0.373735	0.443969	0.4863	0.516903	-0.516413	-0.425983	-0.406813	-0.504208	0.496666	-0.202275	-0.434988	0.592323	0.427532	0.266068	0.477612	0.448079	-0.456598	0.43788	0.417104	0.409859	-0.494686	0.494554	-0.302363	0.440213	0.394888	0.504443	0.491522	0.431062	0.484064
0.407522	0.476301	-0.424599	-0.46039	0.509989	0.386275	0.4608	-0.464199	-0.396723	-0.407549	-0.492711	0.462733	-0.342511	-0.511468	0.528432	0.508424	0.449699	0.519844	0.445846	-0.411944	0.41212	0.466729	0.440833	-0.474782	0.469308	-0.303825	0.490235	0.503118	0.422028	0.50007	0.491305	0.478257
0.398546	0.43977	-0.465432	-0.391144	0.491234	0.369977	0.489767	-0.443764	-0.469346	-0.465501	-0.427616	0.380963	-0.447958	-0.432391	0.506984	0.422989	0.367561	0.413909	0.322499	-0.427016	0.43689	0.422073	0.428401	-0.352484	0.489162	-0.419472	0.496885	0.367979	0.439826	0.406616	0.475101	0.448561
0.411524	0.410833	-0.44546	-0.510429	0.496774	0.342236	0.418992	-0.363456	-0.447281	-0.424963	-0.51411	0.368136	-0.494402	-0.423573	0.531514	0.514865	0.588628	0.386954	0.344894	-0.46532	0.482971	0.444065	0.406269	-0.504436	0.416743	-0.370917	0.424278	0.453546	0.37966	0.436033	0.472845	0.377707
0.513158	0.465137	-0.467481	-0.444468	0.360278	0.367547	0.469111	-0.435825	-0.416588	-0.436352	-0.485588	0.428833	-0.32134	-0.445091	0.498571	0.423617	0.474362	0.494129	0.369074	-0.4229	0.463376	0.478651	0.450119	-0.455036	0.413956	-0.330578	0.478385	0.533018	0.384603	0.453742	0.414673	0.471106
0.436622	0.45216	-0.474367	-0.331787	0.448155	0.324257	0.355929	-0.436568	-0.454264	-0.385823	-0.434729	0.466871	-0.34338	-0.45296	0.474026	0.388689	0.618558	0.401643	0.356274	-0.457741	0.496055	0.417714	0.386926	-0.37158	0.485674	-0.39075	0.441367	0.370463	0.400906	0.472167	0.421094	0.375852
0.366968	0.440602	-0.413575	-0.608995	0.439536	0.456597	0.328622	-0.435023	-0.361807	-0.506047	-0.464269	0.379213	-0.430211	-0.388574	0.515095	0.377485	0.262745	0.369656	0.427376	-0.386776	0.325795	0.391599	0.304046	-0.444889	0.3859	-0.162745	0.435918	0.333926	0.431704	0.463647	0.41623	0.331951
0.297963	0.287091	-0.396696	-0.465217	0.393033	0.493534	0.317364	-0.40227	-0.366568	-0.381617	-0.309446	0.281223	-0.437053	-0.303034	0.036914	0.301791	0.498652	0.43329	0.33112	-0.440499	0.273626	0.359467	0.382778	-0.411848	0.353867	-0.272269	0.350348	0.256117	0.287281	0.353198	0.391421	0.317154
0.403351	0.500041	-0.362198	-0.623357	0.436084	0.403179	0.350952	-0.423954	-0.445219	-0.48768	-0.448066	0.36793	-0.469692	-0.477832	0.545676	0.51008	0.295314	0.360572	0.515917	-0.51457	0.476156	0.443669	0.343022	-0.523937	0.478643	-0.341741	0.386627	0.20686	0.36512	0.388704	0.476864	0.473403
0.464959	0.460738	-0.437744	-0.487631	0.446992	0.365596	0.433705	-0.474511	-0.426753	-0.445088	-0.493353	0.425526	-0.224904	-0.423124	0.480333	0.450917	0.491329	0.430809	0.484025	-0.375067	0.395097	0.466368	0.395872	-0.454269	0.507466	-0.343952	0.417003	0.48955	0.4506	0.505674	0.482067	0.484967
0.437125	0.358935	-0.353363	-0.267773	0.361024	0.344509	0.460653	-0.404879	-0.471712	-0.446799	-0.461252	0.390928	-0.54461	-0.392314	0.405667	0.385472	0.613219	0.407964	0.368027	-0.44119	0.475413	0.404745	0.383461	-0.361453	0.420914	-0.480393	0.467962	0.436768	0.385706	0.414508	0.325447	0.442522
0.454229	0.476737	-0.530614	-0.468162	0.483258	0.428867	0.421407	-0.498047	-0.455929	-0.461348	-0.383157	0.473817	-0.407884	-0.493078	0.310201	0.496368	0.290477	0.47383	0.540375	-0.316889	0.424079	0.42406	0.426305	-0.446688	0.505485	-0.135216	0.346673	0.473008	0.513047	0.457573	0.522586	0.397928
0.430819	0.437555	-0.447584	-0.490226	0.478671	0.408742	0.474816	-0.484084	-0.369094	-0.419951	-0.369069	0.479696	-0.36304	-0.393617	0.432663	0.397996	0.250093	0.432548	0.40192	-0.467595	0.369216	0.359455	0.461951	-0.384397	0.383469	-0.515307	0.481882	0.44211	0.379629	0.477933	0.470833	0.470206
0.449344	0.469308	-0.451126	-0.203839	0.487229	0.348814	0.488747	-0.463737	-0.477802	-0.393597	-0.453225	0.386496	-0.313749	-0.414443	0.344476	0.464583	0.641738	0.432293	0.482506	-0.437854	0.464322	0.41746	0.469645	-0.412726	0.475855	-0.493037	0.399534	0.436647	0.48525	0.444079	0.405549	0.429374
0.486516	0.402268	-0.456208	-0.618194	0.443555	0.481097	0.407319	-0.41778	-0.411283	-0.491425	-0.409125	0.5038	-0.182678	-0.437857	0.468587	0.502621	0.326935	0.517924	0.366255	-0.311288	0.481278	0.440107	0.355186	-0.412494	0.421079	-0.415022	0.335529	0.397856	0.381852	0.471626	0.38148	0.437508
0.380697	0.382485	-0.384244	-0.311943	0.439416	0.41552	0.444923	-0.377269	-0.444912	-0.429088	-0.445626	0.442095	-0.47132	-0.411877	0.356927	0.432282	0.364232	0.368298	0.458154	-0.335727	0.411058	0.348749	0.396407	-0.450734	0.360594	-0.436199	0.417813	0.378414	0.367428	0.429059	0.440951	0.437329
0.412116	0.489808	-0.494685	-0.324036	0.466684	0.357772	0.430893	-0.495442	-0.446371	-0.441904	-0.442489	0.461594	-0.315505	-0.484963	0.413665	0.402169	0.310939	0.515799	0.458777	-0.474893	0.363898	0.406691	0.454264	-0.473444	0.414579	-0.392792	0.403087	0.400129	0.482438	0.43235	0.472649	0.461283
0.411409	0.497716	-0.487962	-0.495674	0.492142	0.379502	0.418233	-0.508076	-0.433111	-0.421525	-0.430006	0.42081	-0.0799807	-0.430494	0.614905	0.455059	0.266382	0.418164	0.516442	-0.435269	0.333979	0.463686	0.454828	-0.484546	0.517213	-0.184435	0.439843	0.523345	0.399108	0.455799	0.438298	0.427166
0.420621	0.45334	-0.458557	-0.199326	0.403875	0.436119	0.45361	-0.482545	-0.503839	-0.435087	-0.461442	0.50964	-0.346402	-0.489998	0.207467	0.454323	0.62257	0.421737	0.42218	-0.467723	0.465884	0.47764	0.415584	-0.397506	0.407539	-0.301164	0.394282	0.393927	0.476248	0.524802	0.418545	0.423896
0.418267	0.384094	-0.463015	-0.479014	0.390563	0.390097	0.409319	-0.44088	-0.418233	-0.517624	-0.45605	0.498199	-0.160924	-0.41835	0.52621	0.452738	0.314256	0.426764	0.431761	-0.329695	0.41624	0.460928	0.506187	-0.433141	0.414716	-0.309143	0.372636	0.479661	0.419661	0.385283	0.393961	0.492385
0.370473	0.407611	-0.416509	-0.337866	0.4594	0.419994	0.440894	-0.395751	-0.459482	-0.429654	-0.362751	0.338979	-0.259338	-0.417663	0.45313	0.424212	0.260988	0.423252	0.460453	-0.341093	0.44443	0.377064	0.40106	-0.406736	0.427794	-0.309672	0.44867	0.404854	0.429563	0.456195	0.449142	0.484108
0.407864	0.311631	-0.318398	-0.402012	0.357125	0.418126	0.433446	-0.443602	-0.304876	-0.406187	-0.308773	0.411639	-0.370823	-0.316775	0.330314	0.436188	0.519975	0.447296	0.353602	-0.319266	0.451329	0.347314	0.454006	-0.420808	0.30384	-0.540269	0.457234	0.335857	0.371184	0.213547	0.363966	0.427097
0.386553	0.402724	-0.473122	-0.386029	0.450899	0.322146	0.450857	-0.468694	-0.444522	-0.41322	-0.400001	0.419483	-0.363254	-0.448757	0.362274	0.380024	0.4312	0.442194	0.447256	-0.393318	0.450309	0.398789	0.481532	-0.374286	0.422134	-0.462043	0.374892	0.432833	0.363647	0.347015	0.47457	0.423584
0.466374	0.39432	-0.359128	-0.362264	0.444588	0.301129	0.304873	-0.441726	-0.506202	-0.42373	-0.432708	0.448079	-0.0891138	-0.478544	0.5319	0.39625	0.0622304	0.428934	0.278547	-0.513029	0.322849	0.366901	0.552653	-0.49025	0.531126	-0.200599	0.358872	0.44226	0.427159	0.400355	0.444436	0.488192
0.485222	0.385398	-0.492338	-0.337738	0.488063	0.443885	0.485496	-0.43724	-0.441932	-0.387002	-0.498189	0.475553	-0.484301	-0.530255	0.169667	0.386221	0.31741	0.39471	0.411842	-0.502581	0.436026	0.423249	0.317566	-0.476002	0.444779	-0.431829	0.484199	0.4077	0.395481	0.350943	0.403828	0.40498
0.507223	0.4386	-0.428782	-0.399165	0.429683	0.441611	0.419038	-0.474496	-0.43448	-0.412019	-0.499405	0.364637	-0.498276	-0.442912	0.491729	0.503393	0.46269	0.438309	0.451171	-0.442279	0.416033	0.492277	0.50015	-0.380812	0.396688	-0.239857	0.48012	0.461812	0.428834	0.456555	0.455747	0.489064
0.299697	0.295625	-0.385673	-0.148006	0.28969	0.301651	0.33157	-0.389082	-0.287324	-0.381938	-0.372463	0.206091	-0.273466	-0.351067	-0.0315762	0.28126	0.383005	0.259122	0.297493	-0.355793	0.265938	0.28237	0.368904	-0.378133	0.371799	-0.332003	0.343852	0.291267	0.372926	0.446033	0.405528	0.364633
0.460266	0.398041	-0.440373	-0.3276	0.431028	0.386035	0.401741	-0.481209	-0.395776	-0.44321	-0.473785	0.437729	-0.523593	-0.501292	0.444672	0.475994	0.529171	0.4805	0.370727	-0.400941	0.46687	0.470879	0.457762	-0.38678	0.496843	-0.281918	0.416086	0.430701	0.502164	0.496293	0.466001	0.442139
0.424479	0.450416	-0.419353	-0.245262	0.473722	0.381428	0.408266	-0.43847	-0.42533	-0.393266	-0.400235	0.460354	-0.424754	-0.454883	0.481477	0.437978	0.431943	0.43116	0.383167	-0.414588	0.425916	0.398991	0.411886	-0.460538	0.463918	-0.25211	0.432313	0.429793	0.483694	0.456755	0.46412	0.465607
0.457386	0.499038	-0.444968	-0.477711	0.381028	0.385212	0.492865	-0.463892	-0.386206	-0.521658	-0.429185	0.347204	-0.339707	-0.417822	0.142958	0.412676	0.662116	0.398347	0.462357	-0.367433	0.457912	0.401495	0.425622	-0.429538	0.419645	-0.239587	0.451187	0.487289	0.419245	0.440652	0.39755	0.393747
0.250726	0.308497	-0.345325	-0.53934	0.25751	0.385073	0.313373	-0.217625	-0.206587	-0.360689	-0.337125	0.26802	-0.336789	-0.264236	0.0096709	0.250732	0.0539401	0.202329	0.245216	-0.190167	0.297086	0.199295	0.337119	-0.319458	0.262851	-0.299009	0.287241	0.167856	0.272139	0.267662	0.243687	0.269418
0.413299	0.439835	-0.451253	-0.419688	0.474558	0.387435	0.517078	-0.456479	-0.447804	-0.358041	-0.501827	0.460229	-0.335652	-0.42878	0.187514	0.459108	0.480593	0.453379	0.384055	-0.448796	0.486391	0.414041	0.460695	-0.484413	0.409294	-0.57037	0.472609	0.40051	0.455474	0.454887	0.480662	0.423702
0.411707	0.385641	-0.409829	-0.388452	0.460785	0.47789	0.46457	-0.460216	-0.414535	-0.462119	-0.470966	0.393836	-0.253554	-0.441778	0.432377	0.412772	0.466397	0.473603	0.433666	-0.486827	0.506676	0.438788	0.406158	-0.414073	0.406262	-0.513889	0.488401	0.409298	0.40803	0.403157	0.409873	0.414532
0.463064	0.467353	-0.450948	-0.418878	0.365957	0.436539	0.393429	-0.410944	-0.341211	-0.4035	-0.40758	0.385306	-0.37505	-0.478553	0.554337	0.382367	0.559002	0.383128	0.395539	-0.321485	0.38422	0.364135	0.41059	-0.400115	0.448299	-0.183514	0.34512	0.401777	0.438901	0.366222	0.394813	0.389385
0.456521	0.475489	-0.39609	-0.13652	0.389275	0.427128	0.394293	-0.388344	-0.465527	-0.395178	-0.346382	0.3377	-0.137367	-0.5166	0.523586	0.43808	0.501798	0.471462	0.468888	-0.487773	0.445959	0.440633	0.459922	-0.428538	0.500665	-0.430484	0.458438	0.557771	0.390882	0.413365	0.474684	0.405182
0.33611	0.461561	-0.334229	-0.468036	0.404914	0.4089	0.347718	-0.374738	-0.407343	-0.459894	-0.369433	0.315022	-0.328724	-0.329281	0.247923	0.449431	0.194667	0.447491	0.388221	-0.392824	0.306237	0.319413	0.428082	-0.410415	0.476965	-0.22211	0.35041	0.311005	0.368362	0.435269	0.456716	0.329995
0.476087	0.478292	-0.419955	-0.255809	0.50223	0.374599	0.388028	-0.381854	-0.387779	-0.451881	-0.413867	0.383492	-0.355189	-0.417307	0.309192	0.480004	0.530376	0.415756	0.440709	-0.45408	0.378161	0.451214	0.457272	-0.462577	0.393248	-0.414586	0.441729	0.376117	0.459603	0.451301	0.3831	0.453795
0.477284	0.474375	-0.375236	-0.366389	0.459997	0.445918	0.482414	-0.487921	-0.373427	-0.470167	-0.503004	0.404022	-0.527267	-0.465751	0.495892	0.474397	0.519168	0.411997	0.435795	-0.477811	0.484538	0.37688	0.387704	-0.366927	0.451113	-0.397779	0.390106	0.44363	0.441692	0.47052	0.463786	0.481179
0.366183	0.399989	-0.429987	-0.423242	0.473137	0.523867	0.434343	-0.502164	-0.430483	-0.43517	-0.432249	0.421308	-0.401369	-0.435289	0.402997	0.465205	0.419214	0.525468	0.403567	-0.463554	0.476842	0.536587	0.491083	-0.431885	0.524019	-0.27429	0.473118	0.427895	0.408862	0.510401	0.387789	0.443535
0.417947	0.382499	-0.413659	-0.288452	0.392766	0.38835	0.367364	-0.420648	-0.441221	-0.46039	-0.36007	0.490514	-0.384602	-0.363377	0.47619	0.457088	0.142375	0.4782	0.456573	-0.339803	0.424482	0.410315	0.366301	-0.493061	0.427474	-0.378789	0.472054	0.395311	0.385921	0.39147	0.478808	0.47013
0.402515	0.486914	-0.49304	-0.502315	0.487229	0.340754	0.386084	-0.442936	-0.451485	-0.41604	-0.461605	0.501427	-0.180649	-0.415539	0.523333	0.481146	0.377458	0.380628	0.474912	-0.468265	0.482412	0.421102	0.424819	-0.365604	0.474645	-0.395046	0.428181	0.401018	0.401731	0.313155	0.421738	0.404796
0.478037	0.495106	-0.394082	-0.626128	0.425561	0.433516	0.410343	-0.465796	-0.386416	-0.426846	-0.39428	0.471967	-0.207846	-0.497464	0.473594	0.481897	0.408616	0.493255	0.44875	-0.458168	0.365321	0.43785	0.45493	-0.409236	0.392568	-0.286559	0.438314	0.455433	0.506621	0.435572	0.391666	0.469246
0.365968	0.473664	-0.456345	-0.462254	0.436007	0.288808	0.465361	-0.352914	-0.482123	-0.3553	-0.326133	0.412997	-0.154713	-0.471643	0.502992	0.353869	0.290153	0.373556	0.415596	-0.337714	0.308341	0.465511	0.341419	-0.370206	0.503843	-0.151731	0.338176	0.375449	0.487905	0.478879	0.401832	0.412627
0.396799	0.455869	-0.392277	-0.441872	0.332238	0.43974	0.442749	-0.439678	-0.473128	-0.38838	-0.441722	0.451656	-0.469007	-0.382284	0.372678	0.413478	0.540051	0.420064	0.396981	-0.43579	0.401949	0.449459	0.319566	-0.314098	0.470332	-0.391586	0.411807	0.438322	0.390418	0.446774	0.384541	0.430774
0.354344	0.366827	-0.47707	-0.231055	0.384752	0.30887	0.400707	-0.380886	-0.383617	-0.441842	-0.458126	0.403386	-0.355139	-0.410267	0.422216	0.383784	0.437031	0.404041	0.415294	-0.317443	0.493554	0.409557	0.332746	-0.347259	0.439092	-0.422222	0.392016	0.442227	0.390218	0.433409	0.466997	0.437113
0.377088	0.41574	-0.396625	-0.241484	0.386242	0.425774	0.359405	-0.445228	-0.38509	-0.342045	-0.377179	0.376071	-0.480117	-0.387962	0.242173	0.420439	0.555234	0.458578	0.47151	-0.495913	0.323762	0.410686	0.452877	-0.412803	0.333609	-0.250267	0.372084	0.323529	0.363516	0.328657	0.32955	0.381944
0.509767	0.443844	-0.452717	-0.481892	0.420982	0.438211	0.451057	-0.461398	-0.476276	-0.516234	-0.435681	0.396547	-0.334063	-0.442654	0.539467	0.425156	0.485007	0.448927	0.410019	-0.502243	0.407711	0.449872	0.455958	-0.441569	0.511242	-0.202605	0.420336	0.480399	0.517743	0.454249	0.450889	0.405292
0.434919	0.404026	-0.450837	-0.286256	0.42846	0.40735	0.400615	-0.446316	-0.478023	-0.408131	-0.430613	0.459396	-0.410181	-0.455546	0.480917	0.450966	0.411421	0.453023	0.485891	-0.42409	0.43278	0.350508	0.350569	-0.398113	0.362402	-0.335133	0.480778	0.419903	0.462577	0.433902	0.461973	0.3801
0.426487	0.42493	-0.481844	-0.263634	0.484415	0.363565	0.505653	-0.41884	-0.465601	-0.442017	-0.503473	0.332855	-0.512115	-0.44449	0.421961	0.413462	0.578532	0.393715	0.402898	-0.412759	0.404044	0.422061	0.425648	-0.458469	0.390884	-0.34536	0.481326	0.44666	0.430169	0.495655	0.481995	0.386481
0.484744	0.380578	-0.406906	-0.454655	0.407517	0.392245	0.444436	-0.403373	-0.435316	-0.492056	-0.40378	0.453334	-0.294141	-0.451216	0.517497	0.476505	0.369972	0.487742	0.417162	-0.332411	0.386845	0.404385	0.431869	-0.389002	0.470746	-0.462596	0.3783	0.466277	0.46873	0.357726	0.431066	0.439895
0.393606	0.470499	-0.476246	-0.408221	0.475619	0.39868	0.431587	-0.430942	-0.479069	-0.348311	-0.399724	0.423271	-0.334548	-0.380492	0.460284	0.416912	0.418325	0.440297	0.448063	-0.355493	0.415947	0.419269	0.341076	-0.409445	0.488895	-0.164761	0.363875	0.358799	0.439396	0.366128	0.358752	0.462531
0.481991	0.472209	-0.457372	-0.449654	0.424457	0.456317	0.477265	-0.511566	-0.497752	-0.508838	-0.396311	0.398635	-0.303059	-0.491466	0.525767	0.414368	0.359574	0.452182	0.522513	-0.537633	0.418649	0.442013	0.380128	-0.473386	0.419056	-0.296898	0.390235	0.468013	0.407996	0.436446	0.514942	0.460462
0.478596	0.457815	-0.410853	-0.130239	0.400409	0.428306	0.518395	-0.488503	-0.500176	-0.496321	-0.488598	0.528338	-0.397566	-0.421087	0.405809	0.409228	0.706128	0.418308	0.379338	-0.511615	0.476631	0.498751	0.284076	-0.492903	0.420685	-0.505412	0.502365	0.480194	0.383341	0.525862	0.420486	0.518056
0.397997	0.383993	-0.481396	-0.234472	0.41051	0.418675	0.416102	-0.47454	-0.475604	-0.388791	-0.400792	0.449754	-0.389145	-0.518745	0.262174	0.451432	0.578956	0.368023	0.514056	-0.426983	0.3824	0.486211	0.481405	-0.443196	0.506517	-0.398299	0.478293	0.414863	0.450245	0.495288	0.457674	0.503881
0.47148	0.424554	-0.471357	-0.544431	0.508694	0.363391	0.496562	-0.417764	-0.401809	-0.360009	-0.387726	0.376015	-0.481594	-0.403705	0.478804	0.404595	0.425493	0.480192	0.474714	-0.370525	0.380169	0.428966	0.401943	-0.444575	0.372393	-0.494287	0.450914	0.422039	0.477943	0.486203	0.355696	0.380786
0.448637	0.422125	-0.474812	-0.13837	0.368488	0.364195	0.454429	-0.454367	-0.366474	-0.417433	-0.423054	0.385183	-0.570799	-0.49119	0.228736	0.448063	0.530505	0.439102	0.480459	-0.370451	0.460984	0.435234	0.428453	-0.409378	0.452171	-0.493308	0.401529	0.403548	0.345627	0.480285	0.46677	0.357598
0.49744	0.459949	-0.398059	-0.321103	0.472972	0.408095	0.434944	-0.403043	-0.483709	-0.418129	-0.484473	0.419331	-0.455023	-0.444296	0.423845	0.44223	0.434996	0.485711	0.433987	-0.435235	0.411723	0.403257	0.343715	-0.467072	0.409023	-0.275587	0.408187	0.371843	0.417044	0.466441	0.358081	0.368725
0.449757	0.40118	-0.397483	-0.455362	0.342085	0.397631	0.36687	-0.486447	-0.500834	-0.486244	-0.453308	0.512801	-0.580347	-0.447785	0.0459674	0.37477	0.41783	0.491711	0.5063	-0.456325	0.437142	0.462614	0.367925	-0.457425	0.455929	-0.377078	0.442945	0.449264	0.464459	0.399897	0.45599	0.491497
0.353852	0.505378	-0.540809	-0.532834	0.437514	0.414074	0.437183	-0.386005	-0.513119	-0.437762	-0.440494	0.479158	0.0591677	-0.426291	0.655055	0.472081	-0.358622	0.392811	0.452019	-0.371202	0.481685	0.405544	0.435781	-0.401062	0.463751	0.0396129	0.254767	0.541226	0.315262	0.505501	0.488196	0.453289
0.374523	0.423221	-0.440262	-0.331098	0.388441	0.453257	0.48711	-0.411566	-0.494769	-0.454942	-0.4676	0.41265	-0.447744	-0.479619	0.221045	0.436873	0.492705	0.469583	0.441894	-0.431334	0.402104	0.440799	0.455347	-0.412824	0.439996	-0.474356	0.434339	0.428752	0.486244	0.507637	0.396863	0.416393
0.464101	0.500646	-0.486116	-0.449784	0.41728	0.468074	0.377981	-0.38682	-0.428366	-0.489433	-0.404937	0.458277	-0.149585	-0.42628	0.542767	0.460827	-0.143185	0.437049	0.436449	-0.331399	0.372944	0.474261	0.480551	-0.433795	0.498841	-0.282672	0.358412	0.532119	0.38144	0.396639	0.503985	0.476718
0.458304	0.379381	-0.446144	-0.529032	0.405525	0.371332	0.368634	-0.343642	-0.425431	-0.430738	-0.451992	0.458257	-0.202506	-0.380302	0.433301	0.367573	0.300048	0.396534	0.372616	-0.365657	0.448812	0.46778	0.367517	-0.41812	0.43539	-0.100011	0.393401	0.497193	0.37043	0.381471	0.350144	0.350179
0.401251	0.499912	-0.415499	-0.265308	0.387752	0.356945	0.431723	-0.441699	-0.428659	-0.430673	-0.473063	0.40431	-0.143178	-0.409707	0.477989	0.421121	0.363769	0.504611	0.473661	-0.404138	0.436171	0.362848	0.377639	-0.397828	0.409577	-0.272414	0.444978	0.34399	0.359558	0.383079	0.434449	0.45707
0.416124	0.487739	-0.469029	-0.40675	0.421098	0.437404	0.407283	-0.408382	-0.34879	-0.419137	-0.341927	0.399959	-0.290791	-0.336957	0.213707	0.489897	0.563497	0.403926	0.357642	-0.420644	0.416057	0.500737	0.435214	-0.45983	0.435412	-0.36423	0.450109	0.3103	0.473065	0.346854	0.491704	0.462862
0.394387	0.460406	-0.447847	-0.497394	0.459465	0.394836	0.441557	-0.424001	-0.430055	-0.355525	-0.500066	0.431504	-0.168102	-0.500811	0.541398	0.428094	0.462382	0.447764	0.448777	-0.439597	0.437476	0.485667	0.468245	-0.428658	0.42565	-0.325755	0.459823	0.450879	0.440105	0.429947	0.381861	0.433322
0.359628	0.398401	-0.40363	-0.477991	0.370692	0.422987	0.453656	-0.368894	-0.402666	-0.475136	-0.455556	0.576143	-0.168581	-0.438066	0.584815	0.48199	0.110369	0.361564	0.39531	-0.35563	0.477412	0.424548	0.444602	-0.464645	0.473726	-0.146847	0.479636	0.423041	0.409273	0.321546	0.396225	0.47913
0.481187	0.380137	-0.422939	-0.377778	0.331859	0.483504	0.424114	-0.465735	-0.375217	-0.470552	-0.449806	0.392591	-0.278761	-0.435713	0.305289	0.395941	0.365609	0.482272	0.484963	-0.506063	0.442196	0.357801	0.462733	-0.421368	0.386986	-0.415648	0.421663	0.35618	0.363822	0.465533	0.508524	0.503571
0.459979	0.458814	-0.414458	-0.286446	0.438806	0.438005	0.451785	-0.478108	-0.375658	-0.475598	-0.448487	0.41659	-0.445311	-0.401177	0.315528	0.406984	0.582204	0.519104	0.431073	-0.431802	0.381271	0.406877	0.396173	-0.461076	0.409036	-0.421642	0.444244	0.463209	0.480429	0.453474	0.451286	0.403415
0.491939	0.529805	-0.400209	-0.461332	0.494215	0.4679	0.396733	-0.444445	-0.380673	-0.525962	-0.531425	0.375368	-0.505803	-0.461413	0.226544	0.471623	0.0936564	0.496703	0.427755	-0.489145	0.378928	0.440581	0.349068	-0.551631	0.54711	-0.163138	0.435962	0.329765	0.373346	0.427952	0.442654	0.370421
0.419229	0.435401	-0.422202	-0.409599	0.432573	0.473761	0.488352	-0.439226	-0.440959	-0.429468	-0.448678	0.336665	-0.535226	-0.472874	0.450223	0.43174	0.396329	0.466172	0.522359	-0.464181	0.430674	0.450335	0.458916	-0.394917	0.477871	-0.329185	0.498034	0.448629	0.418979	0.378896	0.487628	0.483282
0.433523	0.486984	-0.402345	-0.383166	0.405793	0.422028	0.412225	-0.393826	-0.464186	-0.525477	-0.444794	0.459015	-0.23223	-0.421253	0.467355	0.496606	0.415795	0.424523	0.412741	-0.389838	0.409329	0.406703	0.371578	-0.394267	0.431735	-0.309026	0.339687	0.452933	0.451337	0.523441	0.455586	0.426246
0.506286	0.477915	-0.501616	-0.484453	0.399162	0.41385	0.457859	-0.381805	-0.441395	-0.379141	-0.443692	0.492617	-0.28877	-0.412812	0.393238	0.40011	0.470139	0.403037	0.418518	-0.474723	0.481876	0.391252	0.3473	-0.382367	0.458169	-0.474107	0.465954	0.405081	0.450972	0.417563	0.393122	0.419269
0.401123	0.453891	-0.425753	-0.592703	0.435069	0.426167	0.449863	-0.466048	-0.456279	-0.50855	-0.37481	0.539398	-0.433743	-0.421808	0.452458	0.45357	0.134915	0.48541	0.478715	-0.37341	0.454285	0.474213	0.490179	-0.395104	0.411507	-0.475607	0.4312	0.449564	0.466653	0.436978	0.47743	0.401921
0.456959	0.364668	-0.488633	-0.150699	0.438056	0.450394	0.397221	-0.435313	-0.491927	-0.379332	-0.52003	0.449232	-0.431052	-0.42824	0.330892	0.432792	0.451537	0.47876	0.388363	-0.343006	0.49365	0.494401	0.423459	-0.423807	0.415298	-0.452753	0.501405	0.342053	0.394259	0.493481	0.505933	0.430842
0.372774	0.397606	-0.398744	-0.310116	0.436891	0.328047	0.47492	-0.375379	-0.415044	-0.453083	-0.434415	0.431808	-0.383156	-0.404977	0.288468	0.434139	0.558371	0.48096	0.451694	-0.462612	0.403042	0.44613	0.396269	-0.402067	0.483353	-0.441223	0.444522	0.490248	0.429249	0.443223	0.426165	0.46256
0.428765	0.457811	-0.417393	-0.528573	0.4445	0.373271	0.356797	-0.44142	-0.413606	-0.371536	-0.43316	0.403528	-0.43321	-0.455363	0.251902	0.447405	0.391487	0.364318	0.448414	-0.398859	0.378307	0.366848	0.464613	-0.475158	0.444275	-0.338067	0.38858	0.388176	0.444391	0.411362	0.378039	0.46097
0.508237	0.348196	-0.40436	-0.224455	0.450006	0.396801	0.346126	-0.370974	-0.339497	-0.379717	-0.365112	0.426156	-0.475461	-0.428735	0.192303	0.408195	0.571645	0.377179	0.401641	-0.546937	0.362311	0.409516	0.453792	-0.363785	0.470184	-0.500017	0.369297	0.315496	0.397072	0.301709	0.490641	0.423533
0.40334	0.352765	-0.336652	-0.519385	0.382694	0.367021	0.426127	-0.415939	-0.409283	-0.346282	-0.441227	0.322104	-0.246714	-0.455519	0.377723	0.442804	0.387261	0.378291	0.422859	-0.266085	0.34786	0.354749	0.451399	-0.362851	0.392204	-0.394659	0.336249	0.342765	0.372877	0.429233	0.365106	0.448733
0.36058	0.387683	-0.464286	-0.485362	0.35757	0.364443	0.356743	-0.359993	-0.335354	-0.405572	-0.427059	0.42627	-0.357918	-0.324761	0.297369	0.382824	0.490854	0.443329	0.433732	-0.34723	0.431464	0.382064	0.369193	-0.42287	0.444037	-0.418201	0.395106	0.345905	0.436541	0.32634	0.407933	0.373749
0.466201	0.460278	-0.480379	-0.499228	0.412271	0.332208	0.409947	-0.350693	-0.415982	-0.470795	-0.423356	0.517037	-0.288835	-0.454369	0.610464	0.377696	0.440889	0.516142	0.444001	-0.312406	0.390109	0.467287	0.423322	-0.407469	0.46953	-0.517134	0.414796	0.502933	0.431697	0.373823	0.426128	0.381286
0.412014	0.475711	-0.435355	-0.310953	0.394926	0.432983	0.39406	-0.496377	-0.392098	-0.477839	-0.45702	0.459081	-0.410306	-0.405505	0.361902	0.437234	0.64542	0.478065	0.480934	-0.452268	0.416185	0.423588	0.413695	-0.419398	0.395944	-0.566987	0.501567	0.455276	0.492198	0.361002	0.433651	0.409193
0.451654	0.393637	-0.399688	-0.487136	0.365869	0.392486	0.484224	-0.490107	-0.342733	-0.444282	-0.51505	0.521489	-0.412729	-0.498624	0.0591558	0.491473	0.628025	0.404408	0.446959	-0.487879	0.504869	0.436274	0.293899	-0.404869	0.469769	-0.420499	0.363742	0.403373	0.396859	0.436745	0.428944	0.393695
0.474892	0.386544	-0.408345	-0.547896	0.505708	0.457852	0.500052	-0.493304	-0.459385	-0.46989	-0.390265	0.405224	-0.319563	-0.411262	0.386603	0.481281	0.289472	0.481991	0.384844	-0.372037	0.433422	0.482011	0.513464	-0.493841	0.439165	-0.27054	0.384383	0.454154	0.472162	0.439706	0.512229	0.41503
0.360067	0.450108	-0.334453	-0.362356	0.369049	0.423426	0.45415	-0.408808	-0.368056	-0.422271	-0.485189	0.417759	-0.5122	-0.43214	0.416619	0.399856	0.584582	0.447002	0.390688	-0.389295	0.418114	0.419661	0.414935	-0.434684	0.366791	-0.150549	0.440408	0.461698	0.341485	0.358205	0.395028	0.439123
0.446802	0.454062	-0.415629	-0.430138	0.409133	0.38759	0.449135	-0.385858	-0.38874	-0.32124	-0.464067	0.454968	-0.246867	-0.408257	0.275804	0.386172	0.171401	0.402879	0.395234	-0.444466	0.346575	0.329927	0.340198	-0.336698	0.366739	-0.154554	0.444963	0.345265	0.412862	0.421144	0.467226	0.434276
0.392007	0.533453	-0.393909	0.0529223	0.446335	0.370448	0.360049	-0.448299	-0.425515	-0.394859	-0.49339	0.349621	-0.402981	-0.5074	0.661961	0.378107	0.681291	0.456474	0.457963	-0.357126	0.293469	0.351005	0.480933	-0.418641	0.454097	-0.514674	0.247178	0.307811	0.559913	0.345273	0.499387	0.490914
0.440809	0.389161	-0.431648	-0.156911	0.409115	0.383848	0.467837	-0.370554	-0.473474	-0.449656	-0.441173	0.39226	-0.442869	-0.376142	0.383043	0.421981	0.649552	0.31661	0.340739	-0.439119	0.400572	0.441071	0.361237	-0.349102	0.389374	-0.533309	0.386759	0.427271	0.486043	0.346628	0.36234	0.43937
0.366486	0.481519	-0.425474	-0.427124	0.481769	0.36756	0.415112	-0.478009	-0.484642	-0.404384	-0.474242	0.405351	-0.387555	-0.419101	0.433266	0.459744	0.539424	0.39612	0.470491	-0.474276	0.373323	0.375856	0.410501	-0.421934	0.428284	-0.453273	0.414239	0.410816	0.445636	0.421866	0.482156	0.386373
0.332423	0.410774	-0.392875	-0.297339	0.367626	0.396704	0.472302	-0.324297	-0.438917	-0.378097	-0.458086	0.47311	-0.0844228	-0.364769	0.567882	0.393397	0.122091	0.378008	0.45424	-0.43961	0.300007	0.457998	0.562049	-0.446303	0.402388	-0.412661	0.268934	0.482168	0.406833	0.235645	0.44764	0.486841
0.397588	0.442847	-0.424258	-0.339051	0.452711	0.341476	0.479844	-0.416413	-0.417626	-0.41591	-0.426937	0.411064	-0.473955	-0.466319	0.417341	0.380877	0.630124	0.41168	0.517857	-0.397392	0.386811	0.440661	0.484042	-0.421172	0.404465	-0.527244	0.359993	0.339011	0.468554	0.493186	0.402485	0.434942
0.471312	0.427725	-0.377085	-0.347983	0.39376	0.375027	0.410688	-0.415729	-0.391641	-0.360672	-0.415753	0.388891	-0.437512	-0.457925	0.495196	0.4278	0.542262	0.478092	0.376639	-0.474962	0.399209	0.400305	0.39458	-0.40474	0.45237	-0.433951	0.415837	0.470322	0.435298	0.436316	0.419542	0.485221
0.386607	0.3376	-0.316778	-0.519362	0.437905	0.547836	0.236762	-0.486286	-0.476058	-0.39525	-0.491354	0.510133	-0.58054	-0.353859	-0.0656896	0.445618	0.722909	0.214728	0.285294	-0.462483	0.379301	0.377063	0.388358	-0.527049	0.257141	-0.163433	0.427118	0.404036	0.577764	0.311728	0.441947	0.505562
0.390021	0.399416	-0.425125	-0.443853	0.350946	0.332666	0.438299	-0.417964	-0.462009	-0.412629	-0.399672	0.354239	-0.328407	-0.491564	0.389866	0.388337	0.311962	0.419177	0.366744	-0.497045	0.373861	0.448681	0.326981	-0.367613	0.418392	-0.406669	0.278707	0.421803	0.409088	0.328057	0.443474	0.44235
0.412733	0.280245	-0.380987	-0.282734	0.310576	0.369389	0.347011	-0.352047	-0.356051	-0.315736	-0.368577	0.262965	-0.336199	-0.389219	0.458965	0.338846	0.429703	0.322947	0.360727	-0.276497	0.322641	0.313524	0.40369	-0.307202	0.284272	-0.259468	0.384958	0.362831	0.383079	0.300806	0.340856	0.400228
0.317304	0.429932	-0.448352	-0.465652	0.544352	0.461958	0.350916	-0.391675	-0.417923	-0.33305	-0.472315	0.550523	-0.0383409	-0.438676	0.319272	0.458938	0.498777	0.467759	0.391404	-0.225544	0.423556	0.44237	0.42539	-0.541044	0.569481	-0.195223	0.414867	0.465412	0.406167	0.306393	0.481325	0.524998
0.463509	0.491613	-0.45168	-0.400545	0.398491	0.450374	0.458107	-0.392867	-0.405218	-0.477754	-0.467611	0.430251	-0.200569	-0.42576	0.454504	0.49672	0.533416	0.434321	0.447835	-0.390678	0.447287	0.473351	0.461689	-0.438608	0.444681	-0.318128	0.360396	0.458244	0.452263	0.502514	0.507417	0.430925
0.423076	0.443397	-0.437791	-0.459222	0.478042	0.515096	0.413008	-0.507126	-0.412098	-0.466038	-0.462552	0.488719	-0.483315	-0.403455	0.389671	0.45965	0.570997	0.429802	0.421221	-0.469342	0.505848	0.444624	0.417849	-0.452824	0.510339	-0.475105	0.454029	0.404066	0.512815	0.371325	0.446709	0.476816
0.473091	0.409082	-0.397089	-0.491267	0.406665	0.428277	0.399655	-0.409832	-0.40314	-0.452218	-0.462312	0.408266	-0.503722	-0.463335	0.284671	0.397457	0.397021	0.477601	0.494468	-0.453982	0.480994	0.438184	0.477516	-0.48773	0.481947	-0.364789	0.471423	0.415542	0.474507	0.405061	0.379723	0.406092
0.446077	0.374659	-0.444279	-0.333421	0.374729	0.404724	0.422184	-0.337914	-0.431218	-0.353032	-0.364761	0.371899	-0.395785	-0.463018	0.104982	0.3869	0.463854	0.368192	0.444359	-0.352619	0.464135	0.354084	0.439414	-0.465254	0.366353	-0.569106	0.44296	0.382837	0.372794	0.317403	0.349849	0.347812
0.507781	0.46725	-0.450503	-0.262533	0.398006	0.419153	0.452311	-0.419796	-0.473586	-0.454475	-0.377819	0.485907	-0.359733	-0.474997	0.303156	0.492952	0.628803	0.439675	0.43699	-0.489521	0.4819	0.396696	0.450719	-0.401571	0.467482	-0.46591	0.445524	0.445089	0.426774	0.471446	0.392204	0.407437
0.422342	0.37406	-0.369214	-0.384395	0.380518	0.46869	0.402043	-0.358787	-0.40569	-0.33357	-0.533286	0.389454	-0.344291	-0.384151	0.575283	0.413771	0.301498	0.413248	0.440298	-0.29969	0.43761	0.444379	0.429552	-0.405065	0.46002	-0.340404	0.412587	0.396597	0.481406	0.474803	0.421886	0.490113
0.433361	0.37533	-0.434071	-0.440494	0.423584	0.429555	0.388172	-0.482319	-0.361826	-0.391609	-0.41178	0.480999	-0.376827	-0.4058	0.373997	0.484128	0.653742	0.409211	0.469434	-0.501412	0.433119	0.374349	0.422705	-0.368718	0.459541	-0.365082	0.497317	0.349567	0.397171	0.424923	0.374746	0.418945
0.503946	0.404692	-0.501034	-0.592436	0.447704	0.380437	0.470987	-0.523704	-0.391185	-0.380196	-0.522101	0.424188	-0.431921	-0.408957	0.540845	0.407838	0.30603	0.514924	0.421174	-0.425034	0.352952	0.52246	0.361832	-0.360676	0.352007	-0.321141	0.442957	0.422178	0.509192	0.43727	0.438106	0.379093
0.384122	0.457572	-0.414201	-0.394108	0.421446	0.440069	0.405897	-0.492312	-0.450137	-0.444078	-0.495077	0.381883	-0.479712	-0.4383	0.324196	0.381849	0.506834	0.402914	0.410178	-0.478524	0.409	0.418966	0.388085	-0.33223	0.462159	-0.342785	0.354778	0.456283	0.435347	0.438573	0.418354	0.379591
0.36449	0.377645	-0.399397	-0.460008	0.398043	0.431922	0.412416	-0.418959	-0.461286	-0.420321	-0.445347	0.443454	-0.490105	-0.38896	0.211352	0.372947	0.372674	0.396561	0.439844	-0.346972	0.434482	0.345949	0.413441	-0.357254	0.470339	-0.362629	0.340141	0.372415	0.420081	0.363461	0.439835	0.415131
0.417247	0.486811	-0.343555	-0.512238	0.438302	0.434865	0.351825	-0.433353	-0.352341	-0.329741	-0.376776	0.449297	-0.308732	-0.434926	0.223572	0.359853	0.619228	0.342203	0.439088	-0.432624	0.481633	0.422324	0.419174	-0.3581	0.426057	-0.435054	0.301153	0.275154	0.357845	0.379878	0.404005	0.417512
0.425718	0.405779	-0.497801	-0.510785	0.473445	0.434804	0.511108	-0.508674	-0.408383	-0.539348	-0.520495	0.349783	-0.291305	-0.500916	0.552314	0.495532	0.422441	0.477885	0.498496	-0.536481	0.457091	0.44875	0.469075	-0.501412	0.462439	-0.236281	0.476815	0.33738	0.452795	0.3301	0.379624	0.382544
0.496096	0.489211	-0.40762	-0.354321	0.491439	0.364187	0.465341	-0.455678	-0.402951	-0.443598	-0.427021	0.518251	-0.25382	-0.428811	0.443582	0.419841	0.605439	0.403911	0.404818	-0.413289	0.393791	0.500801	0.437902	-0.355148	0.467795	-0.466849	0.362221	0.47923	0.422695	0.438524	0.489761	0.480158
0.437969	0.360912	-0.440286	-0.527425	0.454704	0.416352	0.445967	-0.486373	-0.442609	-0.435708	-0.406248	0.413265	-0.3709	-0.496845	0.349184	0.506653	0.572357	0.460367	0.368804	-0.420338	0.468848	0.424895	0.422565	-0.384081	0.383299	-0.449846	0.436106	0.497949	0.454339	0.50998	0.376666	0.428729
0.432076	0.480933	-0.433264	-0.345802	0.414494	0.387591	0.410712	-0.406448	-0.487985	-0.402037	-0.429212	0.415069	-0.431106	-0.470945	0.273453	0.460535	0.59861	0.474793	0.440247	-0.42129	0.413282	0.413612	0.430352	-0.431122	0.478119	-0.53495	0.396055	0.478123	0.497993	0.506202	0.470282	0.489156
0.42191	0.477346	-0.389989	-0.253316	0.338214	0.29668	0.453612	-0.414667	-0.469057	-0.265753	-0.432383	0.323308	-0.286401	-0.470024	0.37419	0.396307	0.497504	0.45305	0.389524	-0.455387	0.385295	0.389217	0.287843	-0.364393	0.327365	-0.334889	0.328876	0.502977	0.400805	0.376416	0.376928	0.427877
0.389249	0.40925	-0.405172	-0.346445	0.344496	0.371302	0.410082	-0.285627	-0.445251	-0.392645	-0.285141	0.362572	-0.373387	-0.406573	0.275809	0.365071	-0.142655	0.410629	0.359701	-0.348633	0.394557	0.391372	0.416131	-0.424526	0.4104	-0.361596	0.451698	0.428051	0.37776	0.252665	0.368	0.33853
0.432585	0.405926	-0.420519	-0.454118	0.383428	0.329773	0.352709	-0.372036	-0.350571	-0.316552	-0.378124	0.372261	-0.183327	-0.444863	0.25859	0.376676	0.523106	0.358237	0.392691	-0.374963	0.451569	0.346232	0.29974	-0.356848	0.359371	-0.265145	0.361635	0.402908	0.471588	0.357732	0.32685	0.423452
0.424902	0.369397	-0.450031	-0.253889	0.358848	0.423718	0.416095	-0.362464	-0.416288	-0.412541	-0.366215	0.369836	-0.410867	-0.344785	0.299586	0.450987	0.267996	0.405112	0.364848	-0.39158	0.435278	0.394608	0.381578	-0.367179	0.370715	-0.374405	0.390738	0.372317	0.372605	0.441128	0.370044	0.45628
0.35538	0.406927	-0.371339	-0.27284	0.468957	0.411939	0.385823	-0.464253	-0.466089	-0.331099	-0.464025	0.415513	-0.511498	-0.397515	0.31319	0.398515	0.515874	0.356575	0.403194	-0.377114	0.463762	0.441077	0.457801	-0.476433	0.387438	-0.485096	0.455432	0.403146	0.39931	0.299007	0.360687	0.430089
0.481185	0.477529	-0.450899	-0.385928	0.364394	0.386693	0.466035	-0.474971	-0.401704	-0.397178	-0.461239	0.482743	-0.427403	-0.414459	0.44875	0.436201	0.359364	0.473537	0.385093	-0.461659	0.422656	0.444253	0.40934	-0.382707	0.445517	-0.380674	0.394212	0.425242	0.40586	0.409472	0.428686	0.409185
0.417213	0.484103	-0.45814	-0.179827	0.478252	0.425138	0.475786	-0.404041	-0.431465	-0.455758	-0.41561	0.468044	-0.435344	-0.508408	0.214606	0.444085	0.489437	0.481797	0.430562	-0.401479	0.450459	0.429533	0.459511	-0.420471	0.433097	-0.406006	0.473051	0.370692	0.484383	0.48789	0.439307	0.44195
0.39665	0.446105	-0.47716	-0.44952	0.397677	0.430588	0.490807	-0.436089	-0.406284	-0.448503	-0.471305	0.353067	-0.46511	-0.386806	0.390175	0.372463	0.441213	0.433441	0.408729	-0.49751	0.499295	0.414531	0.353533	-0.440067	0.440353	-0.357884	0.431108	0.382011	0.403045	0.331207	0.399921	0.394635
0.309345	0.256778	-0.293185	-0.321406	0.337953	0.239015	0.259483	-0.224372	-0.295818	-0.419544	-0.227013	0.24677	-0.42229	-0.211262	0.39239	0.226253	-0.248422	0.147995	0.26084	-0.291195	0.162544	0.356618	0.297923	-0.233167	0.416965	-0.228752	0.200895	0.3236	0.316364	0.266167	0.183772	0.218237
0.44435	0.380111	-0.265353	-0.0674774	0.326254	0.372692	0.335162	-0.359223	-0.268898	-0.427389	-0.339652	0.319627	-0.469045	-0.411331	0.25357	0.389819	0.252129	0.300042	0.385084	-0.475041	0.405678	0.377262	0.388159	-0.283468	0.359892	-0.591957	0.342665	0.279652	0.413281	0.405609	0.404489	0.464913
0.453339	0.380787	-0.434917	-0.353823	0.466245	0.428922	0.492954	-0.361786	-0.346369	-0.447089	-0.451922	0.374765	-0.416663	-0.398048	0.224697	0.495835	0.663003	0.429989	0.346665	-0.508714	0.467377	0.472168	0.406667	-0.32006	0.327867	-0.593459	0.436232	0.396195	0.357883	0.390711	0.440793	0.531927
0.419102	0.483199	-0.4068	-0.377598	0.462006	0.399073	0.380714	-0.35636	-0.44286	-0.408804	-0.391316	0.360808	-0.287926	-0.385579	0.495411	0.441109	0.373437	0.410983	0.441987	-0.426391	0.434474	0.420473	0.42992	-0.361827	0.424926	-0.434871	0.44426	0.449312	0.378904	0.474529	0.397915	0.468779
0.359579	0.306554	-0.323905	-0.34219	0.273754	0.272599	0.3157	-0.243569	-0.406285	-0.379059	-0.311086	0.306605	-0.373692	-0.310537	0.435537	0.318105	-0.0435469	0.282803	0.283822	-0.256257	0.242957	0.270353	0.299409	-0.22063	0.340881	-0.228271	0.388736	0.328331	0.373866	0.259318	0.329627	0.286303
0.453278	0.389248	-0.400336	-0.276886	0.331534	0.311556	0.38811	-0.299612	-0.445948	-0.297043	-0.375369	0.343742	-0.521562	-0.466592	0.525179	0.37856	0.627532	0.449009	0.273686	-0.410527	0.38077	0.436278	0.325244	-0.269868	0.350408	-0.450729	0.27646	0.395567	0.375542	0.434408	0.331383	0.416423
0.345135	0.3571	-0.466754	-0.317435	0.397098	0.422969	0.369119	-0.426118	-0.401165	-0.469706	-0.416512	0.368375	-0.251029	-0.412525	0.439199	0.396038	0.551092	0.406994	0.375721	-0.472648	0.455305	0.397427	0.503585	-0.494261	0.431775	-0.454406	0.394136	0.45326	0.463203	0.426424	0.352428	0.423345
0.404976	0.448337	-0.40651	-0.274651	0.35692	0.425473	0.336041	-0.370324	-0.443835	-0.377894	-0.365994	0.368901	-0.406838	-0.406658	0.237616	0.415123	0.632794	0.42463	0.404038	-0.361838	0.334777	0.390816	0.396625	-0.420562	0.372699	-0.590752	0.42616	0.345446	0.459325	0.470002	0.430013	0.415671
0.445443	0.424021	-0.509478	-0.480241	0.449173	0.411464	0.414874	-0.414197	-0.45472	-0.46684	-0.450098	0.401236	-0.538748	-0.446604	0.458055	0.49778	0.488427	0.372696	0.47783	-0.505973	0.409257	0.39787	0.471457	-0.453912	0.395337	-0.414131	0.447119	0.456049	0.432522	0.415847	0.513262	0.505254
0.502983	0.428864	-0.413432	-0.18089	0.374123	0.472601	0.422916	-0.483493	-0.433505	-0.36452	-0.44943	0.442122	-0.530448	-0.503339	0.288882	0.491891	0.602956	0.416689	0.421446	-0.456119	0.419329	0.461218	0.444006	-0.413969	0.436404	-0.236058	0.495446	0.444228	0.447339	0.492345	0.463417	0.460074
0.413006	0.431103	-0.396741	-0.423161	0.389955	0.436382	0.383779	-0.435826	-0.36534	-0.466004	-0.495677	0.367829	-0.405667	-0.488221	0.445854	0.478639	0.40595	0.366358	0.360311	-0.387979	0.410632	0.404642	0.42279	-0.37261	0.399107	-0.376246	0.350787	0.415654	0.462626	0.464462	0.437341	0.376147
0.513153	0.405041	-0.523121	-0.391543	0.371575	0.392357	0.45211	-0.532568	-0.411521	-0.396938	-0.410319	0.344185	-0.406689	-0.474544	0.398536	0.388931	0.584582	0.418102	0.505895	-0.452642	0.435495	0.500422	0.488785	-0.4019	0.437003	-0.49893	0.475793	0.485339	0.416164	0.42667	0.447762	0.382159
0.369641	0.401761	-0.407153	-0.341099	0.429362	0.407609	0.389058	-0.429046	-0.332245	-0.443011	-0.434827	0.462355	-0.440449	-0.483359	0.309741	0.422869	0.683928	0.348312	0.358292	-0.465919	0.467676	0.435991	0.454708	-0.409619	0.449009	-0.332836	0.424913	0.509296	0.412978	0.513064	0.435181	0.43024
0.415777	0.474524	-0.387124	-0.306881	0.389304	0.389394	0.350614	-0.374914	-0.436998	-0.370185	-0.3609	0.387823	-0.329804	-0.459002	0.453621	0.354013	0.635535	0.459638	0.478268	-0.393247	0.451543	0.366323	0.450126	-0.328969	0.344232	-0.358099	0.394811	0.350814	0.412287	0.464067	0.453982	0.37541
0.451617	0.46729	-0.444589	-0.320348	0.43659	0.456472	0.393423	-0.462862	-0.42089	-0.515217	-0.469272	0.433247	-0.511104	-0.500493	0.473808	0.46909	0.591871	0.507199	0.441567	-0.465387	0.454629	0.475959	0.483675	-0.448104	0.404589	-0.273592	0.42092	0.435489	0.456481	0.475717	0.430967	0.49765
0.492393	0.441359	-0.444407	-0.318772	0.452545	0.41234	0.534025	-0.456695	-0.505676	-0.45549	-0.508243	0.424537	-0.502592	-0.459384	0.333504	0.411266	0.556861	0.423669	0.482802	-0.516149	0.496961	0.509043	0.465258	-0.451043	0.488128	-0.37222	0.471553	0.442183	0.38037	0.506019	0.40152	0.465685
0.346715	0.364698	-0.351213	-0.390962	0.456553	0.38408	0.385704	-0.42077	-0.438646	-0.467064	-0.376035	0.437831	-0.101358	-0.300167	0.469653	0.448131	-0.0543434	0.46248	0.344722	-0.3482	0.39055	0.497209	0.43243	-0.508907	0.39365	-0.275308	0.288489	0.411457	0.408589	0.369067	0.417934	0.384995
0.395582	0.381517	-0.415719	-0.447243	0.465978	0.453576	0.438129	-0.388577	-0.444126	-0.398694	-0.483446	0.532312	-0.0995964	-0.367859	0.568233	0.432306	0.0200309	0.431738	0.38231	-0.357298	0.456979	0.450691	0.530262	-0.472637	0.46245	-0.256868	0.468672	0.461494	0.427482	0.455679	0.468231	0.422389
0.434103	0.49364	-0.425442	-0.457635	0.387933	0.465711	0.392493	-0.480601	-0.410422	-0.430404	-0.385848	0.429607	-0.525247	-0.415203	0.327948	0.368776	0.440139	0.468433	0.413501	-0.351599	0.483886	0.39401	0.385245	-0.375499	0.396343	-0.332975	0.403167	0.367443	0.380303	0.371787	0.403386	0.404584
0.483885	0.406062	-0.417376	-0.532597	0.445386	0.425753	0.457319	-0.494071	-0.467491	-0.400666	-0.472609	0.476631	-0.280868	-0.435213	0.37139	0.467035	0.515895	0.487279	0.366366	-0.462932	0.416941	0.444833	0.447659	-0.38587	0.449005	-0.415812	0.392848	0.460471	0.413488	0.348587	0.491651	0.474818
0.428898	0.373868	-0.435631	-0.185326	0.493785	0.398521	0.490571	-0.417896	-0.480551	-0.571353	-0.500213	0.540426	-0.502746	-0.392568	0.0645602	0.426569	0.181349	0.414162	0.506082	-0.36111	0.4674	0.31473	0.310456	-0.459132	0.429819	-0.476345	0.358899	0.365365	0.47489	0.479818	0.379004	0.425306
0.359737	0.403212	-0.466208	-0.161713	0.376116	0.474241	0.390476	-0.462711	-0.358542	-0.392764	-0.453184	0.479974	-0.431045	-0.460609	0.237941	0.381926	0.625899	0.382222	0.429624	-0.326145	0.4154	0.373007	0.417173	-0.415824	0.337714	-0.478303	0.395045	0.360664	0.413097	0.411519	0.411136	0.385454
0.385799	0.424218	-0.470865	-0.251486	0.448433	0.46645	0.427569	-0.395547	-0.391725	-0.394836	-0.400509	0.434537	-0.270467	-0.433401	0.537996	0.362368	0.46875	0.467093	0.413117	-0.383139	0.348572	0.378736	0.455872	-0.495701	0.447104	-0.318939	0.436067	0.518409	0.455791	0.374508	0.42303	0.425092
0.301089	0.391976	-0.370988	-0.131523	0.434711	0.468475	0.483546	-0.568275	-0.509083	-0.501402	-0.571201	0.44073	-0.584705	-0.445939	0.117185	0.46139	0.521307	0.367435	0.499959	-0.384663	0.349877	0.491687	0.60876	-0.374162	0.41385	-0.197303	0.423831	0.292076	0.515676	0.363264	0.552841	0.555442
0.450805	0.418664	-0.479223	-0.510542	0.369599	0.409793	0.411251	-0.482357	-0.441641	-0.485794	-0.412212	0.360192	-0.499437	-0.421847	0.296216	0.407231	0.393442	0.496887	0.447948	-0.472204	0.439966	0.446083	0.481014	-0.411921	0.41033	-0.339392	0.423126	0.436909	0.399773	0.415354	0.431135	0.402407
0.351879	0.246805	-0.358458	-0.69835	0.433951	0.35679	0.410772	-0.326324	-0.322077	-0.39257	-0.203097	0.267587	-0.515123	-0.351692	0.468477	0.233332	-0.233289	0.279162	0.400564	-0.370803	0.407483	0.30667	0.367203	-0.322845	0.283746	-0.731454	0.190464	0.322391	0.364351	0.358835	0.352157	0.243182
0.471017	0.474464	-0.449447	-0.395106	0.470355	0.492499	0.378525	-0.496683	-0.412741	-0.436982	-0.381706	0.388404	-0.332176	-0.418443	0.437791	0.48702	0.55673	0.472304	0.443974	-0.409099	0.424353	0.456314	0.387742	-0.407514	0.420259	-0.427458	0.497665	0.466538	0.42571	0.441751	0.45493	0.380672
0.451615	0.399668	-0.446582	-0.324166	0.371739	0.415915	0.375591	-0.414571	-0.414204	-0.423499	-0.447304	0.477152	-0.477291	-0.428779	0.459608	0.449571	0.519551	0.466186	0.473872	-0.468699	0.463599	0.453704	0.462434	-0.431491	0.414479	-0.235029	0.360866	0.397422	0.35033	0.424994	0.461458	0.371313
0.43049	0.496256	-0.532452	-0.399601	0.394798	0.527906	0.408418	-0.457831	-0.469243	-0.404647	-0.483625	0.421642	-0.384714	-0.485006	0.602011	0.452901	0.544601	0.397088	0.43839	-0.379083	0.426627	0.463078	0.387084	-0.459218	0.518673	-0.361336	0.394468	0.501015	0.419664	0.419144	0.420077	0.430496
0.389248	0.426367	-0.41022	-0.318854	0.383279	0.48823	0.398077	-0.427817	-0.412745	-0.396283	-0.396053	0.436588	-0.426553	-0.444393	0.433453	0.492287	0.451372	0.417914	0.412484	-0.445916	0.435633	0.466229	0.40835	-0.477188	0.499348	-0.375716	0.375111	0.407763	0.471556	0.353602	0.488357	0.432338
0.454365	0.408954	-0.3464	-0.331046	0.421814	0.496395	0.413375	-0.458469	-0.491315	-0.435444	-0.410856	0.402221	-0.469258	-0.462522	0.478326	0.427875	0.574644	0.42364	0.408521	-0.488897	0.467286	0.458151	0.401105	-0.395017	0.511661	-0.537575	0.373446	0.480949	0.451671	0.409257	0.410617	0.447038
0.345738	0.398521	-0.372763	-0.318132	0.422031	0.399117	0.445693	-0.445087	-0.378746	-0.410314	-0.42003	0.356956	-0.400859	-0.36394	0.367479	0.387062	0.510162	0.421338	0.458764	-0.464483	0.347455	0.395898	0.397162	-0.347518	0.427706	-0.439054	0.418961	0.436662	0.382476	0.385664	0.400093	0.454142
0.389441	0.435907	-0.43848	-0.30878	0.485277	0.455892	0.378248	-0.445574	-0.444994	-0.455589	-0.402275	0.439343	-0.51993	-0.497972	0.346599	0.415633	0.501525	0.488216	0.438833	-0.40506	0.370226	0.435581	0.371976	-0.448802	0.427814	-0.382004	0.450598	0.397443	0.454213	0.471356	0.436943	0.409239
0.421756	0.401895	-0.486404	-0.435236	0.460802	0.423526	0.409302	-0.463982	-0.391915	-0.416468	-0.478093	0.396157	-0.338782	-0.477073	0.476553	0.37568	0.25955	0.389595	0.460067	-0.449241	0.396209	0.465143	0.366337	-0.42602	0.473488	-0.400706	0.37927	0.423119	0.464698	0.431926	0.436534	0.40907
0.38273	0.402911	-0.458355	-0.344204	0.481196	0.456654	0.471352	-0.434927	-0.384748	-0.435049	-0.456113	0.457986	-0.329346	-0.444375	0.459604	0.437319	0.603308	0.434295	0.439814	-0.46921	0.417984	0.423965	0.40427	-0.435691	0.443818	-0.47254	0.413562	0.448484	0.394604	0.372703	0.504114	0.503873
0.355647	0.457399	-0.320293	-0.590572	0.422583	0.529925	0.360453	-0.229039	-0.40546	-0.486648	-0.395035	0.617933	-0.225627	-0.438273	0.136392	0.417517	0.424549	0.385795	0.511046	-0.436365	0.301992	0.412898	0.416149	-0.394709	0.529835	-0.508489	0.229245	0.366803	0.397017	0.499154	0.325619	0.334588
0.361392	0.400096	-0.443845	-0.361979	0.442154	0.407052	0.402036	-0.43388	-0.368567	-0.434376	-0.422166	0.449762	-0.499411	-0.467322	0.38848	0.397634	0.562726	0.348429	0.342666	-0.479037	0.47967	0.354163	0.464307	-0.467604	0.424227	-0.448374	0.457326	0.395075	0.361009	0.38439	0.459114	0.449434
0.359541	0.297988	-0.373306	-0.327681	0.331655	0.351158	0.276768	-0.345537	-0.412636	-0.422698	-0.373867	0.359532	-0.144081	-0.315065	0.581829	0.434806	-0.163278	0.446678	0.403105	-0.362748	0.46376	0.404757	0.413273	-0.419306	0.399333	-0.292862	0.18964	0.367743	0.460213	0.278165	0.391107	0.440446
0.460176	0.46879	-0.439136	-0.569388	0.509515	0.436881	0.441061	-0.461687	-0.471632	-0.508353	-0.455456	0.519282	-0.377211	-0.441855	0.549004	0.421229	0.151095	0.516267	0.430264	-0.421562	0.428067	0.406064	0.477072	-0.399411	0.426244	-0.498728	0.453705	0.520263	0.434236	0.456366	0.46595	0.464893
0.388879	0.352888	-0.46794	-0.40198	0.401692	0.333169	0.42343	-0.41086	-0.463279	-0.391583	-0.405466	0.377706	-0.332769	-0.405189	0.394054	0.437094	0.627281	0.414858	0.427457	-0.444146	0.432762	0.478148	0.374136	-0.401536	0.383856	-0.396929	0.407823	0.426816	0.359327	0.41351	0.364399	0.481028
0.440429	0.433227	-0.495209	-0.236516	0.460797	0.437498	0.440155	-0.437093	-0.422984	-0.478969	-0.486607	0.483851	-0.397395	-0.406963	0.355527	0.461156	0.598591	0.365725	0.398378	-0.350388	0.398146	0.423229	0.389274	-0.414927	0.496289	-0.47718	0.413204	0.361463	0.469579	0.419708	0.444825	0.341318
0.468351	0.461105	-0.453331	-0.323517	0.450368	0.452832	0.516215	-0.528304	-0.441482	-0.431446	-0.465945	0.406767	-0.496785	-0.436549	0.496497	0.450582	0.484391	0.467833	0.444454	-0.425041	0.472977	0.459786	0.423915	-0.443499	0.485805	-0.394467	0.503289	0.378157	0.452208	0.475051	0.40939	0.413126
0.439472	0.43935	-0.413252	-0.538864	0.441285	0.464762	0.496896	-0.491941	-0.439565	-0.4024	-0.434208	0.452343	-0.296371	-0.522615	0.432568	0.474375	0.497023	0.42957	0.419013	-0.443793	0.48216	0.388101	0.424913	-0.511203	0.41402	-0.343048	0.523648	0.391391	0.438899	0.395272	0.449643	0.455327
0.435657	0.355611	-0.359958	-0.570881	0.47395	0.463458	0.349563	-0.384174	-0.397486	-0.468644	-0.405187	0.452007	-0.469625	-0.416553	0.150313	0.489469	0.519421	0.463125	0.437289	-0.387878	0.487217	0.375647	0.431026	-0.397713	0.513493	-0.440607	0.381688	0.319616	0.431377	0.476129	0.413188	0.436788
0.428529	0.408672	-0.465597	-0.408181	0.437187	0.446611	0.438962	-0.473036	-0.438417	-0.419999	-0.508742	0.482647	-0.366957	-0.478017	0.314652	0.440411	0.376738	0.467795	0.41192	-0.455153	0.445722	0.459597	0.479434	-0.397166	0.420453	-0.410139	0.451728	0.437149	0.445072	0.45805	0.453302	0.399429
0.363406	0.365522	-0.436519	-0.254726	0.388825	0.300654	0.335833	-0.411853	-0.383523	-0.418808	-0.317858	0.398807	-0.336449	-0.358258	0.461378	0.403819	0.458565	0.404812	0.383111	-0.386229	0.355451	0.338921	0.253784	-0.432401	0.429547	-0.372519	0.346559	0.338616	0.410901	0.397219	0.373674	0.346082
0.426831	0.398529	-0.443493	-0.42729	0.399939	0.507741	0.307135	-0.357564	-0.4021	-0.302581	-0.429542	0.479934	-0.11776	-0.440746	0.60274	0.471748	-0.0301527	0.341669	0.393584	-0.322208	0.556786	0.509252	0.543395	-0.530735	0.501548	-0.15793	0.161446	0.520075	0.435102	0.393212	0.337233	0.408252
0.418275	0.378945	-0.367726	-0.393865	0.39891	0.498563	0.48029	-0.500297	-0.414406	-0.414226	-0.470367	0.393042	-0.389423	-0.429125	0.351326	0.45612	0.593866	0.430569	0.444866	-0.513936	0.379463	0.442535	0.455647	-0.431097	0.452074	-0.376454	0.449576	0.422973	0.454542	0.459729	0.402944	0.401782
0.44219	0.517652	-0.481923	-0.523581	0.432487	0.485271	0.430741	-0.514944	-0.493787	-0.429212	-0.476505	0.407526	-0.0769761	-0.441141	0.432099	0.46525	0.0644542	0.446971	0.423797	-0.440075	0.449117	0.436364	0.487126	-0.418383	0.518123	-0.276816	0.504588	0.484392	0.482545	0.480088	0.455277	0.453066
0.370362	0.382657	-0.387661	-0.291362	0.463416	0.360036	0.312867	-0.433188	-0.344093	-0.344525	-0.429867	0.414823	-0.316816	-0.355157	0.442368	0.357222	0.276766	0.360791	0.439814	-0.304355	0.327375	0.334125	0.422646	-0.464168	0.420681	-0.0883558	0.309468	0.36426	0.362615	0.375581	0.475516	0.4574
0.401815	0.440059	-0.421991	-0.45409	0.488012	0.41253	0.471094	-0.407145	-0.465661	-0.467568	-0.470204	0.451272	-0.201027	-0.400118	0.452499	0.46889	0.321517	0.47249	0.404512	-0.391626	0.436964	0.500016	0.504167	-0.382055	0.453157	-0.319538	0.419837	0.490616	0.460419	0.457445	0.404957	0.410378
0.389128	0.37845	-0.34434	-0.327718	0.433379	0.437704	0.356222	-0.408369	-0.375046	-0.329831	-0.477058	0.245283	-0.555577	-0.479275	0.433126	0.39378	0.210761	0.285252	0.443216	-0.296721	0.367806	0.446081	0.297915	-0.412595	0.41933	-0.53166	0.40427	0.400861	0.452915	0.398965	0.366651	0.406699
0.368777	0.374759	-0.437832	-0.507738	0.373585	0.497215	0.464055	-0.491235	-0.373642	-0.444557	-0.475336	0.368817	-0.504728	-0.375479	0.366501	0.399894	0.435027	0.397826	0.466606	-0.458697	0.45546	0.422084	0.404578	-0.405131	0.406899	-0.385408	0.472918	0.395197	0.470755	0.441109	0.385161	0.465891
0.412498	0.320268	-0.462986	-0.131302	0.394767	0.350064	0.401944	-0.318968	-0.374487	-0.466788	-0.383621	0.449168	-0.442473	-0.44225	0.381696	0.357377	0.67362	0.407245	0.350262	-0.376096	0.418427	0.339901	0.352328	-0.417483	0.461736	-0.46724	0.266981	0.314044	0.416239	0.394499	0.430472	0.337978
0.429944	0.487546	-0.398723	-0.310014	0.434594	0.414951	0.465414	-0.461966	-0.488166	-0.376148	-0.408865	0.385651	-0.502794	-0.492438	0.229083	0.405538	0.570841	0.472419	0.469599	-0.407376	0.452438	0.410924	0.40688	-0.420666	0.442335	-0.559628	0.402935	0.394729	0.494034	0.488602	0.492135	0.401443
0.450813	0.326777	-0.364566	-0.654691	0.431794	0.401664	0.309474	-0.329426	-0.326546	-0.356635	-0.342232	0.426043	-0.560505	-0.425146	0.0835576	0.33478	0.145835	0.40954	0.268106	-0.274549	0.344949	0.265499	0.203611	-0.343529	0.437865	-0.165521	0.303588	0.266258	0.438023	0.446996	0.419789	0.251673
0.380137	0.427569	-0.439874	-0.202849	0.37314	0.437487	0.378017	-0.345413	-0.386587	-0.425837	-0.437163	0.38554	-0.320361	-0.435618	0.31899	0.444156	0.321091	0.449405	0.467734	-0.417754	0.311895	0.449282	0.404705	-0.398457	0.424725	-0.393394	0.401829	0.416116	0.491106	0.49136	0.491946	0.391235
0.410447	0.380828	-0.425851	-0.224649	0.356079	0.393483	0.357705	-0.438969	-0.416947	-0.355606	-0.376184	0.314176	-0.385583	-0.441137	0.161029	0.338453	0.546178	0.41048	0.409324	-0.349036	0.359128	0.351876	0.431153	-0.415187	0.349177	-0.507507	0.30302	0.399359	0.362153	0.299759	0.3354	0.4211
0.439322	0.406556	-0.473407	-0.503737	0.429702	0.519839	0.438714	-0.493334	-0.450245	-0.440299	-0.426812	0.499427	-0.274382	-0.431561	0.521322	0.450542	0.0738723	0.40577	0.532644	-0.425949	0.404072	0.470437	0.534246	-0.546669	0.475141	-0.311618	0.381505	0.448209	0.51707	0.387387	0.421433	0.493981
0.382175	0.364768	-0.34492	-0.541326	0.383857	0.527775	0.33815	-0.404955	-0.41774	-0.489886	-0.387282	0.505066	-0.431236	-0.461414	0.101937	0.427897	0.536269	0.305478	0.489564	-0.397948	0.453662	0.37514	0.519547	-0.420491	0.415286	-0.552866	0.322909	0.424207	0.303131	0.507952	0.291393	0.336578
0.386113	0.427682	-0.370618	-0.378003	0.387947	0.364258	0.367209	-0.418238	-0.305743	-0.351112	-0.411598	0.40274	-0.414883	-0.346667	0.461252	0.371796	0.575395	0.379026	0.364276	-0.374203	0.266894	0.378307	0.359343	-0.399747	0.365538	-0.421089	0.323488	0.360986	0.391006	0.357601	0.369548	0.349898
0.402497	0.386547	-0.380369	-0.420614	0.407071	0.368682	0.335451	-0.462289	-0.346133	-0.437106	-0.433564	0.387883	-0.431402	-0.427616	0.156188	0.479174	0.66656	0.321258	0.404918	-0.525966	0.349142	0.487338	0.432187	-0.367874	0.38565	-0.425333	0.412989	0.428493	0.542813	0.44813	0.47185	0.450111
0.311946	0.368093	-0.34613	-0.316275	0.283845	0.390066	0.321508	-0.374036	-0.309574	-0.297661	-0.325458	0.351158	-0.330384	-0.392799	0.254894	0.423126	0.438516	0.291491	0.431951	-0.398441	0.4204	0.436338	0.481248	-0.341382	0.326688	-0.250566	0.237523	0.365341	0.311045	0.3885	0.335345	0.369235
0.50233	0.432549	-0.399961	-0.442879	0.400987	0.457425	0.455752	-0.367664	-0.475679	-0.410612	-0.401808	0.501497	-0.430416	-0.424063	0.440754	0.48313	0.550524	0.47008	0.503156	-0.474311	0.477667	0.470891	0.425335	-0.483863	0.360993	-0.545177	0.406383	0.365318	0.397795	0.515865	0.429696	0.493239
0.475899	0.451258	-0.43523	-0.379821	0.420173	0.32672	0.429634	-0.458521	-0.488567	-0.452391	-0.373139	0.450451	-0.35493	-0.403431	0.48886	0.459164	0.44287	0.449883	0.411397	-0.440214	0.451383	0.492501	0.424713	-0.392139	0.392955	-0.460951	0.409769	0.474851	0.423444	0.450183	0.465199	0.385496
0.361084	0.429454	-0.376602	-0.432021	0.421109	0.353503	0.448863	-0.377	-0.386308	-0.374789	-0.35286	0.308492	-0.270555	-0.44957	0.260194	0.428262	0.403256	0.370685	0.423055	-0.387408	0.301666	0.381131	0.426631	-0.360259	0.363813	-0.281621	0.359411	0.391613	0.36436	0.304718	0.347376	0.386706
0.312125	0.366938	-0.352432	-0.551347	0.414846	0.361527	0.347536	-0.404621	-0.347828	-0.312524	-0.284045	0.267397	-0.584303	-0.285694	0.145723	0.378983	0.400886	0.290236	0.284458	-0.257928	0.349912	0.323176	0.307222	-0.351517	0.400895	-0.541448	0.449271	0.372125	0.297959	0.364596	0.259878	0.408745
0.386835	0.338113	-0.314132	-0.450332	0.363962	0.400229	0.371706	-0.447537	-0.342116	-0.349366	-0.410781	0.458996	-0.286418	-0.402636	0.5762	0.355102	0.316655	0.416981	0.319111	-0.451333	0.383215	0.367925	0.297891	-0.333114	0.440781	-0.3854	0.439091	0.334185	0.419615	0.488151	0.488267	0.460535
0.383976	0.361701	-0.42194	-0.383993	0.458861	0.400172	0.429579	-0.41461	-0.374701	-0.344042	-0.427103	0.414037	-0.20432	-0.410471	0.609482	0.44554	0.0607561	0.446555	0.44923	-0.33011	0.384283	0.423839	0.490367	-0.433161	0.413172	-0.298883	0.348496	0.407428	0.397304	0.390853	0.415974	0.430899
0.492231	0.458386	-0.422389	-0.258733	0.446007	0.448281	0.475825	-0.498515	-0.495902	-0.416456	-0.456773	0.41556	-0.452824	-0.470175	0.35381	0.424409	0.560612	0.429365	0.460998	-0.464003	0.47011	0.473646	0.436857	-0.395191	0.444552	-0.502956	0.444362	0.489885	0.498122	0.431734	0.481747	0.496716
0.443885	0.432033	-0.425616	-0.378963	0.469884	0.361794	0.468968	-0.385751	-0.383127	-0.488849	-0.456484	0.486195	-0.416467	-0.447754	0.512071	0.416891	0.321259	0.42863	0.494777	-0.45041	0.424993	0.492464	0.490617	-0.517875	0.424552	-0.498569	0.422747	0.487241	0.419525	0.464462	0.456361	0.485181
0.446985	0.372013	-0.440104	-0.277845	0.460831	0.33617	0.433418	-0.426626	-0.424986	-0.410068	-0.35904	0.410158	-0.445975	-0.473408	0.463236	0.46646	0.4354	0.407084	0.389075	-0.372092	0.396201	0.459368	0.451442	-0.365494	0.426428	-0.482357	0.507677	0.402689	0.483907	0.446672	0.409564	0.418543
0.421088	0.388417	-0.339731	-0.250971	0.418359	0.412106	0.428811	-0.339176	-0.460667	-0.395992	-0.383442	0.317085	-0.366357	-0.422474	0.524643	0.352164	0.648604	0.427448	0.409188	-0.481844	0.384405	0.404095	0.348461	-0.483511	0.462193	-0.341676	0.500249	0.453721	0.448114	0.497329	0.456217	0.503982
0.419657	0.465959	-0.363825	-0.697814	0.412631	0.465479	0.448206	-0.505502	-0.493212	-0.494476	-0.441554	0.369729	-0.509571	-0.389206	0.392745	0.476086	0.361619	0.498686	0.431794	-0.52093	0.387179	0.35049	0.485242	-0.481107	0.39871	-0.56822	0.433821	0.294055	0.424878	0.407482	0.330619	0.415094
0.352451	0.309357	-0.389651	-0.388235	0.42495	0.559614	0.463882	-0.418183	-0.435948	-0.449321	-0.438843	0.345671	-0.48101	-0.375091	0.50702	0.419174	0.0896889	0.461093	0.333433	-0.294387	0.496058	0.310005	0.506211	-0.360473	0.363796	-0.44693	0.36132	0.22618	0.407964	0.426593	0.44819	0.476491
0.367599	0.301854	-0.329287	-0.566604	0.380185	0.431524	0.315435	-0.312408	-0.429936	-0.417432	-0.357056	0.3488	-0.413046	-0.338132	0.344242	0.340287	0.513585	0.338533	0.446551	-0.416101	0.403098	0.397508	0.289807	-0.409428	0.425661	-0.455883	0.376471	0.319401	0.350871	0.37125	0.367407	0.390573
0.364429	0.347027	-0.460966	-0.487356	0.37862	0.3635	0.428647	-0.373203	-0.399254	-0.405139	-0.420767	0.340535	-0.442012	-0.415118	0.209856	0.393079	0.632913	0.366073	0.361508	-0.363571	0.403006	0.34417	0.388637	-0.376215	0.41337	-0.450402	0.408114	0.286346	0.394452	0.385962	0.356619	0.37758
0.40117	0.499281	-0.44779	-0.509129	0.471334	0.375781	0.404496	-0.435639	-0.439392	-0.416426	-0.499183	0.398392	-0.528519	-0.417847	0.533513	0.410702	0.433795	0.484726	0.457005	-0.401821	0.414585	0.438479	0.353717	-0.416898	0.46913	-0.399765	0.442794	0.454413	0.456335	0.47813	0.405149	0.425062
0.4361	0.343432	-0.367348	-0.355209	0.297891	0.402839	0.433976	-0.359768	-0.369067	-0.352301	-0.332445	0.430751	-0.326399	-0.346791	0.350317	0.342027	0.368913	0.405333	0.399741	-0.390297	0.429714	0.335077	0.386756	-0.332098	0.370816	-0.156615	0.363987	0.401049	0.39115	0.349501	0.298175	0.434923
0.468206	0.399345	-0.470294	-0.371531	0.509188	0.466968	0.42263	-0.47859	-0.41112	-0.401254	-0.470691	0.449693	-0.424001	-0.453177	0.337059	0.436032	0.406003	0.459172	0.405329	-0.487081	0.466656	0.440752	0.452556	-0.410593	0.404119	-0.489306	0.520305	0.41121	0.400786	0.416126	0.434476	0.483556
0.391727	0.474999	-0.494926	-0.320263	0.462877	0.419465	0.47381	-0.476482	-0.472366	-0.396773	-0.486217	0.465719	-0.533494	-0.425462	0.433264	0.485599	0.544401	0.472754	0.452672	-0.424564	0.41246	0.458386	0.417685	-0.379786	0.458073	-0.375909	0.454205	0.445031	0.383968	0.442566	0.431236	0.379112
0.458153	0.444062	-0.384858	-0.322884	0.396733	0.334309	0.410051	-0.377242	-0.449874	-0.453775	-0.42166	0.394099	-0.465784	-0.462364	0.349323	0.454078	0.677839	0.397621	0.384557	-0.400883	0.381516	0.483744	0.426662	-0.39548	0.465317	-0.467798	0.436567	0.412295	0.460484	0.467855	0.423805	0.366246
0.464195	0.376968	-0.412604	-0.507679	0.446763	0.370756	0.320847	-0.308909	-0.353251	-0.340316	-0.337539	0.404762	-0.242907	-0.320826	0.429012	0.436626	0.322196	0.358183	0.304142	-0.363788	0.26947	0.383804	0.208272	-0.417565	0.327289	-0.240229	0.337604	0.367517	0.442118	0.3352	0.407706	0.355204
0.502407	0.472635	-0.408798	-0.600279	0.565232	0.388012	0.548334	-0.494752	-0.514928	-0.479391	-0.472302	0.39814	-0.523057	-0.447617	0.163887	0.509846	0.0194155	0.510619	0.529269	-0.516271	0.532046	0.424541	0.342579	-0.389834	0.445223	-0.479479	0.305843	0.530772	0.524391	0.484221	0.344266	0.422362
0.397432	0.393707	-0.438983	-0.324601	0.503466	0.480275	0.457432	-0.473864	-0.416846	-0.39753	-0.377118	0.415191	-0.455806	-0.465274	0.241268	0.421977	0.609283	0.436513	0.429062	-0.500706	0.431447	0.403444	0.468798	-0.501622	0.362262	-0.54605	0.415965	0.451009	0.421654	0.51458	0.480674	0.381076
0.372406	0.458673	-0.388787	-0.235234	0.480209	0.348836	0.389365	-0.402107	-0.36144	-0.360864	-0.385315	0.239957	-0.550446	-0.53793	0.68566	0.494066	0.558382	0.352708	0.35663	-0.405909	0.275363	0.481442	0.401132	-0.230272	0.518195	-0.527481	0.258659	0.346526	0.543698	0.402499	0.501413	0.443722
0.362303	0.337021	-0.411577	-0.334601	0.447684	0.465374	0.529602	-0.514552	-0.466598	-0.399902	-0.451457	0.418448	-0.396305	-0.442893	0.413632	0.366079	0.469075	0.466368	0.382763	-0.456286	0.512023	0.503346	0.478828	-0.396432	0.457295	-0.573777	0.425685	0.437585	0.367486	0.425921	0.466436	0.46922
0.484177	0.45812	-0.470265	-0.287513	0.512523	0.528591	0.514931	-0.429186	-0.5489	-0.485906	-0.432853	0.375194	-0.589058	-0.423438	0.181361	0.455747	0.591196	0.548743	0.504063	-0.485178	0.286714	0.456385	0.523293	-0.534555	0.509313	-0.264251	0.411836	0.40705	0.537364	0.562367	0.431066	0.451978
0.504327	0.508484	-0.472573	-0.383783	0.425078	0.465836	0.494481	-0.480954	-0.421833	-0.513136	-0.438132	0.497797	-0.402338	-0.475635	0.384567	0.470022	0.286383	0.51163	0.429722	-0.521688	0.462703	0.390112	0.376291	-0.423636	0.499106	-0.394574	0.480356	0.42766	0.492756	0.488092	0.458396	0.457409
0.451588	0.420017	-0.427106	-0.411185	0.479479	0.458241	0.49234	-0.489737	-0.380164	-0.450153	-0.508288	0.380406	-0.408899	-0.466515	0.346567	0.455554	0.531492	0.488802	0.462562	-0.450387	0.409173	0.460059	0.411528	-0.445552	0.420881	-0.477444	0.488599	0.368491	0.44698	0.455573	0.397446	0.389743
0.402451	0.404339	-0.386069	-0.631104	0.285428	0.344067	0.212	-0.287087	-0.334275	-0.22034	-0.445402	0.378929	-0.108549	-0.366795	0.593557	0.235122	0.0979624	0.321208	0.235866	-0.200059	0.377267	0.407473	0.308073	-0.27293	0.317935	-0.478895	0.287053	0.248528	0.310055	0.371177	0.328275	0.369621
0.417354	0.421354	-0.455379	-0.426313	0.507	0.514796	0.469248	-0.377454	-0.390152	-0.370146	-0.429794	0.458498	-0.437888	-0.41004	0.432793	0.404843	0.352493	0.407095	0.425821	-0.373325	0.415071	0.428159	0.408824	-0.339145	0.435477	-0.481498	0.491743	0.465534	0.490709	0.402875	0.463243	0.377632
0.362456	0.451026	-0.366058	-0.28529	0.420874	0.261464	0.342128	-0.367829	-0.4061	-0.374035	-0.387036	0.23653	-0.0278038	-0.420415	0.47651	0.455947	0.107969	0.404765	0.411926	-0.380029	0.364493	0.302581	0.404379	-0.379603	0.343522	-0.278777	0.315891	0.326557	0.308228	0.29223	0.442444	0.289892
0.313084	0.396463	-0.349964	-0.184422	0.351354	0.433021	0.391984	-0.394684	-0.393652	-0.316041	-0.348029	0.387481	-0.499802	-0.38254	0.119458	0.397157	0.636127	0.303381	0.320487	-0.408594	0.31592	0.401171	0.287145	-0.412782	0.331288	-0.330977	0.341602	0.356261	0.307256	0.342233	0.331194	0.31185
0.408292	0.463746	-0.433405	-0.229722	0.386036	0.380698	0.422976	-0.381205	-0.371736	-0.391028	-0.370083	0.350862	-0.181525	-0.43813	0.358611	0.414969	0.584354	0.472926	0.404382	-0.432422	0.317155	0.422908	0.296295	-0.406746	0.391073	-0.288776	0.423331	0.418118	0.417019	0.480298	0.473447	0.379911
0.422997	0.470661	-0.471767	-0.346053	0.425423	0.462666	0.445814	-0.472139	-0.469908	-0.369616	-0.446446	0.449959	-0.53818	-0.403099	0.422151	0.487245	0.477056	0.369678	0.41974	-0.42676	0.434571	0.439543	0.468727	-0.398784	0.397991	-0.323757	0.370975	0.434367	0.362743	0.42987	0.487924	0.378976
0.385808	0.470512	-0.469218	-0.409262	0.430199	0.306928	0.382559	-0.45805	-0.395583	-0.369547	-0.45314	0.33655	-0.439908	-0.39302	0.0343578	0.427168	0.462705	0.250409	0.428948	-0.323898	0.437906	0.354062	0.42056	-0.476864	0.500979	-0.404273	0.449035	0.438972	0.434886	0.4507	0.442118	0.340098
0.410252	0.467454	-0.410921	-0.506768	0.439123	0.435183	0.400606	-0.409967	-0.476513	-0.450456	-0.465228	0.455163	-0.523448	-0.424759	0.568936	0.465819	0.303485	0.364615	0.43063	-0.387125	0.4757	0.353189	0.415192	-0.385169	0.362372	-0.435726	0.40868	0.404182	0.459624	0.409512	0.411178	0.40609
0.344966	0.415473	-0.359046	-0.395459	0.441013	0.313877	0.392506	-0.331441	-0.416218	-0.443552	-0.441085	0.461413	-0.441374	-0.389136	0.437525	0.380277	0.214622	0.357415	0.407643	-0.373699	0.336506	0.437908	0.39855	-0.380291	0.395351	-0.466575	0.352477	0.331019	0.398287	0.417988	0.377015	0.417444
0.384461	0.439928	-0.39681	-0.267931	0.444897	0.433713	0.329162	-0.34664	-0.407011	-0.442739	-0.408919	0.440119	-0.420295	-0.447148	0.373331	0.350225	0.528848	0.379475	0.454087	-0.476814	0.370907	0.386125	0.433534	-0.320632	0.38666	-0.414997	0.391801	0.445901	0.391385	0.444483	0.406496	0.440839
0.448058	0.396802	-0.36374	-0.489462	0.388349	0.32393	0.388722	-0.373521	-0.373627	-0.359765	-0.418662	0.386546	-0.420444	-0.450834	0.334502	0.472136	0.505939	0.439004	0.3965	-0.42072	0.404997	0.402011	0.421158	-0.41157	0.337178	-0.435533	0.47811	0.404417	0.399045	0.341804	0.474994	0.409902
0.434583	0.490348	-0.45103	-0.513102	0.447323	0.49832	0.473882	-0.455988	-0.351938	-0.424564	-0.276479	0.552951	-0.331108	-0.364081	0.213517	0.395341	0.617461	0.411348	0.50856	-0.442013	0.470054	0.545344	0.549059	-0.418952	0.348373	-0.565676	0.363265	0.276683	0.322864	0.442459	0.339206	0.363451
0.363234	0.400431	-0.384843	-0.53743	0.307071	0.326788	0.415558	-0.419204	-0.36977	-0.361651	-0.343984	0.396155	-0.348967	-0.327841	0.494305	0.36005	0.439094	0.400367	0.263759	-0.376129	0.51362	0.387928	0.409558	-0.464401	0.384243	-0.385605	0.445264	0.351045	0.400661	0.344776	0.454149	0.443975
0.359703	0.493874	-0.440165	-0.182651	0.457272	0.417368	0.413246	-0.474367	-0.419714	-0.466786	-0.392888	0.446429	-0.385828	-0.385022	0.371607	0.462794	0.373977	0.47933	0.477989	-0.4532	0.393903	0.381962	0.372386	-0.384729	0.519562	-0.288455	0.397817	0.419829	0.427845	0.399289	0.472478	0.442794
0.39717	0.422784	-0.460457	-0.31609	0.420573	0.477685	0.38178	-0.462451	-0.424338	-0.37355	-0.374246	0.388402	-0.400625	-0.471029	0.365655	0.443125	0.461224	0.479004	0.348242	-0.387605	0.398657	0.420679	0.3971	-0.392421	0.343312	-0.377664	0.481113	0.34117	0.41789	0.409972	0.444886	0.373799
0.517926	0.509641	-0.422502	-0.30543	0.516054	0.47186	0.507608	-0.489661	-0.505277	-0.461875	-0.423007	0.495842	-0.41741	-0.439348	0.356753	0.493787	0.538796	0.47865	0.434628	-0.472943	0.483877	0.467363	0.509768	-0.459811	0.50022	-0.404772	0.424411	0.464544	0.509089	0.442652	0.418093	0.403708
0.440148	0.348857	-0.438228	-0.32242	0.426048	0.444728	0.413431	-0.506078	-0.467178	-0.45758	-0.466042	0.410677	-0.497252	-0.414599	0.399859	0.333609	0.526338	0.379196	0.413359	-0.487251	0.376459	0.411521	0.44675	-0.387334	0.45433	-0.407223	0.399446	0.404655	0.450115	0.435182	0.459668	0.391759
0.361615	0.477391	-0.316927	-0.374889	0.346494	0.421188	0.404708	-0.410069	-0.286152	-0.430338	-0.388696	0.343709	-0.4768	-0.427611	0.228062	0.421614	0.406748	0.383314	0.412067	-0.401896	0.401005	0.296436	0.371084	-0.455843	0.353764	-0.383009	0.314891	0.325743	0.356936	0.414331	0.332345	0.41186
0.396348	0.426536	-0.32332	-0.479968	0.330357	0.482188	0.340914	-0.365566	-0.43929	-0.329168	-0.332529	0.463819	-0.33156	-0.342099	0.150017	0.419444	0.300468	0.418032	0.383878	-0.276656	0.448655	0.4127	0.464063	-0.373739	0.456135	-0.491026	0.262852	0.340125	0.37617	0.443545	0.406221	0.294466
0.408847	0.397195	-0.390881	-0.368001	0.427318	0.476179	0.414288	-0.376926	-0.387442	-0.456218	-0.423212	0.441321	-0.401565	-0.469438	0.298467	0.350243	0.583925	0.434487	0.412295	-0.419489	0.442321	0.425267	0.478302	-0.4672	0.425584	-0.434896	0.378491	0.390237	0.405983	0.42565	0.395413	0.454499
0.421395	0.440467	-0.483698	-0.0914781	0.396798	0.269197	0.444298	-0.411947	-0.477778	-0.388925	-0.403099	0.372651	-0.548801	-0.495181	0.236256	0.394178	0.370655	0.426905	0.469145	-0.522826	0.48618	0.467592	0.361069	-0.459223	0.443622	-0.50959	0.382645	0.434909	0.513101	0.37144	0.484579	0.360427
0.349055	0.378952	-0.418213	-0.395896	0.379939	0.389071	0.392272	-0.432206	-0.485916	-0.457659	-0.470625	0.470683	-0.192083	-0.363314	0.650306	0.457494	-0.168791	0.486185	0.384452	-0.302475	0.359857	0.426486	0.502523	-0.420127	0.398029	-0.147357	0.315131	0.492597	0.424658	0.435323	0.519053	0.469002
0.349469	0.307914	-0.461747	-0.347729	0.450699	0.437521	0.345801	-0.352269	-0.356476	-0.372541	-0.409204	0.383218	-0.502773	-0.308657	0.322792	0.345777	0.279345	0.321164	0.372949	-0.39968	0.383417	0.394726	0.344912	-0.334652	0.374852	-0.375972	0.413202	0.395747	0.348246	0.378978	0.360018	0.312208
0.382345	0.384337	-0.319408	-0.413795	0.437361	0.441324	0.387965	-0.307311	-0.35373	-0.341898	-0.465339	0.444549	-0.49935	-0.39321	0.37296	0.34962	0.310619	0.407442	0.428853	-0.405146	0.453908	0.373311	0.428961	-0.38016	0.362357	-0.386054	0.382924	0.335351	0.388914	0.310027	0.37077	0.45134
0.459264	0.402261	-0.397461	-0.317422	0.376137	0.358245	0.442886	-0.420429	-0.474486	-0.459828	-0.403069	0.469957	-0.446119	-0.390579	0.578387	0.431595	0.516831	0.445473	0.403449	-0.469216	0.408815	0.403489	0.437899	-0.435674	0.420384	-0.390201	0.410235	0.338146	0.392819	0.408378	0.403149	0.430314
0.420583	0.444876	-0.379651	-0.135116	0.480962	0.410507	0.314142	-0.333127	-0.385187	-0.430568	-0.355985	0.355559	-0.457416	-0.387197	0.302549	0.425273	0.181509	0.441486	0.36306	-0.404843	0.297259	0.451751	0.42159	-0.371256	0.359479	-0.433573	0.470845	0.433321	0.467717	0.374528	0.372149	0.384378
0.290249	0.325245	-0.294861	-0.554016	0.282274	0.333946	0.237202	-0.258836	-0.459717	-0.409165	-0.379874	0.279276	-0.190627	-0.232875	0.316874	0.251195	-0.0994392	0.275316	0.388326	-0.217866	0.439482	0.341015	0.366218	-0.206655	0.251393	-0.666726	0.256873	0.306835	0.37279	0.181076	0.190954	0.282789
0.432767	0.383355	-0.316005	-0.417682	0.398822	0.420469	0.398091	-0.452373	-0.452561	-0.436781	-0.454388	0.404892	-0.181526	-0.377542	0.328554	0.400013	0.586295	0.426177	0.454716	-0.419741	0.397012	0.44049	0.358282	-0.410225	0.480982	-0.369987	0.410664	0.333915	0.356987	0.409617	0.369815	0.460342
0.404594	0.428177	-0.475514	-0.267398	0.47701	0.376633	0.496346	-0.47169	-0.431754	-0.512366	-0.46996	0.397223	-0.483891	-0.513038	0.326127	0.505773	0.523898	0.496599	0.4171	-0.528955	0.415774	0.491654	0.458324	-0.480306	0.398607	-0.355016	0.447577	0.39989	0.441953	0.478826	0.4256	0.444629
